{"input_shape": [28, 28], "preprocess": {"scale": 255}, "layers": [{"type": "dense", "units": 128, "activation": "relu", "W": [[-0.014809803105890751, 0.01278656255453825, -0.0028832536190748215, 0.004272447898983955, -0.07264085859060287, 0.050120119005441666, 0.005396595690399408, -0.045995015650987625, -0.04265131056308746, -0.030317053198814392, 0.009973547421395779, 0.0009486560593359172, -0.009878585115075111, -0.048870716243982315, 0.0672859475016594, -0.008711855858564377, -0.03208717331290245, 0.04747067764401436, -0.04798270761966705, -0.009687128476798534, 0.011651493608951569, 0.03465815261006355, 0.016914527863264084, 0.013060644268989563, 0.00023399497149512172, 0.029355056583881378, 0.056403111666440964, 0.02948443964123726, -0.005120326764881611, -0.017139187082648277, -0.020281601697206497, 0.024580005556344986, 0.012621921487152576, 0.04268817603588104, 0.06077231839299202, 0.2017129808664322, 0.12304490059614182, 0.11383821070194244, -0.014142055064439774, 0.1053016185760498, -0.05743882805109024, -0.060896147042512894, -0.043965939432382584, 0.02332904189825058, -0.026281947270035744, -0.09663606435060501, -0.01423048134893179, 0.037898968905210495, 0.03522379696369171, -0.027189696207642555, 0.0365898571908474, 0.09181251376867294, -0.036801453679800034, 0.019129261374473572, 0.05526717007160187, -0.03832566365599632, -0.0006829133490100503, 0.03267074376344681, -0.004994507413357496, 0.016105778515338898, -0.023840460926294327, -0.011899051256477833, -0.026215316727757454, 0.07477053254842758, 0.08442675322294235, -0.16255754232406616, -0.27744385600090027, -0.16942980885505676, -0.20400656759738922, -0.43804436922073364, -0.2583634853363037, -0.1527870148420334, -0.051953088492155075, -0.03831291198730469, 0.026561666280031204, 0.03809153661131859, 0.06756553798913956, -0.038023270666599274, 0.06962467730045319, 0.09607911854982376, 0.017354192212224007, -0.03900989517569542, -0.005963379517197609, -0.05167629197239876, 0.07835966348648071, -0.0004679941339418292, -0.012227038852870464, 0.05518646538257599, 0.07890594750642776, -0.05033999681472778, 0.06065314635634422, 0.03300083801150322, 0.08056057244539261, 0.07452747225761414, 0.12195755541324615, -0.03990328311920166, 0.033281534910202026, 0.033285707235336304, -0.09521070122718811, -0.009855500422418118, -0.19558073580265045, -0.09639694541692734, -0.09043722599744797, -0.04973800852894783, -0.10114841163158417, -0.06803521513938904, -0.06415626406669617, -0.05529560521245003, 0.035371989011764526, 0.019625239074230194, 0.11579907685518265, -0.030497832223773003, -0.04101858288049698, -0.08418051153421402, -0.1086367592215538, 0.1071007177233696, 0.009120075963437557, -0.1453331857919693, -0.03170361369848251, -0.016425415873527527, -0.09150471538305283, 0.0060275280848145485, -0.004934449680149555, 0.061602286994457245, 0.01955687813460827, -0.05299774184823036, 0.07305222004652023, 0.0690140351653099, -0.005799829959869385, -0.057988185435533524, 0.010991972871124744, -0.12265047430992126, -0.0902685821056366, -0.026230664923787117, 0.01984497718513012, -0.040712084621191025, 0.024057330563664436, 0.16200236976146698, 0.0948043018579483, 0.07820769399404526, -0.06344010680913925, -0.025980470702052116, -0.01871422305703163, 0.07067537307739258, -0.19791728258132935, -0.261064350605011, -0.1841893494129181, -0.15308019518852234, 0.023200564086437225, 0.03741957247257233, 0.05550866201519966, 0.30165719985961914, 0.045674197375774384, 0.21387088298797607, 0.021563826128840446, 0.09297744929790497, -0.0019242973066866398, -0.04154973477125168, -0.008332330733537674, -0.07043515145778656, -0.0459277480840683, -0.05381321907043457, 0.12278708815574646, 0.0014978954568505287, -0.029051631689071655, 0.18880462646484375, 0.05021997168660164, -0.08133789151906967, 0.020675934851169586, 0.05437402054667473, 0.04152321070432663, -0.18775013089179993, -0.07997510582208633, -0.21803471446037292, -0.10803411155939102, -0.082431361079216, 0.06541525572538376, 0.10377061367034912, 0.16820000112056732, 0.1617560088634491, 0.17777837812900543, 0.30446332693099976, 0.36037951707839966, 0.2822315990924835, 0.05954747647047043, -0.01993892341852188, 0.06950818002223969, -0.19168034195899963, -0.16034510731697083, -0.16849243640899658, -0.08317307382822037, -0.005898055154830217, -0.010656599886715412, 0.1011115163564682, 0.042045556008815765, 0.012079889886081219, 0.04536406323313713, -0.11209095269441605, -0.05988551676273346, -0.1415749043226242, -0.14436091482639313, -0.19864138960838318, -0.05371217057108879, -0.06728969514369965, 0.03625377640128136, 0.07118529081344604, 0.17434921860694885, 0.1285661906003952, 0.2199636846780777, 0.19685092568397522, 0.07047050446271896, 0.04558894410729408, 0.009863259270787239, -0.11604535579681396, -0.06735343486070633, -0.06337215006351471, -0.19691330194473267, -0.04410377889871597, -0.16989414393901825, -0.19170306622982025, -0.14619119465351105, 0.003294882597401738, -0.04745171591639519, 0.00801356602460146, 0.02876604162156582, -0.04969952628016472, -0.1728224903345108, -0.2488062083721161, -0.22499610483646393, -0.14460903406143188, 0.09251601994037628, -0.06832537800073624, 0.15743263065814972, 0.1286206692457199, 0.11598411947488785, 0.15487873554229736, -0.048190224915742874, -0.03988765552639961, 0.15009644627571106, -0.05792462080717087, 0.057043056935071945, -0.018796874210238457, 0.01572534069418907, 0.000710722932126373, -0.11766743659973145, -0.07868190854787827, -0.11216189712285995, -0.12111440300941467, -0.09908478707075119, 0.0518961139023304, 0.01252656988799572, -0.0075497557409107685, -0.041626788675785065, -0.17427228391170502, -0.2062681019306183, -0.1580251008272171, -0.029388705268502235, 0.0132620083168149, 0.12790410220623016, 0.0961105227470398, 0.23748880624771118, 0.21361511945724487, 0.13918539881706238, 0.025571005418896675, -0.0793025940656662, -0.17826300859451294, -0.1453019082546234, -0.05798715353012085, -0.024830009788274765, 0.10002440214157104, 0.05031339451670647, -0.08470755070447922, -0.0857655256986618, -0.08354336023330688, -0.18447719514369965, -0.08159425854682922, 0.01685246266424656, 0.16388916969299316, 0.029992513358592987, 0.06434237957000732, -0.13343822956085205, -0.08780461549758911, 0.021871816366910934, -0.09529633820056915, -0.037989094853401184, 0.11214844882488251, 0.26276031136512756, 0.20729385316371918, 0.1987520009279251, 0.1248575821518898, -0.01003082562237978, -0.019152000546455383, -0.11083328723907471, -0.11248992383480072, -0.07511890679597855, -0.06317726522684097, 0.1396058350801468, 0.09909244626760483, 0.09048161655664444, -0.0164903923869133, -0.03784727305173874, 0.011094887740910053, -0.03224202245473862, -0.03481227159500122, -0.032467301934957504, 0.17810533940792084, 0.1476992666721344, -0.0482979454100132, -0.04079372435808182, -0.2042003870010376, -0.10294558107852936, -0.10749154537916183, -0.020147331058979034, 0.08585469424724579, 0.06732551753520966, 0.13528068363666534, 0.16379410028457642, 0.0509522445499897, -0.024686863645911217, -0.019571995362639427, 0.003929448314011097, 0.21844950318336487, -0.0012002532603219151, 0.07345328480005264, 0.07378692924976349, 0.15428084135055542, 0.08018796145915985, -0.0208487119525671, -0.06306091696023941, 0.11903617531061172, 0.08464310318231583, 0.07618899643421173, 0.081099733710289, 0.2605419158935547, 0.17854370176792145, -0.1244785264134407, 0.034091465175151825, -0.059518128633499146, -0.09777224808931351, -0.06568127125501633, 0.04953756555914879, -0.008177618496119976, 0.12212040275335312, 0.043503254652023315, 0.000895510136615485, -0.001745750312693417, 0.03887143358588219, -0.04108431562781334, -0.057209987193346024, -0.034036505967378616, 0.003931058570742607, 0.021460700780153275, -0.008430051617324352, 0.040490854531526566, 0.08374138921499252, -0.012344691902399063, 0.09190783649682999, 0.012946085073053837, 0.024072572588920593, 0.16378268599510193, 0.03030768781900406, -0.052821818739175797, 0.0698571503162384, -0.1262802630662918, -0.03535423427820206, -0.09174375981092453, -0.08373459428548813, 0.0008990701171569526, 0.019534973427653313, 0.15980111062526703, 0.09767933934926987, 0.08903660625219345, -0.07498156279325485, 0.060314662754535675, 0.07444474846124649, -0.024819357320666313, -0.022508271038532257, -0.048870813101530075, 0.03677832707762718, -0.12366857379674911, -0.1257179230451584, -0.1654987633228302, 0.015528506599366665, 0.022602809593081474, 0.02906055562198162, 0.04678308591246605, 0.03319774568080902, 0.05973106622695923, 0.04417061060667038, -0.004061250481754541, -0.08698318898677826, 0.008351193740963936, 0.009577717632055283, -0.06402940303087234, -0.21037624776363373, 0.010135614313185215, 0.00039033257053233683, -0.03670250251889229, -0.0671689435839653, 0.008815908804535866, -0.025402739644050598, 0.013904036022722721, -0.05143044888973236, 0.034026842564344406, -0.09516141563653946, -0.014789942651987076, -0.08556050062179565, -0.14894166588783264, -0.2598874270915985, -0.12271302193403244, -0.06315100193023682, -0.018607063218951225, 0.03926357999444008, 0.13444148004055023, 0.1761043816804886, 0.02607215940952301, 0.037358105182647705, 0.013129863888025284, -0.052690792828798294, 0.07188848406076431, 0.030159883201122284, -0.024561498314142227, -0.23883803188800812, -0.10796516388654709, 0.04143819212913513, -0.028464622795581818, -0.058360371738672256, 0.0038242903538048267, -0.12150532752275467, 0.03181184083223343, 0.01567457802593708, -0.06404873728752136, -0.0057577164843678474, -0.051512643694877625, -0.1298447549343109, -0.07283257693052292, -0.13920366764068604, -0.06793031841516495, -0.036158137023448944, 0.03226865082979202, 0.0636773481965065, 0.1708683967590332, 0.1032998263835907, 0.08432142436504364, 0.17078867554664612, 0.050897546112537384, -0.23251959681510925, -0.12060276418924332, -0.034692663699388504, -0.033889289945364, -0.046569131314754486, 0.0489155538380146, -0.04554368183016777, -0.008518364280462265, -0.26052597165107727, -0.18688713014125824, -0.15908804535865784, -0.08685695379972458, 0.007572116330265999, 0.005166530609130859, 0.002814988372847438, 0.0612257681787014, -0.08161511272192001, -0.11626505851745605, -0.1528991460800171, -0.04749033972620964, -0.023499833419919014, 0.1375681310892105, 0.09576360881328583, 0.03799324855208397, 0.0874510183930397, 0.051415279507637024, 0.01518553588539362, -0.042926106601953506, -0.17099060118198395, -0.022762440145015717, -0.09919389337301254, -0.024727551266551018, -0.07480049133300781, 0.12515603005886078, -0.09279155731201172, -0.04459443688392639, -0.17822447419166565, -0.21870121359825134, -0.18409974873065948, -0.07055351138114929, 0.07483357936143875, 0.04678095132112503, 0.051566217094659805, -0.053923867642879486, -0.15597346425056458, -0.10663197934627533, -0.0976083055138588, -0.054271094501018524, -0.08647818118333817, 0.008303751237690449, 0.05893619358539581, 0.12375330179929733, 0.09101469814777374, 0.035870689898729324, 0.08591479808092117, 0.01875103823840618, -0.2595464885234833, 0.11049650609493256, -0.10594286769628525, -0.11329628527164459, -0.23299404978752136, 0.03294442966580391, 0.006544978823512793, 0.016961058601737022, 0.014489696361124516, -0.1811879575252533, -0.11069642752408981, -0.2324652373790741, -0.03042253665626049, 0.05990020930767059, -0.013010413385927677, -0.07024233788251877, -0.2164168357849121, -0.15259189903736115, -0.07420765608549118, -0.06613739579916, 0.03395071253180504, 0.1264658123254776, 0.21323028206825256, 0.020077191293239594, 0.04096566140651703, 0.06186787039041519, -0.024311481043696404, -0.10141224414110184, -0.014017153531312943, 0.03883301466703415, -0.09795010834932327, -0.0882476419210434, 0.01439761370420456, 0.08410998433828354, 0.09773766249418259, -0.034200750291347504, -0.12813299894332886, -0.09655655920505524, -0.07753482460975647, -0.13637983798980713, -0.10320074111223221, -0.04687109589576721, 0.05497875437140465, -0.21325722336769104, -0.2547076642513275, -0.09692975133657455, -0.10227052867412567, 0.0674506202340126, 0.19691526889801025, 0.04852455481886864, 0.2582046389579773, 0.18028153479099274, 0.20231127738952637, -0.05022579804062843, -0.04979446902871132, -0.17389456927776337, 0.01781812496483326, 0.030859481543302536, -0.034832507371902466, 0.02348022349178791, 0.08106653392314911, 0.11182527989149094, 0.07951731979846954, 0.14785119891166687, -0.018183454871177673, -0.07458826899528503, -0.05898520350456238, -0.04815038666129112, -0.10952351987361908, -0.1302383989095688, -0.051408782601356506, -0.08707137405872345, -0.15003925561904907, -0.03628258779644966, 0.04242363199591637, 0.015144001692533493, 0.12175118178129196, 0.006602326408028603, 0.136574387550354, -0.11520169675350189, 0.049367718398571014, 0.04645517095923424, -0.00021194532746449113, 0.06800615042448044, -0.0011083906283602118, 0.0429239422082901, -0.06278540194034576, -0.009365865029394627, -0.1313362568616867, -0.07744140177965164, 0.13088253140449524, -0.044702183455228806, 0.022512516006827354, -0.07168064266443253, 0.0014405238907784224, -0.049429260194301605, -0.028606517240405083, -0.052099041640758514, -0.09084111452102661, 0.01462498214095831, 0.01842387765645981, -0.007091111037880182, 0.11765796691179276, 0.08281067758798599, 0.09140142798423767, 0.002188020385801792, 0.04471772536635399, -0.10382548719644547, -0.0392015166580677, 0.029350826516747475, 0.03952615335583687, 0.20909340679645538, 0.12667500972747803, 0.0782763808965683, 0.04480075091123581, 0.02569597400724888, -0.12693417072296143, -0.0016997569473460317, 0.060360752046108246, -0.042348675429821014, -0.10366905480623245, -0.06362655013799667, -0.06291509419679642, -0.03480001166462898, -0.042056094855070114, 0.10074019432067871, 0.0897657573223114, 0.037990886718034744, 0.261299192905426, 0.19218659400939941, 0.1946338415145874, 0.07492469996213913, 0.044369060546159744, -0.11945128440856934, -0.012945909053087234, -0.16071845591068268, 0.04964165389537811, 0.058909352868795395, -0.015412071719765663, -0.02608124166727066, 0.0547870397567749, 0.002396146534010768, 0.017337923869490623, 0.003598062554374337, 0.02919105999171734, 0.15322886407375336, 0.07592696696519852, 0.17503273487091064, 0.021803878247737885, 0.02745598554611206, 0.12481822073459625, 0.03421002998948097, 0.06781129539012909, 0.1316937357187271, 0.12994979321956635, 0.17408137023448944, 0.16378453373908997, 0.04584510624408722, 0.184731125831604, 0.08552398532629013, 0.07564180344343185, -0.10483276098966599, 0.06877177208662033, 0.05323169752955437, 0.08869224041700363, 0.20423370599746704, 0.19088762998580933, 0.03764833137392998, 0.07380751520395279, 0.010499122552573681, 0.06026090309023857, -0.05758912116289139, -0.10236126184463501, 0.05890028923749924, -0.05594833567738533, 0.12214302271604538, 0.05879279226064682, 0.15746456384658813, 0.11916842311620712, 0.05286293849349022, 0.12013174593448639, 0.08666642010211945, 0.16980621218681335, 0.14435766637325287, 0.11256714165210724, 0.09597717225551605, -0.006341921165585518, -0.11770728975534439, 0.11114092916250229, 0.13809886574745178, 0.08545144647359848, 0.03331170976161957, 0.08885990083217621, 0.2115527242422104, 0.10708450525999069, -0.07302672415971756, -0.08180803060531616, -0.07481830567121506, -0.014589725993573666, 0.10163816064596176, 0.08044104278087616, 0.03179240599274635, 0.0060813468880951405, 0.19544686377048492, 0.11401836574077606, 0.17048874497413635, -0.004929868504405022, 0.031607065349817276, 0.03898519650101662, 0.05498276278376579, -0.03527982160449028, -0.00694259675219655, -0.08437593281269073, -0.015802323818206787, 0.01918693631887436, 0.1319853961467743, 0.04708075150847435, 0.24776896834373474, 0.256296843290329, 0.1939733326435089, 0.10127601027488708, 0.13920451700687408, 0.20229290425777435, 0.04148784652352333, -0.12247460335493088, -0.11891390383243561, -0.11599176377058029, -0.08461577445268631, -0.05974903330206871, -0.03627122938632965, -0.00025129751884378493, 0.22342438995838165, 0.09677307307720184, -0.014961239881813526, -0.035557571798563004, 0.005526822526007891, 0.04167508706450462, 0.13832171261310577, -0.0014320079935714602, 0.05497678369283676, 0.10035839676856995, -0.09861523658037186, 0.04120362177491188, 0.046357691287994385, -0.06318704783916473, 0.026763489469885826, 0.19828499853610992, 0.06510066986083984, 0.11983750760555267, 0.149693101644516, 0.08819257467985153, -0.09097342938184738, 0.03413381800055504, -0.02207622118294239, 0.007803917396813631, -0.006311735138297081, 0.0355176143348217, -0.08108072727918625, 0.02762749418616295, -0.01245171669870615, 0.014245680533349514, 0.003820595098659396, -0.004612400196492672, -0.08750409632921219, -0.0755557119846344, -0.05017741024494171, -0.025862377136945724, -0.08800368010997772, -0.028113141655921936, 0.06325683742761612, 0.05977509543299675, -0.11781492829322815, -0.02455235831439495, -0.01277486514300108, -0.002825579373165965, -0.005153425969183445, -0.05226834490895271, -0.10567515343427658, -0.04822877421975136, 0.013773648999631405, 0.022027146071195602, -0.002317554783076048], [0.0949055403470993, -0.11788272112607956, 0.06314025074243546, 0.06300193071365356, 0.03811141103506088, 0.04946259409189224, -0.02877788245677948, -0.009994884952902794, -0.05583915486931801, 0.030765686184167862, -0.07798191905021667, -0.09821365773677826, -0.014777926728129387, -0.05416344106197357, -0.07207509875297546, 0.05373518168926239, 0.002956358017399907, 0.0004934786702506244, -0.08656095713376999, 0.015270217321813107, -0.04073571786284447, -0.06636162847280502, 0.056864701211452484, -0.04192258045077324, 0.015523158945143223, 0.004859477747231722, 0.09283191710710526, -0.008984611369669437, 0.07962515205144882, 0.013699658215045929, -0.056488849222660065, 0.027128731831908226, -0.10661064833402634, 0.06309744715690613, 0.058727044612169266, 0.14554667472839355, 0.1191290020942688, 0.0443728081882, 0.11004342138767242, 0.12496380507946014, 0.16138452291488647, 0.025236329063773155, -0.1281907558441162, -0.11295431852340698, 0.21850982308387756, 0.22013996541500092, 0.21680328249931335, -0.024465268477797508, 0.023349817842245102, 0.020611491054296494, 0.007737681269645691, 0.1168171837925911, -0.00805360171943903, 0.1175728589296341, -0.02375616878271103, 0.07151693850755692, -0.003245198167860508, 0.010733055882155895, 0.04653993621468544, 0.067580945789814, 0.11893650144338608, 0.03712312504649162, -0.08620362728834152, 0.10011320561170578, 0.13195164501667023, 0.2198549509048462, 0.27699267864227295, 0.1379936933517456, 0.11860916018486023, -0.10515919327735901, 0.010000049136579037, -0.05158071592450142, -0.0017753791762515903, -0.015738388523459435, 0.057771068066358566, -0.15359340608119965, -0.041206132620573044, 0.06343249976634979, 0.20168957114219666, 0.1266038715839386, 0.06991376727819443, 0.03496639057993889, -0.024125585332512856, -0.016261523589491844, -0.09352125972509384, -0.02881552092730999, -0.1271318644285202, 0.004755015950649977, -0.11128062754869461, -0.0676237940788269, 0.035063520073890686, -0.01990402676165104, -0.0204492025077343, 0.020277172327041626, 0.014009742066264153, 0.012142653577029705, -0.06417610496282578, 0.1142982691526413, 0.1280585080385208, -0.04735425487160683, 0.05211939290165901, -0.12251129001379013, -0.1254059374332428, -0.14944134652614594, -0.1514618694782257, 0.12255793064832687, 0.16907502710819244, 0.15980125963687897, 0.08124647289514542, 0.023673314601182938, 0.10530383139848709, -0.013172205537557602, 0.03390515595674515, 0.02956691011786461, -0.14264905452728271, -0.18494141101837158, -0.046931859105825424, -0.011176172643899918, 0.06481145322322845, -0.10834711045026779, -0.1227877214550972, -0.04813264310359955, -0.1288481503725052, -0.08114738762378693, 0.10888490825891495, 0.07193181663751602, 0.11700629442930222, 0.0010054735466837883, -0.046702247112989426, 0.057332832366228104, -0.04211067035794258, -0.05154414102435112, -0.027183128520846367, -0.019602827727794647, 0.08336363732814789, 0.08886498212814331, 0.055935513228178024, 0.10780885070562363, 0.13172870874404907, 0.09218031913042068, 0.08783982694149017, -0.05863284319639206, -0.1084287017583847, -0.022138092666864395, -0.10358628630638123, -0.2672041356563568, -0.04738684371113777, -0.06528066843748093, 0.009989606216549873, -0.024938169866800308, 0.02596786804497242, 0.10705885291099548, 0.10293160378932953, 0.07237301766872406, 0.0444968156516552, 0.11752977222204208, -0.12858101725578308, 0.04792015254497528, 0.04982740059494972, -0.0938614085316658, -0.08276821672916412, -0.05336534231901169, -0.1410180926322937, -0.1623167097568512, 0.0037226825952529907, 0.18632307648658752, 0.04442045837640762, 0.11551062017679214, 0.04444851726293564, -0.06492351740598679, -0.08659055829048157, -0.0527719184756279, -0.09444872289896011, -0.11091170459985733, -0.1032952219247818, 0.024327147752046585, 0.08977608382701874, 0.04282309114933014, 0.019696082919836044, 0.09602859616279602, 0.07627197355031967, 0.06537915021181107, -0.008828660473227501, 0.0830773264169693, 0.07321632653474808, 0.07585464417934418, -0.01853601075708866, 0.027382953092455864, -0.011760988272726536, 0.005276640877127647, -0.07831714302301407, -0.04754073545336723, -0.0687248557806015, 0.105881467461586, -0.015386069193482399, 0.13571132719516754, 0.07721970230340958, -0.05748377740383148, 0.09632793068885803, -0.11394157260656357, -0.041581928730010986, -0.03848014399409294, -0.057634253054857254, -0.14180052280426025, -0.05178256705403328, 0.044363122433423996, 0.038265909999608994, 0.05565410852432251, 0.04173363000154495, 0.09853746742010117, 0.019321171566843987, 0.1463930457830429, 0.1125263124704361, 0.1172143816947937, 0.05249323323369026, -0.020083235576748848, -0.019516415894031525, 0.05709119513630867, 0.06305848062038422, -0.022894741967320442, -0.06453040987253189, 0.15785223245620728, -0.08433260023593903, 0.0184174794703722, -0.22762252390384674, -0.06515625864267349, 0.09950653463602066, 0.014412570744752884, -0.06578978151082993, -0.10219503194093704, 0.009188605472445488, 0.06455808132886887, 0.03196313604712486, 0.02646183967590332, 0.13546530902385712, 0.06075027585029602, 0.04176315292716026, -0.0361764095723629, -0.01834341138601303, -0.07910450547933578, 0.030456697568297386, -0.08483768999576569, -0.0148107735440135, -0.005991222802549601, -0.10372652113437653, 0.02449893206357956, -0.23728753626346588, 0.0008322627982124686, 0.11107255518436432, 0.10426141321659088, -0.13912853598594666, -0.010423736646771431, -0.13759374618530273, -0.03873687982559204, -0.05646755173802376, 0.003213549265637994, -0.06285886466503143, -0.05034950003027916, 0.06074514612555504, -0.026087963953614235, -0.00929664634168148, 0.08623211830854416, 0.01609238050878048, -0.02363015152513981, -0.11986640095710754, 0.021345313638448715, -0.0939255952835083, 0.07774963229894638, -0.1317402422428131, -0.10801521688699722, 0.029017267748713493, -0.03332846984267235, 0.03435802087187767, -0.04148198291659355, -0.1303434520959854, -0.12492670118808746, -0.0325649157166481, 0.03923530876636505, -0.12795263528823853, -0.09949636459350586, -0.06345333158969879, 0.02450045570731163, -0.03918297216296196, -0.00532650388777256, -0.019626177847385406, 0.1716727614402771, 0.13728702068328857, 0.12097252905368805, 0.07703758031129837, 0.1244221180677414, 0.09393464028835297, -0.033766429871320724, -0.010535898618400097, -0.10123315453529358, 0.10803012549877167, -0.04172005504369736, -0.04516633227467537, -0.06867873668670654, -0.006529058795422316, -0.07318594306707382, 0.026170728728175163, -0.011389730498194695, -0.10577116906642914, -0.06368388235569, 0.0753466933965683, -0.09351793676614761, -0.10955291986465454, 0.07107140123844147, -0.05701197683811188, -0.14791922271251678, -0.026446251198649406, -0.02100691758096218, -0.07268577814102173, 0.10921324044466019, 0.06602699309587479, 0.10590466856956482, 0.11812113225460052, 0.060957930982112885, 0.04681442305445671, -0.024768874049186707, -0.018954720348119736, 0.03361046686768532, 0.027944201603531837, 0.013737276196479797, 0.024372611194849014, -0.023080147802829742, -0.03319445624947548, 0.16124692559242249, 0.03772906959056854, 0.09049693495035172, 0.043506283313035965, 0.07540842890739441, 0.050559233874082565, 0.008789499290287495, 0.048594310879707336, -0.14134541153907776, -0.045243117958307266, 0.027069414034485817, -0.021159544587135315, 0.047543883323669434, 0.07345711439847946, 0.016274023801088333, 0.07735307514667511, 0.0721239224076271, 0.09073091298341751, 0.026332635432481766, -0.12713934481143951, 0.049327511340379715, -0.14077875018119812, -0.09490837901830673, -0.017301438376307487, -0.023223696276545525, -0.042377982288599014, 0.06917566806077957, -0.1581486463546753, -0.04313771799206734, 0.0005358491907827556, 0.14112839102745056, 0.11831776797771454, 0.1659618616104126, 0.15944726765155792, -0.04321165010333061, -0.13693876564502716, -0.10637602210044861, -0.11279158294200897, -0.021572422236204147, -0.11783410608768463, 0.011258560232818127, 0.14671647548675537, 0.16569000482559204, -0.04215826466679573, 0.012553764507174492, 0.012731737457215786, -0.009005569852888584, 0.1136755421757698, 0.01538845431059599, -0.03156617283821106, 0.01488339900970459, -0.03952663019299507, 0.023752866312861443, 0.06421128660440445, -0.055732082575559616, -0.0029079546220600605, 0.04253394901752472, 0.0656539723277092, 0.04255649819970131, 0.22223706543445587, 0.1601634919643402, 0.0928407832980156, 0.027643050998449326, 0.1484835147857666, 0.12329789996147156, -0.06258388608694077, -0.12205658853054047, -0.1676846444606781, -0.005341700743883848, 0.06861207634210587, 0.028899874538183212, 0.024932391941547394, 0.0594685934484005, -0.005114567466080189, -0.013007896021008492, 0.07967137545347214, 0.07373719662427902, 0.02667580172419548, 0.0582808181643486, -0.047745559364557266, 0.11206034570932388, 0.03554541617631912, -0.010040354914963245, 0.1889011710882187, 0.05782962962985039, 0.024549078196287155, 0.036292023956775665, 0.18116395175457, 0.0742294043302536, -0.0004863194189965725, 0.16695556044578552, 0.10723970085382462, 0.014108226634562016, -0.07938846200704575, 0.0429060198366642, -0.227785125374794, 0.048697978258132935, -0.05508006364107132, 0.05923976004123688, 0.14888764917850494, 0.0958750993013382, 0.10703196376562119, 0.025480128824710846, 0.0035325665958225727, 0.08778173476457596, 0.06312233954668045, 0.00023968369350768626, -0.013583232648670673, 0.060055628418922424, -0.020239368081092834, -0.005646635312587023, 0.1356516033411026, 0.08256016671657562, 0.021191217005252838, 0.17961907386779785, 0.08990888297557831, -0.06670313328504562, -0.06741070002317429, 0.20827817916870117, -0.04707970470190048, 0.1472947746515274, -0.06302133947610855, -0.09810511022806168, -0.10272858291864395, 0.061966363340616226, -0.04751879349350929, 0.011463467963039875, 0.13513635098934174, 0.018372593447566032, 0.12568636238574982, 0.04028733819723129, 0.13858114182949066, 0.07979830354452133, 0.06150934472680092, 0.0011037624208256602, -0.05442412197589874, 0.08147120475769043, 0.08897857367992401, 0.13102170825004578, 0.042918335646390915, -0.02808891423046589, 0.026856208220124245, -0.053009629249572754, -0.003110684221610427, -0.005090543068945408, -0.13159175217151642, 0.30442744493484497, 0.1300930380821228, 0.10024311393499374, 0.04756510630249977, -0.0024320080410689116, -0.002647529123350978, -0.1007128655910492, -0.0232279971241951, -0.025319835171103477, 0.12563231587409973, 0.020087122917175293, 0.09423598647117615, 0.02612241357564926, -0.00411563366651535, 0.03411742299795151, 0.049382876604795456, -0.03376917541027069, 0.013258722610771656, 0.09503322094678879, -0.003864094614982605, 0.12183034420013428, 0.0250405240803957, -0.06581773608922958, -0.02153581753373146, -0.05277334898710251, 0.03512056916952133, -0.15165890753269196, -0.11750059574842453, 0.21906736493110657, 0.12304073572158813, 0.2883632183074951, -0.000999115640297532, -0.14736565947532654, -0.0648326650261879, -0.10686484724283218, 0.0642160177230835, 0.06324253976345062, 0.029447928071022034, 0.07619171589612961, 0.09269903600215912, 0.04171597212553024, -0.007980828173458576, -0.07628960907459259, 0.04057333990931511, 0.04168242588639259, 0.06296530365943909, -0.010121883824467659, -0.037328023463487625, 0.00303078955039382, -0.035389725118875504, -0.04765085503458977, -0.049720313400030136, -0.09194112569093704, -0.11264170706272125, -0.06525903195142746, 0.05296225845813751, -0.019153567031025887, 0.08752352744340897, 0.08509930968284607, -0.08755382150411606, -0.06970170140266418, 0.02530311979353428, -0.1302122175693512, 0.06926563382148743, -0.01692480780184269, -0.08426184207201004, 0.008834744803607464, -0.012617076747119427, 0.007578910794109106, 0.01449194923043251, 0.09178611636161804, -0.008701493963599205, -0.03323383629322052, 0.04788901284337044, 0.05027153715491295, -0.019947484135627747, -0.013188516721129417, -0.007507091388106346, 0.02296389266848564, -0.01971399039030075, -0.09229430556297302, 0.012363956309854984, -0.026178941130638123, -0.042558252811431885, -0.10179860889911652, 0.10705569386482239, 0.09242171794176102, 0.08119513839483261, -0.09236205369234085, 0.1419576108455658, -0.024297703057527542, 0.07581730931997299, 0.15318556129932404, 0.041963521391153336, -0.03520331159234047, 0.08284428715705872, -0.0339469313621521, 0.1124756932258606, 0.07981059700250626, 0.025473272427916527, -0.028425579890608788, 0.030531294643878937, -0.042266495525836945, 0.01707066409289837, 0.01862480491399765, -0.08376491814851761, 0.021968737244606018, -0.05416237190365791, -0.12381214648485184, -0.14677266776561737, -0.10766924917697906, -0.030742792412638664, 0.036352720111608505, 0.03248598799109459, -0.026514165103435516, -0.135634183883667, 0.11016117036342621, 0.0754919946193695, -0.06554587185382843, -0.01335886213928461, 0.13727383315563202, 0.013966996222734451, -0.0649522915482521, 0.009949526749551296, 0.03961636871099472, 0.06617777049541473, 0.020267102867364883, 0.04932795464992523, -0.005971604958176613, -0.017271695658564568, 0.007619208190590143, -0.0318138524889946, -0.013822888024151325, -0.10829505324363708, -0.10158926248550415, -0.08903717249631882, -0.008993765339255333, -0.02082546055316925, 0.16711510717868805, 0.023905262351036072, -0.030324770137667656, -0.11562324315309525, -0.009115535765886307, -0.0026678878348320723, -0.032634761184453964, 0.09816504269838333, 0.045152537524700165, 0.051236215978860855, -0.03584805876016617, 0.06005432829260826, 0.015631981194019318, 0.11477722972631454, 0.08347911387681961, 0.08407779783010483, 0.08542946726083755, 0.051653750240802765, 0.021229764446616173, 0.020929839462041855, -0.005577945150434971, 0.07516791671514511, 0.019999613985419273, 0.04358707368373871, -0.09944333136081696, -0.015496695414185524, -0.07141334563493729, 0.032547954469919205, 0.11830225586891174, 0.10674984753131866, -0.013419817201793194, -0.13731728494167328, -0.002028944669291377, 0.01754528470337391, -0.05649619549512863, -0.13874125480651855, -0.05436960980296135, 0.005939523223787546, -0.006048684474080801, 0.03775438666343689, -0.04422200098633766, -0.015419836156070232, 0.04205738753080368, -0.06057450547814369, -0.07596590369939804, 0.1471007764339447, 0.04777362942695618, 0.014408787712454796, 0.007642716635018587, -0.042487844824790955, -0.03999893739819527, 0.022605815902352333, -0.046903591603040695, 0.1125987246632576, 0.04360656812787056, 0.027269084006547928, 0.05748750641942024, 0.10620281845331192, -0.01797877624630928, -0.20487573742866516, 0.14734110236167908, 0.014618025161325932, 0.008412836119532585, 0.07914003729820251, -0.26795586943626404, -0.18717904388904572, -0.15064260363578796, -0.09121669828891754, -0.07482023537158966, -0.011481411755084991, -0.011345868930220604, -0.043681807816028595, 0.004781393799930811, -0.111752450466156, -0.09157788753509521, -0.08366010338068008, 0.06309347599744797, -0.0325595885515213, -0.08129476755857468, 0.01869429275393486, 0.11362878978252411, 0.050095804035663605, 0.05350755527615547, 0.04716157540678978, 0.015802370384335518, 0.030438873916864395, 0.15697899460792542, -0.17134861648082733, -0.022075997665524483, -0.027534285560250282, -0.06315797567367554, 0.03703613206744194, 0.08860738575458527, -0.05536281690001488, -0.11153905093669891, -0.030213138088583946, -0.09699904173612595, -0.1958865523338318, -0.10921575129032135, -0.04710825905203819, 0.03912702575325966, -0.15937338769435883, -0.07842627167701721, -0.010718214325606823, -0.04202130436897278, 0.03195849061012268, 0.03701375424861908, -0.010508961044251919, 0.11946403980255127, 0.019296104088425636, 0.13384833931922913, -0.07819652557373047, -0.036410097032785416, -0.14478619396686554, 0.04005984961986542, -0.016139313578605652, -0.05290704220533371, -0.05051053687930107, 0.0032589370384812355, -0.05699959769845009, -0.025672806426882744, 0.008228391408920288, 0.15018008649349213, -0.00768669368699193, 0.006566365249454975, -0.05421049892902374, 0.03664793074131012, 0.04213389381766319, -0.052204620093107224, 0.04221010580658913, 0.020738914608955383, 0.17259067296981812, -0.0020318233873695135, -0.0031425340566784143, 0.04962949827313423, 0.03830888122320175, -0.08123128116130829, 0.013469324447214603, 0.1703283041715622, 0.13375476002693176, 0.06974826008081436, 0.12883661687374115, -0.08324392139911652, 0.019743461161851883, 0.07935726642608643, -0.03365274891257286, -0.061338428407907486, 0.018135780468583107, 0.07601089030504227, -0.11219983547925949, -0.015777811408042908, 0.08702327311038971, 0.11036737263202667, 0.12319541722536087, 0.0918109267950058, 0.05416398495435715, 0.04698798432946205, 0.09086613357067108, -0.07444314658641815, 0.008839518763124943, 0.15458182990550995, 0.08052476495504379, -0.11074349284172058, 0.10645844787359238, 0.17758293449878693, -0.016419904306530952, 0.05558815598487854, -0.002507781842723489, -0.10858120024204254, -0.06517444550991058, 0.0805974006652832, -0.06978312879800797, -0.013037326745688915], [0.008336488157510757, -0.02864588238298893, 0.050456393510103226, 0.01876315474510193, 0.05330120027065277, -0.02356240525841713, -0.03721784055233002, -0.04580254107713699, 0.06477219611406326, 0.0680960863828659, -0.07142956554889679, 0.09166688472032547, 0.010035566054284573, -0.051396582275629044, 0.04081602022051811, -0.0010537280468270183, 0.014620952308177948, -0.06495867669582367, -0.023186171427369118, 0.08490202575922012, -0.07389752566814423, -0.05323517695069313, -0.08437469601631165, 0.02720346301794052, -0.005778536666184664, 0.016145318746566772, 0.027464019134640694, -0.01669103279709816, -0.03607901930809021, -0.05303295701742172, 0.02266268990933895, -0.1154240071773529, 0.05612703785300255, 0.036596447229385376, -0.021068837493658066, -0.03441359102725983, -0.02764538675546646, 0.05252424627542496, -0.06276128441095352, -0.10818182677030563, -0.10090609639883041, 0.04298486188054085, -0.04704464226961136, -0.1602909117937088, -0.035328950732946396, 0.04537887126207352, -0.0026871459558606148, 0.013370048254728317, -0.01762266270816326, 0.04258495941758156, -0.08696430921554565, -0.026477865874767303, -0.04212254285812378, 0.012446647509932518, 0.06818599998950958, 0.11441755294799805, 0.11938183754682541, 0.09941565245389938, 0.046216171234846115, -0.05637761205434799, -0.022972799837589264, -0.0022048642858862877, 0.11174256354570389, -0.023916564881801605, 0.08989813923835754, 0.11701614409685135, 0.07415536046028137, 0.08357007801532745, 0.07639291137456894, -0.10060110688209534, 0.06001615524291992, -0.15062405169010162, -0.16453902423381805, -0.12549500167369843, -0.049736183136701584, -0.09420584887266159, -0.04280848801136017, 0.034308478236198425, -0.02039690874516964, 0.007478492800146341, 0.02295686863362789, 0.05544106289744377, 0.03539551794528961, 0.0484030582010746, 0.07112889736890793, 0.008075970225036144, -0.2022968828678131, 0.04571468010544777, 0.11956718564033508, -0.08842721581459045, -0.025223717093467712, -0.005957003217190504, 0.12048034369945526, 0.1804281324148178, 0.18207935988903046, 0.031125495210289955, 0.2596406042575836, 0.23574110865592957, 0.057433370500802994, 0.11468863487243652, 0.010530691593885422, 0.15017789602279663, 0.0957849845290184, -0.010117918252944946, -0.05127944052219391, 0.08280722051858902, 0.0016924969386309385, -0.07320200651884079, 0.07461944967508316, 0.15639905631542206, -0.09890871495008469, 0.01442152913659811, -0.07200708240270615, -0.04242224991321564, -0.28825700283050537, 0.1064797043800354, -0.07130739092826843, -0.08560334891080856, 0.07015413045883179, 0.12519972026348114, 0.10614901781082153, 0.18166454136371613, 0.19477613270282745, 0.3695446252822876, 0.35357338190078735, 0.1533716470003128, 0.20587605237960815, 0.2664111256599426, 0.20007340610027313, 0.19767747819423676, 0.21847771108150482, 0.11846819519996643, 0.1361418068408966, -0.08477725088596344, 0.11600305885076523, 0.012436039745807648, -0.03435740992426872, -0.07334373146295547, 0.13782033324241638, -0.03007342666387558, -0.016582651063799858, -0.022871751338243484, -0.05222940072417259, 0.1689932644367218, -0.027422236278653145, -0.13796471059322357, -0.07751387357711792, 0.11480895429849625, -0.18438558280467987, -0.0660056322813034, 0.13078778982162476, 0.20588234066963196, 0.08579659461975098, 0.09167762845754623, 0.0634395107626915, 0.1846843957901001, 0.17519064247608185, 0.25762802362442017, 0.15681146085262299, 0.10729092359542847, 0.3332284092903137, 0.17939679324626923, 0.25544366240501404, 0.023730089887976646, 0.04658675193786621, 0.14521729946136475, 0.24464936554431915, 0.023828433826565742, 0.036042872816324234, 0.023687001317739487, -0.08833179622888565, -0.15606170892715454, -0.18705494701862335, -0.1916842758655548, -0.019061557948589325, 0.055725015699863434, -0.004663183819502592, -0.03910905122756958, 0.11951682716608047, 0.08205296844244003, 0.08314700424671173, 0.062491945922374725, 0.20384623110294342, 0.14657966792583466, 0.09812219440937042, 0.08098551630973816, 0.12484737485647202, 0.055344052612781525, 0.03616586700081825, -0.027100997045636177, 0.0894273966550827, 0.06520248204469681, 0.17624762654304504, 0.12140191346406937, 0.10205312818288803, -0.0052743516862392426, 0.04141183942556381, 0.025036564096808434, -0.07105414569377899, -0.28162333369255066, -0.15692898631095886, -0.028309373185038567, -0.07358019798994064, -0.006480008363723755, 0.0745876282453537, 0.021068649366497993, 0.02589469589293003, 0.09350260347127914, 0.10073695331811905, 0.0930982306599617, 0.2446056455373764, 0.1192222386598587, 0.10622643679380417, -0.09774696081876755, -0.026635970920324326, 0.005860605277121067, 0.021489810198545456, 0.03879860043525696, 0.139761820435524, 0.1126365140080452, -0.005610564257949591, -0.1257384568452835, 0.04028350114822388, -0.11989718675613403, -0.02388283610343933, -0.029100144281983376, -0.0643792375922203, -0.01844017021358013, 0.02260308340191841, 0.008723012171685696, 0.06638652831315994, -0.015696031972765923, 0.14512959122657776, 0.007462251465767622, 0.04592734947800636, 0.0022811181843280792, 0.0034393423702567816, 0.12832896411418915, -0.03993869200348854, -0.021341875195503235, 0.04900891333818436, 0.0024792200420051813, -0.010677170939743519, -0.052898235619068146, -0.006017398554831743, 0.15478652715682983, 0.07069313526153564, 0.20775119960308075, 0.11148569732904434, -0.006659114267677069, 0.08788914233446121, 0.2337736338376999, -0.02221211977303028, -0.036796148866415024, 0.02637404017150402, 0.022829091176390648, -0.0834561288356781, -0.05425293743610382, 0.07542584836483002, 0.01949610374867916, 0.03447882458567619, -0.0029339417815208435, 0.04754874110221863, 0.05697361007332802, -0.08798547834157944, -0.05694283917546272, -0.2707662284374237, -0.11800980567932129, -0.03202859312295914, 0.018665937706828117, -0.08253742754459381, 0.009252041578292847, 0.013244434259831905, 0.025293106213212013, 0.029835641384124756, 0.23007391393184662, 0.1245550811290741, 0.22421593964099884, 0.12001483887434006, -0.18263812363147736, -0.05813173949718475, -0.04049938917160034, 0.14520221948623657, -0.07728660851716995, -0.15370507538318634, -0.05388672277331352, -0.016324695199728012, 0.09243364632129669, 0.10891763865947723, 0.004810161888599396, 0.10171300172805786, 0.08967246860265732, -0.0981409102678299, -0.02277773804962635, -0.0005295324954204261, -0.13334296643733978, -0.0130577702075243, 0.03309638425707817, 0.051401957869529724, -0.03310130536556244, -0.05936421826481819, 0.007484946399927139, 0.04166727513074875, 0.04962041229009628, 0.04492476209998131, 0.1728786826133728, 0.08353567123413086, -0.15015827119350433, -0.09662530571222305, -0.0036009761970490217, -0.18705689907073975, -0.2257540225982666, -0.14898735284805298, -0.06679869443178177, 0.0017758553149178624, -0.022148916497826576, 0.0014920644462108612, -0.04119591414928436, -0.23929117619991302, -0.0544804111123085, 0.02057262510061264, 0.10650519281625748, 0.16907715797424316, 0.04887836426496506, 0.025646092370152473, 0.030059196054935455, 0.017607007175683975, -0.0133977634832263, -0.09423825144767761, -0.10560724139213562, -0.010960285551846027, -0.09598400443792343, 0.03386331722140312, 0.17574171721935272, 0.06959471106529236, -0.060549523681402206, -0.08525701612234116, -0.021545756608247757, -0.08562257140874863, 0.03416614234447479, -0.09903042763471603, -0.2284044623374939, -0.12789194285869598, 0.051895417273044586, -0.028772877529263496, -0.00026746702496893704, -0.004377800039947033, -0.07474586367607117, 0.09589620679616928, 0.19681067764759064, 0.2517295777797699, -0.033313360065221786, -0.10911126434803009, -0.05526721104979515, -0.0627148374915123, -0.06939524412155151, -0.1342862993478775, -0.17733809351921082, -0.33602797985076904, -0.276700496673584, -0.15056562423706055, -0.009263596497476101, 0.11065863817930222, 0.016540993005037308, 0.09922480583190918, -0.09712415933609009, -0.040427807718515396, 0.06305346637964249, -0.12382809072732925, -0.2407255917787552, -0.0772266611456871, -0.02246798947453499, 0.06687089800834656, 0.09224294871091843, 0.011081055738031864, 0.09201204031705856, 0.23357953131198883, 0.17450447380542755, 0.0333155021071434, -0.07746350020170212, -0.11509602516889572, -0.13611438870429993, -0.10905905812978745, -0.17218488454818726, -0.07119444757699966, -0.17180445790290833, -0.13565875589847565, -0.03478475660085678, -0.16728001832962036, 0.04358864575624466, 0.054746296256780624, 0.05109671503305435, 0.10872171074151993, -0.10640744119882584, -0.21547245979309082, -0.09509716182947159, -0.11103185266256332, -0.24505141377449036, -0.12196783721446991, 0.027498425915837288, -0.02565295435488224, -0.05088938772678375, -0.1419202983379364, -0.049323584884405136, -0.0731932744383812, 0.012206356041133404, -0.08807948231697083, -0.07126017659902573, -0.04153655469417572, -0.21355435252189636, -0.19400542974472046, -0.2515482008457184, -0.044106341898441315, -0.12694311141967773, -0.07210823148488998, -0.17552006244659424, -0.14724810421466827, -0.2092735320329666, 0.1634349375963211, 0.029383579269051552, 0.007971293292939663, -0.0816706120967865, -0.15318270027637482, -0.08881188184022903, -0.19690750539302826, -0.10805576294660568, -0.04422307014465332, 0.0839766189455986, 0.027141155675053596, -0.04413687810301781, 0.026358235627412796, 0.08482629060745239, 0.0424715094268322, -0.01059140544384718, -0.024037949740886688, -0.05365271493792534, -0.0022941273637115955, -0.11529497802257538, -0.19581030309200287, -0.2416878044605255, -0.05954115837812424, 0.03116615116596222, -0.14293912053108215, -0.09924701601266861, 0.07728955149650574, 0.01093050092458725, 0.05625448748469353, 0.09378494322299957, -0.05602448061108589, -0.0001262326695723459, 0.05253039300441742, 0.017805999144911766, -0.08013434708118439, -0.07049859315156937, -0.1928880661725998, -0.030321605503559113, -0.1905335932970047, -0.14519405364990234, -0.09468773007392883, 0.10317420214414597, 0.04841488599777222, 0.03196824714541435, -0.08856257051229477, -0.19930364191532135, -0.13363175094127655, -0.18863345682621002, -0.10693524777889252, -0.032433196902275085, 0.04515092447400093, 0.03631963953375816, -0.09235896915197372, -0.08622681349515915, -0.10232125222682953, -0.02800215594470501, 0.0982145443558693, 0.10970576107501984, 0.00034551197313703597, -0.09433336555957794, -0.02826564759016037, 0.036408670246601105, -0.0696057379245758, -0.04559745639562607, -0.04143620654940605, -0.004656836856156588, -0.023305317386984825, -0.1405010223388672, -0.15226931869983673, -0.16133525967597961, -0.0648924857378006, 0.001507297740317881, -0.02160954661667347, -0.14089858531951904, -0.07654670625925064, -0.17719733715057373, -0.10497545450925827, 0.012492537498474121, -0.04019255191087723, -0.007256238255649805, -0.07096946984529495, -0.12666518986225128, -0.22849147021770477, -0.02884942851960659, -0.16108502447605133, 0.056087590754032135, 0.09318171441555023, -0.022044604644179344, 0.007980294525623322, 0.04579523950815201, 0.010221446864306927, -0.021281003952026367, -0.0774751529097557, 0.005147177260369062, -0.005609465762972832, -0.08718328922986984, -0.1115451380610466, -0.152268648147583, -0.14541584253311157, -0.17165426909923553, -0.21492721140384674, -0.0329798087477684, -0.038302745670080185, -0.007041470147669315, -0.07244540005922318, -0.038181111216545105, -0.10324478894472122, -0.019888821989297867, -0.013867507688701153, -0.10679960995912552, -0.17169202864170074, 0.034501101821660995, -0.12940648198127747, 0.07956162095069885, -0.02863355353474617, -0.08343911916017532, 0.025233915075659752, -0.13678236305713654, 0.07500635087490082, -0.0265326127409935, -0.13699930906295776, 0.008572546765208244, -0.046549685299396515, -0.04428607225418091, -0.03761056810617447, -0.1758372038602829, -0.10152392089366913, -0.03597087413072586, -0.19191321730613708, -0.14947280287742615, 0.039054591208696365, 0.03980066999793053, 0.0724014863371849, 0.10094036906957626, -0.02919493056833744, 0.04858429357409477, 0.03098403848707676, 0.07648678869009018, -0.21219250559806824, 0.016321925446391106, 0.07497039437294006, 0.10131872445344925, 0.08594102412462234, -0.0076811411418020725, 0.11976337432861328, 0.1596444994211197, 0.19960381090641022, 0.11321511119604111, 0.03651629760861397, -0.05893799290060997, -0.04557785764336586, -0.05551713705062866, -0.12517783045768738, -0.014054137282073498, -0.13954074680805206, 0.10684064775705338, -0.12242817878723145, -0.011998253874480724, 0.06580809503793716, 0.14356505870819092, 0.09328975528478622, 0.06140125170350075, 0.015687089413404465, 0.1497785598039627, 0.0947522222995758, 0.18082688748836517, -0.11283433437347412, 0.09186556935310364, -0.05947602912783623, -0.11145716160535812, -0.031871896237134933, 0.03650285303592682, 0.11676131933927536, 0.11740582436323166, 0.15766184031963348, -0.0848318487405777, 0.030237847939133644, 0.0923929512500763, 0.12464752793312073, 0.14094115793704987, 0.06938935816287994, 0.14749787747859955, 0.06735826283693314, 0.19092723727226257, 0.22299374639987946, 0.18282878398895264, 0.07080114632844925, 0.21630196273326874, 0.24147990345954895, 0.15256306529045105, 0.21272172033786774, -0.008692041970789433, 0.13372160494327545, 0.28989312052726746, 0.07824099808931351, 0.08075398206710815, 0.16946545243263245, 0.058355141431093216, -0.014556447975337505, -0.008796671405434608, 0.2522422671318054, 0.2807733416557312, 0.17438775300979614, 0.19907866418361664, 0.19830219447612762, 0.2756574749946594, 0.33264943957328796, 0.24570155143737793, 0.16659855842590332, 0.31595027446746826, 0.22927510738372803, 0.33891066908836365, 0.19839578866958618, 0.18474562466144562, 0.20282866060733795, 0.2269940823316574, 0.2517993450164795, 0.1466674506664276, 0.140291228890419, 0.048736706376075745, 0.27653196454048157, 0.4948331117630005, 0.19653381407260895, 0.09755502641201019, 0.026061439886689186, 0.01643878035247326, -0.02949952520430088, -0.05637762323021889, 0.2658812999725342, 0.36877673864364624, 0.12158971279859543, 0.10347157716751099, 0.20861481130123138, 0.29227957129478455, 0.31785815954208374, 0.3095064163208008, 0.14225715398788452, 0.19663837552070618, 0.35773229598999023, 0.24486574530601501, 0.31774669885635376, 0.2979957163333893, 0.31195083260536194, 0.22703823447227478, 0.07637659460306168, 0.15132257342338562, 0.21110644936561584, 0.2203429788351059, 0.3175986111164093, 0.3633582293987274, 0.18155167996883392, 0.06372581422328949, -0.13329853117465973, 0.05563521385192871, -0.017439106479287148, -0.11209626495838165, 0.01982797309756279, 0.05557715892791748, -0.06031879037618637, -0.05216364935040474, 0.04805314168334007, 0.1830199509859085, 0.22059589624404907, 0.1416553407907486, 0.04356810450553894, 0.17446781694889069, 0.22225472331047058, 0.2193627953529358, 0.21883797645568848, 0.3077241778373718, 0.2930922210216522, 0.2697722017765045, 0.21521766483783722, 0.026783710345625877, 0.14773577451705933, 0.14945530891418457, 0.04773347079753876, 0.2705121338367462, 0.08915049582719803, 0.002597105223685503, 0.006165152415633202, -0.02249095030128956, -0.00047764627379365265, 0.06411494314670563, 0.05990323796868324, 0.05081397294998169, -0.4272376596927643, -0.17813453078269958, 0.031957659870386124, -0.02415207214653492, -0.005415998864918947, -0.017644653096795082, 0.05942044407129288, -0.047216810286045074, 0.04826768487691879, 0.14526349306106567, 0.01253233477473259, 0.061312027275562286, 0.10307426005601883, 0.0907990038394928, -0.018608057871460915, 0.036924246698617935, 0.04061504825949669, 0.034247495234012604, -0.0298725888133049, 0.021771498024463654, -0.024403328076004982, 0.0900416150689125, 0.021351544186472893, 0.011292872950434685, 0.01103223580867052, -0.04188694804906845, 0.011273310519754887, 0.07075247168540955, 0.03318580240011215, -0.0035420535132288933, -0.11539629101753235, -0.06418602168560028, -0.2976124584674835, -0.0021501651499420404, 0.043184369802474976, 0.09624936431646347, -0.03889333829283714, 0.07139109820127487, 0.02425149269402027, -0.10443399101495743, -0.10504331439733505, 0.02208024077117443, -0.13303875923156738, -0.1450137346982956, -0.013578653335571289, 0.10627469420433044, 0.013055532239377499, 0.027123695239424706, 0.0054161627776920795, 0.01604357361793518, 0.07723302394151688, 0.004724766127765179, -0.027036549523472786, -0.04258829727768898, -0.053702015429735184, 0.11651895940303802, 0.07665997743606567, -0.029620707035064697, 0.0566086582839489, 0.023419935256242752, -0.15107986330986023, -0.24241243302822113, -0.22722327709197998, 0.008338374085724354, 0.046745989471673965, -0.03050757385790348, -0.13839666545391083, 0.13099247217178345, 0.019427450373768806, -0.2724299132823944, -0.032185424119234085, -0.23907475173473358, -0.09437442570924759, -0.10321877151727676, 0.010979685001075268, -0.12320087850093842, -0.01466536894440651, -0.042645253241062164, 0.07243859767913818, -0.014136269688606262], [-0.053627341985702515, -0.056988704949617386, 0.068575918674469, -0.09937619417905807, -0.03597824648022652, -0.008122960105538368, 0.03187242150306702, -0.008025426417589188, 0.02335081808269024, -0.11070165038108826, 0.020126117393374443, -0.04497936740517616, 0.014141515828669071, -0.07728713750839233, 0.015539301559329033, -0.03377355635166168, 0.006428571417927742, -0.0009208112605847418, 0.036971960216760635, -0.0275840163230896, 0.043604083359241486, -0.07680663466453552, 0.07978406548500061, -0.024908648803830147, 0.002844406757503748, -0.052498236298561096, 0.0913778766989708, -0.00204482558183372, -0.03443451225757599, 0.01884639449417591, 0.03985196724534035, -0.05598451569676399, 0.023351339623332024, 0.03232800215482712, -0.05690700188279152, -0.10089737176895142, 0.013238687999546528, -0.12138224393129349, -0.06710463762283325, -0.09162752330303192, -0.08655019849538803, -0.12933479249477386, 0.014388668350875378, -0.22891853749752045, -0.003976084757596254, -0.21240484714508057, -0.08687358349561691, -0.09826809167861938, -0.14716540277004242, -0.08599190413951874, -0.1626710295677185, -0.05212933570146561, 0.07558945566415787, -0.05144919455051422, 0.13006947934627533, 0.09284281730651855, 0.045765072107315063, -0.049919575452804565, -0.020875588059425354, -0.09999178349971771, -0.05699736997485161, -0.06491265445947647, 0.04263841360807419, -0.1774493008852005, -0.06744322925806046, 0.015358035452663898, -0.0720781609416008, -0.046934254467487335, -0.16617479920387268, -0.134695366024971, -0.262847363948822, -0.05289492756128311, -0.1414344161748886, -0.12305689603090286, -0.0941043496131897, -0.0832119882106781, -0.06984224915504456, -0.15758924186229706, -0.12199287861585617, -0.1313798725605011, 0.009683542884886265, -0.07794429361820221, -0.04219123348593712, -0.08624718338251114, 0.08048921823501587, 0.04854263737797737, 0.0343749113380909, 0.0028898639138787985, 0.048291537910699844, 0.04284006729722023, -0.13926567137241364, 0.03410373628139496, -0.03317458927631378, -0.1352551132440567, 0.010678385384380817, 0.013100779615342617, -0.06369522958993912, -0.16618645191192627, -0.10437386482954025, 0.009265521541237831, -0.03385429456830025, -0.09695208817720413, -0.001501927268691361, -0.06374862790107727, 0.14691531658172607, -0.039337433874607086, -0.04956279695034027, -0.06881318986415863, 0.0630580335855484, -0.00765398470684886, -0.07361648976802826, -0.023582331836223602, -0.11137448996305466, 0.09700517356395721, 0.05324898660182953, 0.1681814193725586, -0.09144081175327301, -0.16602011024951935, -0.06416823714971542, -0.012075564824044704, -0.11674664169549942, -0.16828502714633942, 0.040127333253622055, 0.12215171009302139, 0.06392522156238556, 0.0007978045614436269, -0.029871057718992233, -0.06703547388315201, 0.01051862258464098, -0.0342535525560379, -0.006966463755816221, -0.11638124287128448, -0.08039244264364243, -0.05934875085949898, -0.09499841183423996, -0.002758829854428768, 0.20600378513336182, 0.10443601757287979, -0.011616919189691544, 0.030710410326719284, 0.032379768788814545, -0.00442426698282361, -0.057416196912527084, 0.11097271740436554, 0.1555037647485733, -0.048404838889837265, -0.0007717650732956827, -0.012416070327162743, -0.05322210490703583, 0.046664126217365265, -0.03308708593249321, 0.22652262449264526, 0.1436980962753296, 0.1625758856534958, 0.08239126950502396, 0.056578781455755234, 0.10791397094726562, 0.05130242928862572, 0.11131923645734787, -0.04086514934897423, -0.06195202097296715, -0.15217140316963196, -0.0742715448141098, -0.1701561063528061, -0.07482955604791641, 5.133598460815847e-05, 0.20602859556674957, -0.0700523778796196, -0.022907869890332222, 0.09861181676387787, 0.10023452341556549, 0.10773400962352753, -0.050426043570041656, 0.13464167714118958, 0.07415640354156494, -0.03142111748456955, 0.05832737311720848, 0.18789438903331757, 0.20354938507080078, -0.012286046519875526, 0.017492013052105904, 0.15493811666965485, 0.14800362288951874, 0.2308112531900406, 0.21092946827411652, 0.14877772331237793, 0.11497918516397476, 0.043483980000019073, 0.02322014980018139, 0.13333433866500854, -0.06482663005590439, 0.08365538716316223, -0.023988597095012665, 0.11608860641717911, 0.08250201493501663, -0.030696174129843712, -0.01815481297671795, 0.188794806599617, 0.005290907341986895, 0.15720438957214355, 0.12584348022937775, 0.10458140820264816, 0.13524229824543, -0.015973137691617012, 0.12145141512155533, -0.03469507768750191, 0.10627743601799011, 0.06377708911895752, 0.036554865539073944, 0.13000208139419556, 0.06767287105321884, 0.08653248101472855, 0.12738852202892303, 0.0025743707083165646, 0.036571990698575974, -0.07617790251970291, -0.044491659849882126, -0.07932267338037491, 0.03834972530603409, 0.0012228053528815508, 0.1007930263876915, 0.12114787101745605, 0.07736722379922867, -0.11626984179019928, -0.23597165942192078, -0.025846581906080246, 0.11328819394111633, 0.06946226954460144, 0.021544739603996277, 0.05078720673918724, 0.1435762494802475, 0.022369597107172012, -0.011712217703461647, 0.049189627170562744, -0.047418709844350815, 0.023170579224824905, 0.02493380755186081, -0.05132880434393883, 0.07658664137125015, 0.11606288701295853, 0.16031013429164886, 0.030826041474938393, 0.18705062568187714, -0.004038175102323294, -0.04189196974039078, 0.051855720579624176, 0.12007296085357666, 0.08162539452314377, 0.16858062148094177, 0.3746510148048401, 0.006379400845617056, 0.09383358806371689, -0.006718974094837904, -0.014646600931882858, 0.016086498275399208, 0.12090868502855301, -0.025893403217196465, 0.13356070220470428, 0.06533760577440262, -0.032640352845191956, 0.04491867497563362, 0.01522224210202694, -0.14411763846874237, 0.025257470086216927, 0.04848087206482887, -0.01190126221626997, 0.05914457514882088, 0.08919724822044373, 0.06557578593492508, 0.11500688642263412, 0.04140376299619675, -0.016195490956306458, 0.03136388212442398, 0.0411156564950943, 0.16734227538108826, 0.23573726415634155, -0.06075536459684372, 0.217974454164505, 0.26063188910484314, 0.12653034925460815, -0.08361764997243881, -0.08254317194223404, 0.014107856899499893, 0.09914284944534302, -0.0920952633023262, 0.17206305265426636, 0.02946649119257927, -0.02999814972281456, -0.09862695634365082, 0.017304087057709694, -0.05960877984762192, 0.004036295227706432, -0.05197867751121521, -0.018820108845829964, -0.056412626057863235, 0.05065041780471802, 0.01902882568538189, -0.02599882334470749, 0.022576484829187393, 0.03989101201295853, 0.1016087755560875, 0.10440192371606827, 0.17589126527309418, 0.02616608515381813, 0.006235458888113499, 0.1388896405696869, 0.13202473521232605, 0.013452700339257717, 0.10372426360845566, -0.06709934026002884, -0.006040175911039114, 0.14483550190925598, -0.048478156328201294, -0.03281639143824577, 0.005429660901427269, -0.09463970363140106, 0.07173420488834381, -0.026886826381087303, -0.02711719647049904, 0.010756717063486576, -0.07792699337005615, -0.10628070682287216, -0.05063394829630852, -0.0454702265560627, -0.02517113648355007, 0.11134280264377594, 0.13541527092456818, 0.16577261686325073, 0.16018687188625336, 0.04499734193086624, -0.1158149242401123, -0.031982529908418655, -0.015156382694840431, 0.012035559862852097, 0.1698901504278183, 0.02384445257484913, -0.03221506252884865, -0.05355779826641083, -0.0631171315908432, 0.04681991785764694, 0.07973796874284744, -0.05381292849779129, -0.03572696074843407, -0.026724811643362045, -0.10714907199144363, 0.00599724380299449, 0.051075927913188934, -0.11652106046676636, 0.015382053330540657, -0.09516247361898422, -0.0556364543735981, -0.06164282560348511, -0.04606657475233078, 0.12810862064361572, 0.17166966199874878, 0.2633463442325592, 0.16312864422798157, -0.034484460949897766, -0.09747439622879028, -0.08864385634660721, -0.13700637221336365, -0.04199345037341118, 0.10024366527795792, -0.12696848809719086, -0.15533605217933655, -0.007727999705821276, -0.09153670817613602, -0.09346768260002136, 0.0592707097530365, -0.10925368219614029, -0.08391913771629333, -0.01260071899741888, -0.01248922199010849, -0.05263805389404297, 0.09012436866760254, 0.048376310616731644, 0.012478196993470192, 0.11465705931186676, 0.0041118767112493515, -0.0020499867387115955, 0.008709131740033627, 0.044031187891960144, 0.11068468540906906, 0.21193371713161469, 0.1462409496307373, -0.08260978758335114, -0.1041448563337326, -0.20262286067008972, -0.17212755978107452, -0.07536109536886215, 0.08291991055011749, -0.03772958368062973, -0.03777388110756874, -0.05344345420598984, -0.17536860704421997, 0.11129014194011688, -0.033353541046381, -0.21612577140331268, -0.09720316529273987, -0.0125358235090971, -0.0871690884232521, -0.11083654314279556, -0.06593538820743561, 0.02787456475198269, 0.008044184185564518, 0.08097147196531296, 0.010805477388203144, 0.10434450954198837, 0.11944190412759781, 0.08542128652334213, 0.09278640151023865, 0.11197663843631744, -0.03178483992815018, -0.11641865223646164, -0.1532292664051056, -0.09428629279136658, -0.10635774582624435, 0.040730688720941544, 0.02997004985809326, 0.020227134227752686, -0.04908537492156029, -0.017518214881420135, -0.09116601198911667, 0.055303964763879776, 0.1408213973045349, -0.04617183282971382, -0.08766006678342819, -0.05797354504466057, -0.03948115184903145, -0.09477381408214569, -0.10784494876861572, -0.14101238548755646, 0.07012876123189926, -0.028329797089099884, 0.016590215265750885, 0.0885389968752861, 0.053968269377946854, 0.12898389995098114, 0.08108323812484741, 0.03188037499785423, 0.011216875165700912, -0.16577844321727753, -0.0320061594247818, 0.025044824928045273, -0.1001206785440445, -0.07636076211929321, 0.01921677030622959, -0.009398708119988441, 0.09117797017097473, 0.022342488169670105, -0.021130990236997604, 0.1428959220647812, 0.20106497406959534, -2.2248650566325523e-05, -0.06742808222770691, -0.029782665893435478, -0.12466790527105331, -0.05590338632464409, -0.11129552125930786, -0.10755764693021774, -0.026052672415971756, -0.06177416071295738, 0.005526256747543812, 0.07486636191606522, -0.13195128738880157, 0.15972983837127686, 0.05002398416399956, -0.03031371347606182, -0.029076792299747467, -0.021297158673405647, -0.012958399951457977, 0.004341842606663704, -0.08981738984584808, -0.06874644011259079, 0.04479984566569328, 0.1697818785905838, 0.015524827875196934, -0.001076216110959649, 0.08734975755214691, 0.1121075302362442, 0.13349533081054688, -0.10511494427919388, 0.0404643714427948, -0.027095695957541466, -0.08810040354728699, 0.01249314472079277, -0.04707146808505058, -0.1196633130311966, 0.004767861682921648, -0.08980832248926163, -0.12736694514751434, 0.042767345905303955, 0.02713751792907715, 0.068712517619133, -0.09548225998878479, -0.12463782727718353, -0.08442217856645584, -0.09148160368204117, -0.016599474474787712, -0.024541642516851425, -0.23169000446796417, -0.12868794798851013, 0.010187728330492973, 0.20018616318702698, 0.2115793079137802, 0.12935307621955872, -0.021993979811668396, 0.0651322528719902, -0.017612028867006302, 0.08290734887123108, 0.12515340745449066, 0.0857134610414505, 0.11553037166595459, -0.1356121301651001, 0.06763659417629242, 0.10978543758392334, -0.038635943084955215, -0.06001151725649834, -0.11243989318609238, 0.0010057914769276977, 0.12459923326969147, 0.040586523711681366, 0.02738819271326065, 0.06605107337236404, -0.04631085321307182, -0.038319747895002365, -0.010419958271086216, 0.02498445473611355, -0.02245071344077587, -0.07078583538532257, 0.1990795135498047, 0.14535494148731232, -0.05979203060269356, 0.01624562405049801, 0.06027824431657791, 0.023392271250486374, -0.004925397224724293, 0.01949591003358364, 0.05178890749812126, -0.056325238198041916, -0.03002425655722618, -0.08035154640674591, 0.02284744195640087, -0.018503598868846893, 0.00606811186298728, -0.03447895497083664, -0.12059146910905838, -0.05021234601736069, -0.03690147027373314, 0.07700667530298233, 0.07040610909461975, -0.06438340991735458, 0.06084452196955681, 0.010407986119389534, -0.17483554780483246, -0.10234424471855164, -0.1296975016593933, -0.11844385415315628, 0.07360158115625381, 0.03748525679111481, 0.08146318793296814, 0.0007257078541442752, -0.030651137232780457, 0.019015396013855934, -0.08853215724229813, 0.12030920386314392, -0.0013466390082612634, 0.017896821722388268, 0.15983867645263672, -0.17805162072181702, -0.11169390380382538, -0.10878158360719681, -0.0912264958024025, -0.035606298595666885, 0.04435322806239128, 0.021242624148726463, 0.02122989483177662, 0.13118605315685272, -0.061076704412698746, -0.028434235602617264, 0.06146272271871567, -0.08083914965391159, -0.015893012285232544, -0.012425937689840794, -0.05952506512403488, -0.11096906661987305, -0.14905975759029388, -0.05261465534567833, -0.12286372482776642, -0.01400628313422203, -0.037450265139341354, -0.04782945662736893, 0.03030710108578205, -0.08712244778871536, -0.03912279009819031, -0.05696973577141762, -0.07229121029376984, -0.043017011135816574, -0.017582079395651817, -0.04027508944272995, -0.1529300957918167, -0.09576570242643356, -0.12809757888317108, 0.022770071402192116, 0.08279728144407272, 0.05482683703303337, 0.03958035632967949, -0.044213514775037766, -0.04983088746666908, -0.012319687753915787, -0.047156333923339844, -0.03035872057080269, -0.1319149285554886, -0.10321337729692459, -0.18615026772022247, 0.048652589321136475, -0.06650763750076294, 0.005321606062352657, 0.09211637824773788, -0.12763477861881256, -0.04298607259988785, -0.18031781911849976, 0.037095267325639725, -0.01429399661719799, 0.0028026856016367674, -0.08782999962568283, -0.0980508029460907, 0.005823839921504259, -0.05915405973792076, 0.006147678475826979, 0.023721100762486458, -0.026509830728173256, 0.0952320396900177, 0.11973607540130615, 0.04023348540067673, -0.0747193694114685, -0.03999892622232437, -0.08157946169376373, 0.0383073054254055, 0.08220845460891724, -0.010832957923412323, -0.0807851105928421, -0.19356952607631683, -0.03905639052391052, -0.04161396622657776, 0.04699420928955078, 0.15370629727840424, 0.09319298714399338, 0.05105167627334595, -0.032481420785188675, -0.03233993425965309, 0.04509187117218971, 0.08041011542081833, 0.03616882488131523, 0.0744895413517952, 0.14522920548915863, 0.022295741364359856, 0.05119635909795761, 0.034140024334192276, 0.03995893895626068, 0.05291489511728287, 0.015204284340143204, 0.0466357097029686, -0.08503470569849014, -0.05483338609337807, 0.07797054946422577, 0.1464599072933197, 0.2058183252811432, 0.11962088197469711, 0.030870230868458748, -0.1997925341129303, -0.04158351197838783, -0.09218518435955048, -0.11924675107002258, -0.08637111634016037, 0.2010970115661621, 0.20817987620830536, 0.1634908765554428, 0.1920597106218338, 0.14745937287807465, -0.05610814690589905, 0.016790712252259254, 0.053933095186948776, 0.12530671060085297, -0.00683753052726388, 0.10639826208353043, 0.11749058216810226, 0.027615204453468323, 0.09902072697877884, 0.09637995064258575, 0.04077409952878952, 0.06093648821115494, 0.0035059996880590916, 0.2243591547012329, 0.23901456594467163, 0.16075965762138367, 0.09063384681940079, -0.026115750893950462, -0.13431493937969208, -0.012859294191002846, 0.038687556982040405, -0.008659862913191319, -0.03847771883010864, -0.07078925520181656, -0.030917370691895485, 0.26337459683418274, 0.2390601933002472, 0.17347459495067596, 0.07430083304643631, -0.0480458028614521, 0.16972941160202026, 0.17730920016765594, 0.02147734723985195, 0.16158725321292877, 0.07709912210702896, 0.06232147663831711, 0.19808095693588257, 0.20996885001659393, 0.1238134428858757, 0.3271302580833435, 0.19853705167770386, 0.10806351900100708, -0.09918851405382156, -0.011188778094947338, -0.055106271058321, -0.08046092092990875, 0.020824039354920387, -0.026149608194828033, -0.07717986404895782, 0.006420965306460857, 0.060505419969558716, -0.006178450770676136, -0.011256595142185688, 0.0991387590765953, 0.1367158144712448, 0.175737664103508, 0.0415433868765831, 0.13296404480934143, 0.19967429339885712, 0.19395531713962555, 0.23126426339149475, 0.37963274121284485, 0.22151903808116913, -0.011851705610752106, -0.0117341885343194, 0.13372214138507843, 0.21224622428417206, 0.04042453318834305, 0.026985814794898033, 0.22245095670223236, 0.06944449990987778, 0.13916301727294922, 0.17149555683135986, -0.13686631619930267, 0.0203007273375988, 0.001209645182825625, -0.017229218035936356, 0.01091395691037178, 0.03701608255505562, 0.11995209753513336, -0.08393729478120804, -0.11985214054584503, 0.06674844026565552, 0.06076711043715477, 0.17018942534923553, 0.055617351084947586, -0.023257680237293243, 0.03361622989177704, 0.00247917789965868, -0.08074189722537994, 0.1335272639989853, 0.10549294948577881, 0.11637475341558456, 0.08454564213752747, 0.15464143455028534, 0.14789153635501862, 0.0867171436548233, 0.22604802250862122, 0.008066050708293915, -0.11059136688709259, -0.08979648351669312, 0.02255038544535637, 0.006047852803021669, 0.022929547354578972], [0.011555674485862255, 0.04469694569706917, 0.011376219801604748, -0.11205356568098068, 0.10337646305561066, 0.031502317637205124, 0.04685915261507034, 0.10592007637023926, -0.030905134975910187, 0.054182350635528564, 0.03990592062473297, 0.06249207630753517, 0.01791132614016533, -0.02639295533299446, 0.0636153370141983, -0.017270084470510483, 0.031559597700834274, 0.07805787771940231, -0.026441026479005814, -0.0078915199264884, -0.041846610605716705, 0.05854962393641472, 0.012221135199069977, 0.017539208754897118, -0.040002260357141495, -0.05464150384068489, 0.018114082515239716, -0.04397212341427803, 0.03510981798171997, -0.03387186676263809, 0.002362932311370969, -0.0007435233565047383, 0.008808831684291363, -0.12795396149158478, -0.1992705911397934, -0.06472237408161163, -0.10021278262138367, -0.11847218126058578, -0.08793303370475769, -0.0005934009095653892, -0.14001555740833282, -0.20524531602859497, -0.02779039926826954, -0.09134066104888916, -0.1089734137058258, -0.10624036192893982, -0.06146436184644699, -0.04922596737742424, -0.08399249613285065, -0.055928006768226624, -0.028888365253806114, -0.011347055435180664, -0.032916273921728134, -0.028149928897619247, -0.009158158674836159, 0.02838388830423355, -0.012286785989999771, 0.10009273141622543, 0.06335455179214478, -0.03198860213160515, -0.03725990653038025, -0.043924178928136826, -0.10080587863922119, -0.17766302824020386, -0.1764250099658966, -0.18572309613227844, -0.006819253787398338, -0.074310302734375, -0.21500635147094727, -0.14258092641830444, -0.18399927020072937, -0.12681539356708527, -0.15332293510437012, -0.05060792341828346, 0.061600927263498306, 0.05839550867676735, 0.12660183012485504, -0.03501136600971222, -0.009110061451792717, 0.026399783790111542, -0.07663636654615402, 0.02598925121128559, -0.010894890874624252, 0.06303761154413223, 0.0509684793651104, -0.05782448872923851, 0.05684392526745796, -0.018949443474411964, 0.025332175195217133, 0.03252313286066055, -0.07946529239416122, 0.0197328832000494, 0.03382517397403717, -0.12163754552602768, -0.1825401932001114, -0.2982667088508606, -0.10737169533967972, -0.18482382595539093, -0.32920151948928833, -0.20682473480701447, -0.12744349241256714, -0.16786254942417145, -0.06791447848081589, -0.06486310809850693, -0.05940629541873932, -0.0599999837577343, -0.0912591814994812, -0.008259906433522701, 0.07617894560098648, -0.16681614518165588, -0.05853023752570152, -0.011845992878079414, 0.0748564600944519, 0.020786359906196594, -0.009006191045045853, 0.11508908867835999, 0.19142648577690125, 0.13906453549861908, 0.17023518681526184, 0.115592822432518, 0.12926091253757477, -0.14997179806232452, -0.1278838813304901, -0.0075223930180072784, -0.040566928684711456, 0.12923482060432434, -0.05496949329972267, 0.009353401139378548, -0.12563087046146393, -0.18172848224639893, 0.09234640747308731, -0.006387655157595873, -0.06819842010736465, 0.11092638969421387, 0.1423337310552597, 0.19929757714271545, 0.10922367870807648, 0.14530721306800842, 0.03359033167362213, -0.06677251309156418, -0.1031101793050766, 0.012929309159517288, 0.0824204608798027, 0.11735580116510391, 0.23820680379867554, 0.23727646470069885, 0.2726755142211914, 0.20222412049770355, -0.07815898209810257, -0.0707356259226799, -0.07990483194589615, -0.023889897391200066, 0.003067840589210391, 0.08953633159399033, 0.03252124413847923, -0.04153388366103172, 0.0279651191085577, -0.1064104363322258, -0.04152238368988037, -0.0443626306951046, -0.0332661047577858, -0.1598450243473053, -0.037871353328228, -0.010632804594933987, -0.11264114826917648, 0.1504753828048706, 0.08852673321962357, -0.18222364783287048, 0.003984619397670031, 0.01809569075703621, 0.04727301374077797, 0.053377460688352585, 0.11137159913778305, -0.027830956503748894, 0.109694704413414, 0.05269361287355423, -0.10160688310861588, -0.020870650187134743, 0.043645091354846954, 0.1681860387325287, 0.060757678002119064, 0.13733085989952087, -0.005433015525341034, 0.0602281428873539, -0.0876360684633255, -0.09625319391489029, -0.07509129494428635, -0.07899463921785355, 0.00522646214812994, -0.05989811196923256, -0.018730023875832558, -0.14444831013679504, -0.11774575710296631, 0.04241952300071716, 0.044561583548784256, -0.018299637362360954, 0.052134424448013306, 0.17053790390491486, -0.10042714327573776, 0.04463150352239609, 0.06156287342309952, 0.0036271049175411463, 0.0704834908246994, 0.17544260621070862, 0.0865132212638855, -0.03853572532534599, 0.1431412398815155, 0.11763694882392883, 0.05775871500372887, 0.004618368111550808, 0.011459440924227238, -0.03370104357600212, -0.07501330226659775, -0.20253537595272064, -0.06449536979198456, -0.12677858769893646, -0.04013471305370331, -0.10742297023534775, -0.19120705127716064, -0.1354636698961258, 0.017343273386359215, 0.08925743401050568, -0.06452221423387527, 0.20153476297855377, -0.005176766775548458, 0.004444371443241835, -0.245375856757164, 0.0237149465829134, -0.0478430837392807, -0.04273609817028046, 0.01068448182195425, -0.00088880694238469, -0.12614624202251434, -0.02385193482041359, 0.025101186707615852, -0.05076222121715546, 0.07100941240787506, 0.09847664088010788, 0.1165173128247261, -0.0027061121072620153, -0.1272289752960205, -0.13042014837265015, -0.03175422176718712, -0.11882699280977249, -0.12208336591720581, -0.1107928603887558, 0.03531032055616379, -0.07340779900550842, 0.17406344413757324, 0.09107556939125061, -0.04237174987792969, 0.14862217009067535, -0.03517930954694748, 0.060815177857875824, -0.012651919387280941, -0.021969638764858246, -0.08141081035137177, -0.11619371920824051, 0.08170682936906815, 0.09083838760852814, 0.01042980793863535, 0.028943181037902832, 0.11047874391078949, 0.03847739100456238, 0.039046838879585266, 0.21749238669872284, 0.30735036730766296, 0.057047054171562195, -0.07010708749294281, -0.06076908856630325, 0.028526531532406807, 0.08424322307109833, -0.11990959942340851, -0.015137290582060814, 0.012522978708148003, 0.0692795142531395, 0.09616070985794067, 0.028144365176558495, -0.07382679730653763, 0.14894135296344757, 0.04472675547003746, -0.018217410892248154, 0.018140355125069618, 0.13700471818447113, -0.18874064087867737, -0.1388748437166214, 0.0007588447188027203, -0.007405162788927555, 0.10505270957946777, -0.003958581481128931, 0.122225821018219, 0.22647380828857422, 0.28156524896621704, 0.3066713511943817, 0.2795863747596741, -0.08854487538337708, -0.13864678144454956, -0.04415665194392204, -0.06238112971186638, -0.020847799256443977, -0.07176186889410019, 0.034636642783880234, 0.07774242013692856, 0.13458025455474854, 0.05073433741927147, 0.08428889513015747, 0.3341618776321411, 0.220695361495018, -0.05007770657539368, -0.004486851394176483, -0.0341511070728302, -0.018652737140655518, 0.011358843185007572, -0.01775290071964264, -0.05346006900072098, 0.008113893680274487, -0.005059473682194948, -0.07999922335147858, 0.10768815875053406, 0.1486784666776657, 0.11446671187877655, 0.1463761329650879, 0.059426888823509216, -0.2006596177816391, -0.1793830841779709, -0.04431988671422005, -0.00516717741265893, -0.1567298322916031, -0.05582931637763977, 0.10975880920886993, 0.17390376329421997, 0.2662965953350067, 0.06630329042673111, 0.10496537387371063, 0.20654429495334625, 0.21474924683570862, 0.012116430327296257, 0.01984383538365364, 0.15548579394817352, -0.06966273486614227, -0.03331069275736809, -0.07760156691074371, -0.028063151985406876, 0.017093490809202194, 0.09160903096199036, 0.06841151416301727, 0.025165610015392303, 0.019792543724179268, 0.06542026251554489, 0.026943981647491455, -0.06500978022813797, -0.1532469391822815, -0.14683015644550323, 0.044773608446121216, -0.14042526483535767, -0.11383086442947388, 0.005828202236443758, -0.08278036117553711, 0.20792265236377716, 0.2134462594985962, 0.06558728218078613, 0.1459077149629593, 0.15305036306381226, 0.26744773983955383, 0.14272302389144897, 0.07570226490497589, 0.09602700173854828, -0.17261448502540588, -0.06285800784826279, -0.0766596570611, -0.047122493386268616, 0.03675507381558418, 0.039037130773067474, 0.04664061591029167, -0.05916226655244827, -0.06080944091081619, 0.09574806690216064, -0.04274690896272659, 0.0150283332914114, -0.06645074486732483, -0.07381736487150192, 0.0317516103386879, 0.01336691528558731, -0.058140017092227936, 0.03553479164838791, 0.056542638689279556, 0.048521630465984344, 0.0020306562073528767, 0.24457381665706635, 0.18530243635177612, 0.25696226954460144, 0.022160125896334648, 0.2026827037334442, -0.03707517310976982, 0.030006932094693184, -0.037802230566740036, -0.08765450119972229, -0.270440012216568, -0.08341897279024124, -0.011719058267772198, 0.10453391075134277, 0.1505894809961319, 0.009187733754515648, -0.02253720723092556, 0.06283257901668549, -0.01811903342604637, 0.09393484890460968, 0.06248966604471207, 0.012837731279432774, -0.06255942583084106, -0.052019599825143814, -0.10534495860338211, 0.004963883198797703, 0.03678181394934654, 0.07352548092603683, 0.1450958549976349, 0.16924843192100525, -0.03996776044368744, 0.15530292689800262, 0.05934426933526993, 0.1308087259531021, 0.0693713054060936, -0.07954199612140656, 0.06793799996376038, -0.21513061225414276, -0.04093008115887642, 0.03968862444162369, 0.028668267652392387, 0.08950676769018173, 0.18155014514923096, 0.06568897515535355, 0.02599666640162468, 0.1857360154390335, 0.055482253432273865, 0.1253146380186081, -0.02814849279820919, 0.06779740750789642, -0.08531280606985092, 0.03494734317064285, -0.0971502810716629, 0.07171756774187088, 0.0954328253865242, 0.00948686059564352, 0.05512291193008423, 0.07822370529174805, -0.07212390005588531, 0.11062067002058029, 0.22330839931964874, -0.0799923911690712, 0.060145024210214615, -0.0010607633739709854, 0.026980364695191383, -0.13415521383285522, -0.13260771334171295, -0.07546510547399521, -0.014337914064526558, -0.08930470049381256, 0.05141814053058624, 0.10436534881591797, 0.16320925951004028, 0.12681733071804047, 0.14595822989940643, 0.207631915807724, -0.0031711566261947155, -0.039531074464321136, -0.10663867741823196, 0.05750264972448349, -0.05619748681783676, -0.010901719331741333, 0.08158703148365021, -0.01703450083732605, 0.022299936041235924, 0.1624806970357895, -0.07845334708690643, 0.2921644151210785, 0.10662128776311874, 0.02079259231686592, 0.032524921000003815, 0.12959232926368713, 0.1043407991528511, -0.16614489257335663, -0.1770530492067337, -0.19382163882255554, -0.10513968020677567, -0.1507013887166977, -0.16818438470363617, -0.07918602973222733, -0.02333996631205082, 0.0021539751905947924, 0.0791977196931839, -0.021034298464655876, -0.05520711466670036, -0.17052079737186432, 0.0027012082282453775, -0.15538270771503448, -0.08930619806051254, -0.04667181521654129, -0.019866034388542175, 0.009575139731168747, 0.13187041878700256, -0.06877630203962326, -0.11590328067541122, 0.21887199580669403, 0.0693320482969284, 0.2208823710680008, 0.1046484112739563, 0.1211485043168068, 0.01174755860120058, -0.17053823173046112, -0.2888016104698181, -0.26072952151298523, -0.16881254315376282, -0.2590442895889282, -0.3637009263038635, -0.35917773842811584, -0.2670598030090332, -0.2945736348628998, -0.2607782781124115, -0.08787145465612411, 0.0509246326982975, -0.0522557757794857, -0.007144248578697443, -0.012806207872927189, -0.0363684818148613, -0.09354796260595322, -0.026344986632466316, 0.07133939117193222, -0.060659077018499374, -0.06562454998493195, -0.08074070513248444, -0.10903459787368774, 0.01904391311109066, 0.025563975796103477, 0.10920114815235138, 0.0539296492934227, -0.10739247500896454, -0.1225895956158638, -0.2557436525821686, -0.34587717056274414, -0.3958092927932739, -0.3912246823310852, -0.315623939037323, -0.3788621425628662, -0.3739607334136963, -0.47407102584838867, -0.19921308755874634, -0.08663808554410934, 0.0757506936788559, 0.11954787373542786, 0.037547517567873, 0.03751285746693611, 0.048506345599889755, -0.050936516374349594, -0.006671200506389141, -0.061975643038749695, -0.033640433102846146, 0.06329825520515442, 0.1300487071275711, -0.06436615437269211, -0.08215335756540298, 0.05744675546884537, 0.1567443609237671, -0.009000775404274464, 0.10667159408330917, -0.1768597811460495, -0.30611565709114075, -0.2355366200208664, -0.21595625579357147, -0.19561336934566498, -0.18178440630435944, -0.17138239741325378, -0.2530742585659027, -0.2420313060283661, -0.07115566730499268, 0.07025729864835739, 0.026551643386483192, 0.11252692341804504, 0.04735294729471207, 0.1899385154247284, 0.09977368265390396, 0.09632240980863571, -0.034876540303230286, 0.05187595635652542, 0.05993231385946274, -0.02025185339152813, 0.02459031529724598, 0.08643645793199539, 0.035129841417074203, 0.033367447555065155, 0.09630321711301804, 0.07507138699293137, 0.03541302680969238, 0.18602322041988373, -0.08822733908891678, -0.0734013244509697, 0.01228668075054884, 0.019142810255289078, 0.05735069513320923, -0.02619372494518757, 0.0008917985251173377, 0.07260333746671677, 0.04424749314785004, 0.05207249894738197, 0.11407189071178436, 0.04471909627318382, 0.027864612638950348, 0.21274320781230927, 0.11292091012001038, 0.05540073662996292, 0.03321097418665886, -0.04320402070879936, -0.05019333213567734, 0.10684102773666382, 0.0903003066778183, -0.06309596449136734, 0.09118066728115082, 0.015731966122984886, 0.04327687248587608, 0.037482380867004395, 0.11237282305955887, 0.2755884826183319, 0.335644006729126, 0.19398029148578644, 0.09910043329000473, 0.07287012040615082, 0.03399426117539406, 0.044416092336177826, 0.14378622174263, 0.1277264505624771, 0.019518671557307243, 0.03692452609539032, 0.03368004783987999, 0.028458649292588234, -0.08534661680459976, 0.23894381523132324, 0.06718317419290543, 0.15752384066581726, 0.09682513028383255, -0.03804957494139671, 0.07252703607082367, 0.10359750688076019, -0.03355787694454193, -0.07966878265142441, -0.027171051129698753, -0.06674261391162872, 0.03749585524201393, 0.046583518385887146, 0.1203073263168335, 0.1520625501871109, 0.15322157740592957, -0.0030621057376265526, 0.1720157116651535, -0.04274698346853256, 0.16077740490436554, 0.10381443798542023, 0.21590563654899597, 0.11230599880218506, 0.09766028821468353, 0.041760243475437164, 0.07511414587497711, 0.01842515729367733, 0.01469674613326788, -0.018951119855046272, -0.0015677661867812276, 0.09899876266717911, -0.05162011831998825, -0.07401060312986374, -0.06626515835523605, 0.10788148641586304, -0.2157013863325119, 0.031947098672389984, 0.016957566142082214, -0.02638709731400013, -0.049886129796504974, 0.0031441450119018555, -0.08993498980998993, 0.15910084545612335, 0.12212912738323212, 0.06728308647871017, 0.00972122885286808, 0.08534868061542511, 0.15449459850788116, 0.19720767438411713, 0.2104668766260147, 0.003879349445924163, 0.02265477553009987, -0.06052643805742264, -0.17542630434036255, -0.12693217396736145, -0.034437332302331924, 0.04105040803551674, -0.19453345239162445, -0.10494481027126312, -0.03223561495542526, -0.08799411356449127, -0.034570157527923584, 0.05280374735593796, -0.0867667943239212, 0.092774398624897, 0.005226637702435255, -0.020582951605319977, -0.013079078868031502, 0.10829371958971024, -0.11574378609657288, 0.2395401895046234, 0.3423627018928528, 0.3432811498641968, 0.36863717436790466, 0.1776573359966278, 0.015681013464927673, 0.14880375564098358, 0.05102244019508362, 0.31829044222831726, 0.07225501537322998, 0.022572966292500496, -0.04064086452126503, -0.09881195425987244, -0.09763887524604797, -0.18010766804218292, -0.022855767980217934, -0.0564703531563282, 0.03528914228081703, -0.03884976729750633, 0.2621237635612488, 0.30550912022590637, 0.12045411765575409, -0.08007579296827316, 0.0186829324811697, -0.013422846794128418, 0.03816642984747887, -0.04157362878322601, 0.017065856605768204, 0.1790619045495987, 0.2402644157409668, 0.34930142760276794, 0.1393718421459198, -0.010258164256811142, 0.0661097913980484, 0.2591298520565033, 0.08014276623725891, 0.0079585500061512, 0.06380174309015274, 0.17279154062271118, 0.13989102840423584, 0.14752791821956635, 0.029957113787531853, 0.03705882281064987, 0.22209970653057098, 0.16019338369369507, 0.19104181230068207, 0.1667657345533371, 0.01798418164253235, -0.028739796951413155, -0.09881731122732162, 0.013388690538704395, 0.0006065196357667446, 0.053586822003126144, -0.00969678908586502, -0.008009063079953194, 0.004460957366973162, -0.060726139694452286, -0.17222873866558075, 0.08962468802928925, 0.16588254272937775, 0.10739967226982117, 0.11240644752979279, 0.052967723459005356, 0.0427391491830349, 0.08602254837751389, 0.05457252264022827, 0.10880725085735321, 0.07299486547708511, -0.057691480964422226, 0.06233867630362511, 0.053670525550842285, -0.036932434886693954, -0.1325346678495407, 0.0025445690844208, 0.10218796133995056, 0.0910179391503334, -0.03606090694665909, 0.0321783572435379, 0.0665779784321785, -0.017261158674955368], [0.04846436157822609, 0.010845654644072056, -0.026149606332182884, -0.031236613169312477, -0.016050858423113823, 0.08693055808544159, 0.06809580326080322, 0.007440823595970869, 0.04299702122807503, -0.04425197094678879, -0.03204403445124626, 0.024365032091736794, 0.04001101851463318, 0.06289389729499817, -0.005858927965164185, -0.05598771572113037, -0.011637694202363491, 0.006409384775906801, 0.03736577183008194, 0.08497536182403564, -0.006685138214379549, 0.07709596306085587, 0.13045459985733032, 0.002634659642353654, 0.04480358585715294, -0.12978595495224, 0.022253165021538734, 0.005360680632293224, 0.030344780534505844, 0.012449856847524643, 0.11176509410142899, 0.01883319579064846, -0.009477867744863033, -0.04876856505870819, 0.06585957854986191, 0.19476820528507233, 0.15090283751487732, 0.048450369387865067, 0.1750699281692505, 0.07046860456466675, 0.02103385515511036, 0.04538128897547722, -0.08927677571773529, 0.12112787365913391, 0.06758584827184677, 0.10175889730453491, 0.17073123157024384, 0.06388311833143234, 0.15331850945949554, 0.03820877522230148, -0.0054491255432367325, 0.03651442006230354, 0.023148372769355774, 0.0020263094920665026, 0.03831157460808754, -0.082522913813591, 0.03541446104645729, -0.01426163874566555, -0.010320551693439484, 0.013122037053108215, -0.04683211073279381, -0.02912636660039425, 0.10067148506641388, 0.10131154954433441, 0.24167396128177643, 0.26114362478256226, 0.30138078331947327, 0.1437365859746933, 0.1404338777065277, 0.12544681131839752, 0.04218056797981262, 0.20772521197795868, 0.24220064282417297, 0.18277359008789062, 0.1094764843583107, 0.10527347028255463, 0.17427898943424225, 0.07790718227624893, -0.028194308280944824, 0.08897921442985535, 0.059262797236442566, 0.06752550601959229, -0.02408418618142605, -0.001579203293658793, 0.00656762532889843, -0.000832162972074002, -0.03748813644051552, 0.1198250949382782, 0.3068307340145111, -0.029127754271030426, 0.11690016090869904, 0.09151743352413177, -0.09478408098220825, 0.056689128279685974, 0.1771813929080963, 0.011093835346400738, 0.005499929655343294, -0.011422136798501015, -0.021675938740372658, -0.026481138542294502, -0.009673643857240677, -0.04287795349955559, 0.09430314600467682, 0.15229098498821259, -0.014220068231225014, 0.0646182969212532, -0.03061327338218689, 0.018040165305137634, 0.17238010466098785, -0.027199117466807365, -0.045096542686223984, -0.1257677972316742, -0.057300109416246414, -0.011546791531145573, -0.22605520486831665, -0.07904554903507233, 0.039550457149744034, 0.062336817383766174, 0.3028257489204407, 0.13330167531967163, 0.10281972587108612, 0.03707687929272652, 0.0989847183227539, 0.11699779331684113, 0.0929754301905632, 0.04295345023274422, -0.01910528913140297, 0.12769383192062378, 0.09399062395095825, 0.08762515336275101, 0.0234984178096056, -0.020743591710925102, -0.06200151517987251, -0.09855405241250992, -0.09880411624908447, 0.008906090632081032, 0.05029367655515671, -0.06637241691350937, -0.07770690321922302, -0.08562080562114716, -0.027384385466575623, 0.052234094589948654, 0.14613908529281616, 0.12258587032556534, 0.08887460082769394, 0.10123001039028168, 0.03164070099592209, -0.04574663192033768, 0.009203912690281868, -0.017307842150330544, -0.008275237865746021, 0.08771054446697235, -0.024503977969288826, -0.035210005939006805, -0.057255372405052185, 0.10038213431835175, -0.020830996334552765, 0.026658596470952034, 0.06881453841924667, -0.16384722292423248, -0.1105600968003273, -0.13878360390663147, -0.22130370140075684, -0.2044299691915512, -0.12581241130828857, -0.09733429551124573, 0.06375258415937424, 0.023502100259065628, 0.026008760556578636, 0.10001800209283829, -0.060278840363025665, 0.09191874414682388, 0.0631270706653595, -0.0055533708073198795, 0.1493390053510666, 0.01419744361191988, -0.05803341045975685, -0.02180483750998974, 0.037958092987537384, 0.1125943511724472, -0.019499268382787704, -0.019216300919651985, -0.03816993162035942, -0.04014556482434273, -0.0262030977755785, -0.11617399752140045, -0.15645061433315277, -0.19055739045143127, -0.30111536383628845, -0.3398822844028473, -0.34399014711380005, -0.28104573488235474, -0.19581392407417297, -0.00759167643263936, -0.002611799631267786, -0.12949451804161072, 0.05073131248354912, -0.004873120225965977, -0.0009003205341286957, -0.0541122704744339, -0.06857184320688248, -0.1303754597902298, 0.06701093912124634, -0.08752667903900146, 0.0042512365616858006, 0.04451333358883858, 0.07718538492918015, 0.049741193652153015, -0.13728764653205872, -0.12354623526334763, -0.06707417964935303, -0.1680321842432022, -0.25011366605758667, -0.22217565774917603, -0.1984812319278717, -0.30333468317985535, -0.31958407163619995, -0.4144350290298462, -0.38808977603912354, -0.3788112998008728, -0.07377511262893677, 0.07721331715583801, -0.035087984055280685, -0.0472160279750824, -0.05587669461965561, 0.005914223846048117, -0.03660868853330612, -0.15046873688697815, -0.13976241648197174, -0.13258139789104462, -0.01256173849105835, 0.02085140533745289, -0.07621356099843979, -0.011356566101312637, 0.07003229111433029, 0.06304816156625748, -0.16419078409671783, -0.22900676727294922, -0.14299015700817108, -0.2957519292831421, -0.28749608993530273, -0.2060823291540146, -0.29166534543037415, -0.25453487038612366, -0.015500622801482677, -0.2742449641227722, -0.1703728288412094, -0.15391051769256592, 0.035676512867212296, 0.046082668006420135, 0.0404338501393795, 0.002375768031924963, -0.06292032450437546, -0.05255118012428284, -0.061626117676496506, 0.006199454888701439, -0.18169711530208588, -0.07911454886198044, -0.043007805943489075, 0.0006321290857158601, -0.009189242497086525, -0.07649564743041992, 0.04674860090017319, 0.030261263251304626, 0.05140317603945732, -0.19064068794250488, -0.18234163522720337, -0.048001959919929504, -0.03248479217290878, -0.0026204362511634827, -0.04006160795688629, -0.08504538238048553, -0.0471835695207119, -0.06046978384256363, 0.0625704899430275, -0.04469933360815048, 0.033938270062208176, -0.07794544845819473, 0.05750572681427002, -0.1467890441417694, -0.06625618785619736, -0.031411170959472656, -0.200280100107193, 0.019502772018313408, -0.010397792793810368, -0.11266762018203735, -0.09072023630142212, -0.014982173219323158, 0.12921316921710968, -0.06697937101125717, -0.18156813085079193, -0.05208911746740341, 0.06510479748249054, -0.1457970142364502, -0.04721735790371895, 0.07929854840040207, 0.21295265853405, 0.09652586281299591, -0.024316970258951187, -0.0008446699357591569, -0.05147631838917732, 0.09176880866289139, -0.10468645393848419, 0.024665607139468193, 0.23686425387859344, 0.2451070249080658, 0.1353716105222702, -0.2408473789691925, -0.05015912652015686, -0.05999709293246269, -0.20542092621326447, -0.06975068897008896, -0.11393895000219345, -0.06191075220704079, -0.05212324485182762, -0.03629543259739876, -0.01854768581688404, -0.13190671801567078, -0.1562126725912094, 0.044167887419462204, -0.1213936135172844, -0.15470866858959198, 0.06698643416166306, 0.06891362369060516, 0.1713072657585144, 0.08091693371534348, 0.10156986862421036, 0.04468377307057381, 0.14848116040229797, 0.18584662675857544, 0.172519251704216, 0.23426850140094757, 0.2249394953250885, 0.2315511405467987, 0.08269039541482925, -0.1234860047698021, 0.00840431172400713, -0.10401161760091782, -0.20682981610298157, -0.11991018056869507, -0.04773006588220596, -0.11809532344341278, -0.1993563324213028, -0.18163752555847168, -0.18894095718860626, -0.14671176671981812, -0.06231074407696724, -0.09846532344818115, -0.03317250311374664, -5.646024874295108e-05, 0.19061392545700073, 0.1464863270521164, 0.157052680850029, 0.025737499818205833, 0.02555246651172638, 0.04655544087290764, -0.0896863341331482, 0.056146614253520966, 0.06326910108327866, 0.004291730932891369, -0.065717414021492, 0.13793770968914032, 0.035599831491708755, 0.01243158895522356, 0.0626075267791748, -0.09887461364269257, -0.09242613613605499, -0.14628733694553375, -0.24159547686576843, -0.18418118357658386, -0.1897868812084198, -0.0834195464849472, -0.1196095272898674, -0.0168951116502285, -0.020180830731987953, -0.008608742617070675, 0.0850360319018364, 0.25448495149612427, 0.21375121176242828, 0.07907675951719284, -0.03089604154229164, -0.107691191136837, -0.05712403729557991, -0.005941544193774462, 0.04063506796956062, 0.042603325098752975, 0.139611154794693, 0.004546194337308407, 0.06707310676574707, 0.05975271016359329, 0.07510432600975037, 0.1869383007287979, -0.07390414923429489, -0.10177700221538544, 0.025175150483846664, 0.1552576869726181, 0.05573872849345207, -0.1316928118467331, -0.005934138782322407, -0.03918888792395592, -0.0934489369392395, 0.046264372766017914, 0.08207088708877563, 0.11119825392961502, 0.13000930845737457, 0.14101049304008484, 0.19040055572986603, 0.1900065839290619, 0.12690682709217072, 0.043656084686517715, -0.013757467269897461, -0.00199623079970479, 0.013035573996603489, 0.035005904734134674, 0.02898634411394596, 0.05228303745388985, 0.08214198797941208, 0.1752425879240036, 0.09225618839263916, 0.12482825666666031, -0.06812853366136551, -0.07781200855970383, 0.16535581648349762, 0.17534197866916656, 0.1322014331817627, 0.1070018857717514, 0.07850142568349838, -0.007585388142615557, -0.028786901384592056, -0.10206717997789383, -0.14149869978427887, -0.03753949701786041, 0.13572648167610168, 0.16143879294395447, 0.17811457812786102, -0.07849058508872986, 0.040509067475795746, -0.02373642846941948, 0.11143467575311661, 0.06256736069917679, 0.04342297464609146, 0.18924227356910706, 0.03236467018723488, -0.09039026498794556, 0.12474838644266129, 0.09795400500297546, 0.08099336922168732, 0.1820894181728363, -0.04148655757308006, 0.029971882700920105, -0.0018111608223989606, 0.12163905054330826, 0.16833364963531494, 0.15171897411346436, 0.1564032882452011, 0.08524889498949051, -0.07062363624572754, -0.12514126300811768, -0.09212300181388855, -0.025352230295538902, 0.05929785966873169, 0.148397758603096, 0.18657991290092468, 0.12567183375358582, 0.04710587486624718, 0.12456759065389633, 0.09862972050905228, 0.01992131769657135, 0.03212357684969902, 0.17318615317344666, 0.15170177817344666, 0.0601363442838192, 0.022823520004749298, 0.3105454742908478, 0.14508526027202606, 0.2723778188228607, 0.12054704129695892, 0.056240249425172806, 0.059276480227708817, 0.12422311305999756, 0.10265778750181198, 0.11117084324359894, 0.10145685821771622, -0.02573966421186924, 0.08521676063537598, -0.05461056903004646, -0.08815859258174896, -0.0816226527094841, -0.07707065343856812, 0.004198811948299408, 0.0758294016122818, 0.06939426064491272, 0.03826957568526268, 0.15707628428936005, 0.16336283087730408, 0.09850309789180756, 0.11729633808135986, 0.005972729995846748, -0.032061394304037094, 0.05620138347148895, -0.085452139377594, 0.29003024101257324, -0.012663880363106728, 0.12402891367673874, -0.14082805812358856, -0.003651406615972519, 0.04261384159326553, 0.08357129991054535, 0.0030961991287767887, 0.1309296190738678, 0.16023626923561096, -0.010075261816382408, 0.05804502218961716, 0.012248648330569267, 0.03159826621413231, 0.028166161850094795, -0.016043653711676598, 0.01571604423224926, 0.14020612835884094, 0.08529256284236908, 0.07496296614408493, 0.1155339926481247, 0.1462060660123825, 0.11428654938936234, 0.00816350243985653, 0.056537527590990067, -0.03766715154051781, 0.12142060697078705, 0.15614980459213257, 0.2921157777309418, -0.14465542137622833, 0.24074509739875793, 0.06578270345926285, -0.04603029042482376, 0.08798523247241974, -0.041434116661548615, -0.017277540639042854, 0.004203716292977333, 0.0886329784989357, 0.10272347927093506, 0.130214124917984, -0.0500357411801815, 0.06601737439632416, 0.09127392619848251, 0.0020176181569695473, 0.034324243664741516, 0.16711294651031494, 0.14329898357391357, 0.16313868761062622, 0.15062768757343292, 0.20236635208129883, 0.0460805781185627, 0.03242449462413788, -0.08480756729841232, 0.04702341556549072, 0.16988319158554077, 0.09562943875789642, 0.2622642517089844, 0.2690380811691284, 0.15834078192710876, -0.030046112835407257, -0.149924635887146, 0.0945735052227974, 0.019701844081282616, -0.008787604048848152, 0.04698475822806358, -0.17499655485153198, 0.07174102216959, -0.037368327379226685, 0.027643989771604538, 0.008648740127682686, 0.04453708976507187, 0.03768778592348099, 0.021260008215904236, 0.09975087642669678, 0.06554646044969559, 0.09500791877508163, 0.024551037698984146, 0.14947792887687683, 0.10242515057325363, 0.10174819827079773, 0.07420430332422256, -0.036035604774951935, 0.02912028320133686, 0.2229527235031128, 0.19287662208080292, 0.1736881136894226, 0.09412433207035065, 0.1526140421628952, 0.02559884823858738, 0.13164101541042328, -0.05039416253566742, -0.016811184585094452, -0.09802649915218353, -0.02350226603448391, 0.003978494554758072, 0.05494532734155655, 0.05090541020035744, 0.004595298320055008, -0.05262920632958412, 0.04856200888752937, 0.020556487143039703, -0.02028495818376541, -0.07259300351142883, -0.08125638216733932, 0.06606504321098328, 0.09416542947292328, -0.040542300790548325, 0.07801343500614166, -0.02500229701399803, -0.04127463698387146, 0.1314142644405365, 0.20821620523929596, 0.19360730051994324, -0.07158105820417404, 0.1005910336971283, 0.09542162716388702, -0.07610127329826355, -0.0062498664483428, -0.0015739722875878215, -0.07767010480165482, -0.05267692729830742, -0.09554725140333176, -0.13043102622032166, -0.14346489310264587, -0.012859495356678963, 0.04475271701812744, -0.06923094391822815, -0.1119101345539093, -0.13171052932739258, -0.1946435123682022, -0.13802272081375122, -0.18659022450447083, -0.108860082924366, -0.06968323141336441, -0.015460730530321598, -0.03932414576411247, -0.19985109567642212, -0.19602258503437042, 0.0034048918168991804, 0.03014867566525936, 0.008339149877429008, 0.12494437396526337, -0.12171879410743713, 0.03975154459476471, -0.0019991507288068533, 0.10624305158853531, -0.06577890366315842, -0.1140240803360939, 0.0427778959274292, -0.052622292190790176, -0.14824363589286804, -0.09947731345891953, -0.05812416225671768, -0.00961348693817854, -0.020022334530949593, -0.04964769631624222, -0.12849949300289154, -0.26951560378074646, -0.18933901190757751, -0.2829652726650238, -0.4279758334159851, -0.3011091947555542, -0.1904076337814331, -0.21099653840065002, -0.09399383515119553, -0.03955588489770889, 0.02467382699251175, 0.01976596750319004, 0.1147700697183609, 0.2257746309041977, 0.0364888533949852, -0.03041563741862774, 0.030308470129966736, 0.04222993552684784, -0.14636047184467316, -0.2545774281024933, -0.15160629153251648, -0.1271791309118271, -0.0808049663901329, -0.11571279168128967, -0.11182242631912231, -0.22050878405570984, -0.4080727994441986, -0.3553648889064789, -0.29669517278671265, -0.34691357612609863, -0.22511495649814606, -0.37540191411972046, -0.3636563718318939, -0.4377725422382355, -0.37495365738868713, -0.23651985824108124, -0.03978274017572403, -0.03295661509037018, -0.0293202493339777, 0.08523008972406387, -0.03801193833351135, 0.07743789255619049, 0.022311577573418617, -0.037657078355550766, -0.03234974294900894, 0.048130616545677185, 