{"input_shape": [28, 28], "preprocess": {"scale": 255}, "layers": [{"type": "dense", "units": 128, "activation": "relu", "W": [[0.023587116971611977, -0.007697179447859526, 0.039922039955854416, 0.08093675225973129, 0.004920063074678183, 0.014655476436018944, 0.043477416038513184, 0.036231450736522675, 0.00571121321991086, 0.05121656134724617, -0.030182547867298126, -0.04395265877246857, -0.028382284566760063, -0.0011223125038668513, -0.037815120071172714, 0.011662219651043415, 0.018441129475831985, -0.021815981715917587, -0.043819501996040344, -0.14496257901191711, -0.020222758874297142, 0.08258654177188873, 0.029849225655198097, -0.03236984461545944, -0.01703917235136032, -0.0001088261415134184, 0.021110957488417625, -0.06166774034500122, -0.03444333374500275, -0.03721579536795616, -0.006740364246070385, -0.08636452257633209, -0.03336752951145172, -0.07349955290555954, -0.02793717198073864, -0.02901476062834263, 0.0423567034304142, -0.15660665929317474, -0.17174963653087616, -0.0600803904235363, -0.11218316853046417, -0.07207964360713959, -0.05421719700098038, -0.18218623101711273, 0.01675795204937458, -0.03243245184421539, -0.18446700274944305, -0.2505546808242798, -0.1354919970035553, -0.02134927548468113, -0.027682635933160782, 0.009903974831104279, 0.1490786373615265, -0.01888764277100563, 0.08831411600112915, 0.051160261034965515, -0.013165454380214214, -0.08950310945510864, -0.028402073308825493, -0.10248246043920517, -0.22274039685726166, -0.16927286982536316, 0.01104500237852335, -0.12524090707302094, -0.05744624882936478, -0.0029115902725607157, 0.03802620619535446, -0.086629219353199, -0.011686385609209538, -0.2993986904621124, -0.1932588815689087, -0.24103453755378723, -0.20575617253780365, -0.0922696441411972, -0.059579312801361084, -0.18928925693035126, -0.3121384382247925, -0.18959787487983704, -0.1380675882101059, -0.19646736979484558, 0.06980565935373306, -0.020885372534394264, -0.014725788496434689, 0.00391729362308979, 0.00823464710265398, -0.02708679437637329, -0.17643801867961884, -0.13074299693107605, -0.08596937358379364, -0.052692960947752, -0.11357979476451874, -0.07654817402362823, -0.004935372155159712, -0.04309561476111412, 0.10479018092155457, 0.09194027632474899, -0.06243026629090309, -0.1445450782775879, -0.08675859123468399, -0.06822282820940018, -0.13320958614349365, -0.034214798361063004, -0.11982911080121994, -0.2056213617324829, -0.05535654351115227, 0.1878189891576767, -0.005209659226238728, 0.09002821892499924, -0.1002691388130188, 0.14750473201274872, 0.11749213933944702, -0.014280538074672222, -0.0044992282055318356, -0.00706303957849741, -0.21427524089813232, -0.13356642425060272, -0.14645951986312866, -0.17312459647655487, -0.05521687492728233, 0.004427557811141014, -0.1496896594762802, -0.10895809531211853, -0.12856730818748474, -0.04225471615791321, 0.035575952380895615, -0.13948172330856323, 0.03949322924017906, 0.061136651784181595, -0.02196553908288479, 0.11479408293962479, 0.06478618830442429, -0.09391604363918304, 0.003142809960991144, 0.031058190390467644, 0.026372628286480904, 0.022867528721690178, 0.3669486939907074, 0.26906102895736694, 0.3317430019378662, 0.09701479971408844, 0.05300170183181763, 0.02552272006869316, -0.14303191006183624, -0.015620265156030655, -0.18566708266735077, -0.2207392305135727, -0.16446904838085175, -0.062131818383932114, 0.02384653501212597, 0.012093854136765003, 0.031270042061805725, 0.12323746830224991, 0.14226138591766357, 0.10685575753450394, 0.09140318632125854, 0.014631546102464199, 0.11573416739702225, 0.1633540540933609, -0.00718061625957489, -0.07909257709980011, 0.05077741667628288, -0.002881951630115509, -0.06033739447593689, -0.11523577570915222, 0.028314033523201942, 0.313815712928772, 0.21547451615333557, 0.04831564798951149, -0.07213461399078369, -0.03423619270324707, 0.14917434751987457, -0.11597321927547455, -0.05179959908127785, -0.15388719737529755, -0.12349541485309601, -0.004599160514771938, 0.073204405605793, 0.006886172574013472, -0.002702980535104871, 0.005169358570128679, 0.04629088193178177, 0.0481531098484993, 0.058399349451065063, 0.12107822299003601, 0.04792648181319237, 0.05471508949995041, 0.048153746873140335, 0.06966445595026016, -0.14925070106983185, 0.009343287907540798, -0.03210819140076637, 0.01888507604598999, 0.03536294028162956, 0.1809578835964203, 0.11796722561120987, -0.05437208712100983, 0.042966101318597794, -0.19251736998558044, 0.25221914052963257, -0.012894758954644203, -0.10618371516466141, -0.1352969855070114, -0.05113106966018677, -0.13977636396884918, 0.06584104150533676, -0.032344937324523926, -0.023698968812823296, -0.047623150050640106, 0.03868242725729942, -0.01901419647037983, 0.08898308873176575, 0.028862712904810905, 0.08653208613395691, 0.08708248287439346, 0.06793128699064255, -0.009144464507699013, -0.053842175751924515, 0.047865793108940125, 0.08558689802885056, 0.006081328261643648, 0.08525542914867401, 0.26337769627571106, 0.2158707231283188, -0.17653897404670715, -0.15659014880657196, -0.11329140514135361, 0.16822277009487152, -0.009867235086858273, -0.1295226514339447, -0.0003449687210377306, 0.052459269762039185, 0.0640256404876709, -0.02717270888388157, -0.01187425758689642, 0.017867835238575935, -0.0177798792719841, -0.028135647997260094, 0.05042398348450661, -0.0011759885819628835, 0.0511569045484066, 0.030623411759734154, -0.09299232065677643, 0.05473313853144646, 0.11068353801965714, 0.04405273497104645, -0.01186907384544611, -0.060576874762773514, 0.08447659760713577, 0.1448153853416443, 0.3364548981189728, 0.2526688277721405, 0.14118169248104095, -0.0010812305845320225, -0.07902874052524567, -0.0251944437623024, 0.018441038206219673, -0.2780206799507141, -0.05999228358268738, -0.018814174458384514, 0.028631485998630524, -0.11557582020759583, -0.06410686671733856, -0.12324095517396927, -0.02247145213186741, 0.03342677652835846, -0.07892441004514694, -0.07866372913122177, 0.015669824555516243, -0.04442007094621658, 0.052397821098566055, 0.015045899897813797, 0.03574640303850174, 0.12218555063009262, 0.02939297817647457, -0.07297926396131516, 0.03364452347159386, 0.12517127394676208, 0.386987566947937, 0.3177923560142517, -0.10104789584875107, 0.0430125817656517, -0.021063929423689842, -0.06364066898822784, -0.010728215798735619, 0.03247666731476784, 0.16884508728981018, 0.1996612250804901, 0.10462396591901779, -0.006241571623831987, 0.052461814135313034, -0.04381973668932915, 0.07817096263170242, 0.12529756128787994, -0.05807109922170639, -0.04183071106672287, -0.11019757390022278, -0.0671703964471817, -0.033891625702381134, 0.07108443230390549, 0.013050391338765621, 0.02007202059030533, -0.034449197351932526, -0.07059130072593689, -0.03174740821123123, 0.07157149165868759, 0.13486438989639282, 0.20745328068733215, -0.043041206896305084, 0.031065896153450012, -0.20324167609214783, -0.06661046296358109, -0.01835750974714756, 0.06337788701057434, 0.36699342727661133, 0.24400325119495392, 0.16466891765594482, 0.18385429680347443, 0.05760364979505539, 0.01903839223086834, 0.06617199629545212, 0.07939263433218002, -0.1170848086476326, 0.05832317844033241, -0.05735396221280098, -0.09367187321186066, 0.028602294623851776, -0.0814533680677414, 0.06627452373504639, -0.05399611219763756, 0.029131028801202774, -0.11920458823442459, 0.07684990763664246, 0.06355644762516022, 0.17776159942150116, 0.2471846044063568, -0.10356812924146652, 0.0071121444925665855, -0.06282481551170349, -0.061754077672958374, 0.1712607592344284, 0.05385825037956238, 0.18668855726718903, 0.09226501733064651, 0.06046034395694733, 0.12055042386054993, 0.11167775839567184, 0.07207242399454117, 0.06379737704992294, -0.019487956538796425, -0.004784518852829933, -0.12432509660720825, 0.02629271149635315, 0.024659739807248116, -0.10147710144519806, 0.04390719532966614, 0.12097989022731781, -0.0006505007622763515, 0.043796882033348083, -0.04288497939705849, -0.0746195912361145, -0.033298309892416, 0.04042206332087517, 0.07094912976026535, -0.19872964918613434, -0.03155981004238129, -0.01827850006520748, -0.0894438698887825, 0.019650926813483238, -0.017180325463414192, 0.04688701033592224, 0.02795976586639881, 0.11110356450080872, 0.011490190401673317, -0.001220398466102779, 0.09064730256795883, 0.09231813251972198, 0.04896664246916771, 0.08058943599462509, 0.0021357142832130194, 0.0672471672296524, 0.0036223807837814093, -0.04233255609869957, 0.029700718820095062, 0.014580275863409042, 0.12992647290229797, -0.0753517746925354, 0.0051574367098510265, -0.08247901499271393, -0.10403945297002792, 0.10496163368225098, 0.19046510756015778, 0.11877864599227905, 0.04449489340186119, -0.012383963912725449, -0.17212311923503876, 0.030741844326257706, -0.027345776557922363, 0.003691097255796194, 0.09689679741859436, 0.14059744775295258, -0.03604463115334511, 0.03505413606762886, 0.03231855481863022, 0.05657484754920006, 0.0740310400724411, -0.06975305825471878, 0.022443290799856186, 0.09096675366163254, -0.037721164524555206, -0.04673045128583908, -0.005795667879283428, -0.06409396231174469, -0.03576372191309929, -0.1152588501572609, -0.044620297849178314, -0.14608702063560486, -0.0861610546708107, 0.06933651864528656, 0.06910984963178635, 0.019690966233611107, -0.05772525072097778, -0.0020699461456388235, -0.20321455597877502, 0.1975840926170349, 0.08060218393802643, -0.0079090790823102, 0.058474861085414886, 0.022273460403084755, 0.05306236445903778, -0.01963404193520546, 0.045911259949207306, -0.12206185609102249, -0.049842968583106995, 0.01954459957778454, 0.03304150328040123, 0.07316061854362488, 0.0963301807641983, 0.05634189397096634, -0.011962995864450932, -0.08457750082015991, -0.11369862407445908, -0.01747773215174675, -0.060340169817209244, -0.018969964236021042, -0.10780391097068787, 0.11755979061126709, 0.09551993757486343, 0.1707977056503296, 0.036623310297727585, -0.08054494857788086, -0.040720000863075256, 0.0801592543721199, -0.06916999071836472, -0.05180494114756584, 0.00223524565808475, -0.00264395191334188, 0.03979424014687538, -0.029742226004600525, 0.01997198909521103, -0.005284016020596027, -0.029520077630877495, -0.026442456990480423, 0.022679107263684273, 0.09933245182037354, 0.081620953977108, 0.21574099361896515, 0.00258919526822865, -0.04089200869202614, -0.04474525526165962, -0.06777310371398926, -0.02946525625884533, -0.07591566443443298, -0.19806410372257233, 0.10786889493465424, 0.2437131553888321, 0.07621004432439804, 0.04223528504371643, -0.06909213960170746, 0.007329336833208799, 0.044988326728343964, 0.035236310213804245, -0.04838057979941368, 0.19308698177337646, 0.03914398327469826, 0.03895077854394913, 0.0967949777841568, -0.022297894582152367, 0.020210163667798042, 0.05644146725535393, 0.02166336588561535, 0.05589887872338295, -0.03735515847802162, 0.09603126347064972, 0.16520144045352936, 0.0901959240436554, -0.023053690791130066, 0.015499976463615894, 0.0018052419181913137, -0.11375343054533005, -0.19924691319465637, -0.026800790801644325, 0.06175883114337921, 0.07637741416692734, 0.02792496792972088, -0.1334569901227951, 0.044270168989896774, -0.05666851997375488, 0.022648878395557404, -0.011297357268631458, 0.11603829264640808, 0.21706238389015198, 0.08701617270708084, 0.025343982502818108, -0.04534270986914635, 0.025510918349027634, -0.04086210951209068, 0.010031933896243572, -0.03555501997470856, 0.042777590453624725, -0.027691766619682312, 0.1473640352487564, -0.0182424858212471, -0.10868515074253082, -0.03680744767189026, 0.03390195220708847, -0.020207479596138, -0.08017392456531525, -0.031204625964164734, 0.1164930984377861, 0.005366608500480652, 0.05041808262467384, 0.1383441835641861, -0.048111848533153534, -0.1743953824043274, -0.1596621721982956, -0.14097987115383148, 0.09499946236610413, -0.06158322095870972, -0.07766157388687134, 0.0033364808186888695, 0.026357445865869522, 0.03392324969172478, -0.01275016088038683, 0.016095079481601715, 0.04369944706559181, -0.033455364406108856, 0.03247234970331192, 0.029397042468190193, 0.005600333213806152, 0.006044362671673298, -0.048218414187431335, -0.10989085584878922, -0.09814989566802979, 0.05649948492646217, -0.023799510672688484, 0.046371929347515106, -0.11469259113073349, -0.11203066259622574, -0.030155356973409653, -0.007537408731877804, -0.05559952184557915, -0.08360467851161957, 0.10684946179389954, -0.2218923419713974, -0.10139787942171097, -0.022364195436239243, -0.019292671233415604, -0.018308086320757866, -0.008693573996424675, -0.046064309775829315, -0.005712147336453199, 0.02290484495460987, -0.022217625752091408, 0.027139145880937576, -0.14696849882602692, -0.046239644289016724, -0.08041082322597504, -0.05333073064684868, -0.16449381411075592, 0.010741865262389183, -0.07040540874004364, -0.05858156457543373, 0.010996258817613125, -0.09222028404474258, -0.06619463860988617, -0.04893532022833824, 0.013509483076632023, -0.0410849004983902, -0.014909547753632069, 0.11794924736022949, 0.027975214645266533, 0.06509153544902802, -0.1094728335738182, -0.038455814123153687, -0.04323992133140564, 0.006688371300697327, 0.014711357653141022, -0.0034175249747931957, 0.15123987197875977, -0.023345494642853737, -0.07809830456972122, 0.028562137857079506, -0.023673631250858307, -0.09062836319208145, -0.12573091685771942, -0.037618476897478104, -0.07743184268474579, -0.15222041308879852, -0.15559004247188568, 0.08609890937805176, 0.11934605985879898, 0.11260437220335007, -0.015607220120728016, 0.008675703778862953, -0.0876573845744133, -0.003412354737520218, 0.016681797802448273, -0.10814023017883301, 0.051849234849214554, 0.14492420852184296, -0.03499249741435051, -0.11941651254892349, -0.093407042324543, -0.02407112717628479, -0.008648661896586418, 0.050964247435331345, -0.012615238316357136, 0.09641586244106293, 0.0850636214017868, -0.036125827580690384, -0.033739883452653885, -0.07988711446523666, -0.027792049571871758, -0.07603263109922409, -0.09711635857820511, -0.016384175047278404, -0.12087420374155045, -0.01592155359685421, 0.21330925822257996, 0.16287826001644135, 0.343296080827713, 0.08576907217502594, -0.21176265180110931, -0.09665385633707047, -0.09522899240255356, -0.09362689405679703, -0.14659017324447632, 0.06083165481686592, 0.15383055806159973, -0.15295645594596863, 0.07935643941164017, -0.04305301979184151, 0.120884470641613, 0.12818704545497894, 0.11729328334331512, 0.0943804383277893, 0.011904023587703705, -0.026090089231729507, -0.05555367097258568, -0.06109537556767464, -0.024064457044005394, -0.06932398676872253, 0.02140112966299057, 0.07358331978321075, 0.015806548297405243, 0.26414647698402405, 0.30788207054138184, 0.38900962471961975, 0.2993694543838501, 0.06035995855927467, -0.15505458414554596, 0.07579606771469116, -0.08033130317926407, -0.0036923058796674013, -0.07477210462093353, -0.11316438019275665, -0.07401908934116364, -0.021751148626208305, 0.02862546220421791, 0.17728067934513092, 0.07078070938587189, 0.014665631577372551, 0.026407795026898384, 0.1116025447845459, 0.1297854334115982, 0.1234372928738594, 0.05440131947398186, -0.09883073717355728, 0.02410244569182396, -0.08463277667760849, 0.07544679194688797, 0.10197176039218903, 0.13578635454177856, 0.09319566935300827, 0.2548689544200897, 0.15903761982917786, 0.10055474936962128, -0.14497257769107819, -0.06491109728813171, -0.00279412348754704, -0.010489284060895443, -0.0763467401266098, 0.14376914501190186, -0.007517138961702585, -0.09593862295150757, 0.04490853473544121, 0.10591581463813782, 0.13116739690303802, -0.2200293242931366, -0.05156476050615311, 0.11394452303647995, 0.247756227850914, 0.04363255202770233, 0.07973451167345047, -0.014051654376089573, 0.1877204179763794, 0.23000900447368622, 0.2777755856513977, 0.26898473501205444, 0.12216386944055557, 0.16447821259498596, 0.2772023379802704, 0.2653723359107971, 0.18351416289806366, -0.06456940621137619, 0.038286902010440826, 0.03530501946806908, 0.06312483549118042, 0.0704830139875412, 0.051812294870615005, -0.04080253466963768, 0.04900536686182022, 0.18930067121982574, 0.13635730743408203, 0.09145969152450562, 0.008613485842943192, 0.0033710605930536985, 0.06492673605680466, -0.10395119339227676, 0.03291629999876022, 0.304265558719635, 0.031347084790468216, 0.03737316653132439, -0.10459057241678238, -0.046794191002845764, 0.010081029497087002, 0.04381425678730011, -0.010860360227525234, 0.04158048331737518, 0.13821963965892792, 0.10394705832004547, -0.07915720343589783, -0.020138626918196678, -0.028881600126624107, -0.042179811745882034, -0.050734974443912506, -0.10822341591119766, 0.013124046847224236, 0.004741879180073738, 0.05941243842244148, -0.12942172586917877, -0.1261052042245865, 0.15899591147899628, 0.04917537793517113, 0.11966609954833984, 0.09218759834766388, -0.1330631822347641, 0.08282746374607086, 0.1220565214753151, -0.05575081706047058, 0.004457415081560612, 0.16787876188755035, -0.0037692382466048002, -0.11859473586082458, 0.014819297939538956, 0.0546717494726181, -0.020183537155389786, -0.07533755153417587, 0.03005051054060459, -0.1255420744419098, 0.02667478285729885, -0.06006369739770889, -0.009906609542667866, 0.008440732955932617], [0.028293294832110405, 0.04374031722545624, -0.09144233912229538, 0.06927932798862457, 0.0014464706182479858, 0.048846255987882614, -0.020053552463650703, 0.010438176803290844, 0.05341276898980141, 0.08227140456438065, -0.02453193999826908, -0.029471738263964653, -0.012194458395242691, -0.0984005406498909, -0.08395448327064514, 0.001050919177941978, -0.04520810395479202, 0.08756408840417862, -0.02187802456319332, 0.015435035340487957, -0.042910173535346985, -0.07095996290445328, -0.0009097190340980887, 0.020957544445991516, 0.007234710734337568, 0.05042601749300957, -0.016872508451342583, 0.025337081402540207, 0.03175865113735199, 0.013047166168689728, -0.05890283361077309, 0.05605493485927582, 0.00044729557703249156, -0.0027150281239300966, 0.12672394514083862, 0.09564574062824249, 0.029709048569202423, -0.006887673866003752, 0.07263757288455963, 0.10786323249340057, 0.08216772228479385, 0.0873420387506485, 0.038289874792099, 0.1934201717376709, 0.12431650608778, 0.029443174600601196, 0.1940874606370926, 0.09145247936248779, 0.1871316283941269, 0.11420509219169617, 0.1705833524465561, 0.04000198096036911, -0.03443972393870354, 0.0411926731467247, -0.02722560614347458, 0.03402410075068474, 0.08088695257902145, -0.01706046797335148, 0.0017209922662004828, -0.14203017950057983, -0.014744500629603863, 0.018545100465416908, 0.1691553294658661, 0.1560709923505783, 0.04155205562710762, 0.029047274962067604, 0.15772651135921478, 0.277259886264801, 0.17171551287174225, 0.19046981632709503, 0.16181901097297668, 0.24186865985393524, 0.26515328884124756, 0.09075212478637695, 0.12613999843597412, 0.09840652346611023, 0.07486523687839508, -0.028972238302230835, 0.1549689769744873, 0.09737828373908997, -0.027810214087367058, -0.016883108764886856, -0.031146006658673286, 0.012267240323126316, 0.07306317985057831, -0.003992073237895966, -0.07493966817855835, -0.16668947041034698, 0.03149501234292984, 0.04457957670092583, 0.03410261124372482, 0.09008848667144775, -0.041126880794763565, 0.23552842438220978, 0.09903377294540405, 0.1216135025024414, 0.1121206060051918, 0.0806436613202095, 0.10743892192840576, 0.14496079087257385, 0.1858866810798645, 0.07265463471412659, 0.01911791041493416, 0.09265048056840897, -0.14660872519016266, -0.1614016741514206, -0.05952589586377144, 0.02078615315258503, 0.048972636461257935, -0.11723518371582031, -0.10039057582616806, -0.026039380580186844, 0.04176845774054527, -0.00011062015255447477, -0.11171631515026093, -0.12516111135482788, 0.1136372983455658, 0.08917532116174698, 0.09041021764278412, 0.07504602521657944, 0.20659200847148895, 0.17425769567489624, 0.12801964581012726, 0.020808793604373932, 0.05257529392838478, -0.3272897005081177, -0.02137838304042816, -0.008415024727582932, 0.12398017942905426, 0.16666388511657715, 0.033062417060136795, 0.09511450678110123, -0.02648652158677578, -0.16577278077602386, -0.10294109582901001, -0.10192740708589554, 0.03432571515440941, 0.005585146136581898, 0.10402974486351013, 0.0686083734035492, -0.02080737054347992, 0.0625249370932579, 0.07554087042808533, -0.023478154093027115, 0.015965323895215988, 0.07806766778230667, 0.02015214040875435, -0.05808097496628761, 0.10008316487073898, -0.025882095098495483, -0.12831492722034454, -0.16150222718715668, -0.10852736979722977, -0.15789227187633514, -0.14334352314472198, -0.18754105269908905, -0.09291735291481018, 0.03117218427360058, 0.05951249226927757, 0.18852141499519348, 0.006115155294537544, -0.015834113582968712, -0.029199467971920967, -0.006240799557417631, 0.1067400574684143, 0.06542365998029709, 0.14818555116653442, 0.10429626703262329, 0.06140321493148804, -0.01632285863161087, -0.05699925497174263, -0.06328533589839935, -0.1352684646844864, -0.09247302263975143, -0.023181462660431862, 0.0017903015250340104, -0.13437581062316895, -0.004789563827216625, -0.15781430900096893, -0.026475561782717705, 0.03871140629053116, -0.06342121213674545, 0.025132758542895317, -0.04700656980276108, -0.14872221648693085, 0.044380977749824524, -0.015916215255856514, 0.019156062975525856, 0.03235626593232155, 0.00032406349782831967, 0.0672987699508667, 0.08252064138650894, 0.16623084247112274, 0.016115345060825348, 0.005311813671141863, 0.15456348657608032, 0.02574571594595909, -0.003040435491129756, -0.025054609403014183, -0.004938217345625162, -0.1743983030319214, -0.08902888745069504, -0.15714804828166962, -0.04554224759340286, -0.10326483100652695, 0.014048006385564804, 0.0359339714050293, 0.06310447305440903, 0.05149582028388977, -0.08518379926681519, -0.053902700543403625, 0.09262778609991074, -0.07407540082931519, -0.12856799364089966, 0.03470776230096817, 0.0007962756208144128, 0.08971671015024185, 0.14440709352493286, 0.027826856821775436, 0.051422346383333206, -0.04672221839427948, -0.11746083945035934, -0.1284320205450058, 0.09451466798782349, 0.06611920893192291, 0.02126438356935978, 0.014093800447881222, -0.21567022800445557, -0.15524449944496155, -0.07618924975395203, 0.1558818519115448, 0.09627503156661987, 0.1295732855796814, -0.004072895739227533, 0.04056112468242645, 0.029249005019664764, 0.12287174165248871, 0.040674131363630295, 0.030050594359636307, 0.05663052573800087, -0.047221120446920395, -0.10315361618995667, -0.017588919028639793, -0.01382812112569809, 0.007478110957890749, 0.15274997055530548, -0.0174122154712677, -0.006844985298812389, -0.11531534790992737, -0.11047865450382233, 0.09651825577020645, 0.10853523761034012, 0.040792107582092285, 0.019089387729763985, -0.0924735814332962, -0.12196286022663116, -0.17696569859981537, -0.21932297945022583, -0.010456740856170654, 0.1064029335975647, 0.19009888172149658, 0.07827884703874588, -0.018427502363920212, 0.008849585428833961, -0.15864534676074982, -0.11304069310426712, -0.14391228556632996, -0.016564849764108658, -0.0388992503285408, -0.10794278979301453, -0.08191565424203873, -0.04180041700601578, -0.08117307722568512, 0.004934332333505154, -0.12389958649873734, 0.0662408247590065, -0.01883409544825554, -0.13929007947444916, -0.16049081087112427, -0.02388458512723446, -0.0061223674565553665, -0.05142104625701904, -0.03427724167704582, -0.1588287204504013, -0.0787777453660965, -0.22344323992729187, -0.009510333649814129, -0.07287444174289703, 0.09230238944292068, 0.007810008246451616, -0.023936482146382332, -0.1438487321138382, -0.08988424390554428, -0.2562594711780548, -0.14140689373016357, -0.1674296259880066, -0.12325776368379593, -0.057452987879514694, -0.022386426106095314, -0.016862984746694565, -0.07421092689037323, -0.061692386865615845, 0.04980843886733055, 0.0945669636130333, 0.08460381627082825, -0.21011309325695038, -0.09521237015724182, -0.0623907707631588, 0.004001862369477749, 0.05163474753499031, -0.00653938390314579, -0.10264844447374344, -0.05550510808825493, -0.12434161454439163, -0.11428207904100418, -0.02269374579191208, 0.020508751273155212, 0.06552904099225998, 0.04063236713409424, -0.01871911622583866, -0.04607834666967392, -0.0942458063364029, -0.18475429713726044, -0.05037610977888107, -0.07778465747833252, -0.18346069753170013, -0.13394002616405487, -0.061271894723176956, -0.033377885818481445, 0.0445094108581543, -0.046633750200271606, 0.16919249296188354, 0.2768346071243286, -0.009234769269824028, -0.07802028954029083, -0.10721731930971146, -0.0072030904702842236, 0.08615594357252121, -0.12828820943832397, -0.050622303038835526, -0.10835884511470795, -0.20055711269378662, -0.06375261396169662, 0.1818055361509323, 0.13323047757148743, 0.16406084597110748, 0.08148720860481262, 0.06509696692228317, -0.022460343316197395, -0.12147457897663116, -0.17855486273765564, -0.019184743985533714, -0.022035740315914154, -0.18224532902240753, -0.15078960359096527, -0.0125842010602355, -0.02457052282989025, 0.013831520453095436, 0.07537773996591568, 0.05602544918656349, 0.22144536674022675, 0.05123778060078621, -0.2685129940509796, -0.15963254868984222, 0.08961658924818039, 0.03813893347978592, 0.008315054699778557, -0.08726547658443451, -0.34844860434532166, -0.17539013922214508, -0.04488734155893326, 0.10351177304983139, 0.2200073003768921, 0.17229807376861572, 0.07241746783256531, 0.12597393989562988, 0.01326778531074524, -0.08737801760435104, -0.04858515411615372, 0.08499010652303696, -0.01818644255399704, -0.14253878593444824, -0.056351736187934875, -0.03545120730996132, 0.08718658238649368, 0.198351189494133, 0.12258987873792648, 0.11637497693300247, 0.1032099574804306, -0.056123796850442886, -0.07567139714956284, -0.05468260124325752, 0.13351264595985413, -0.04049631208181381, 0.17717194557189941, -0.027728920802474022, -0.4037249684333801, 0.05409464240074158, 0.09541843086481094, 0.08689620345830917, 0.14566251635551453, 0.018583770841360092, -0.004531530197709799, 0.04416762664914131, -0.1396554708480835, -0.07373444736003876, 0.1589013636112213, 0.0888817310333252, 0.042001932859420776, -0.14037536084651947, -0.07892851531505585, 0.050245724618434906, 0.034334439784288406, 0.07140909880399704, 0.10549797862768173, 0.08694138377904892, -0.018480760976672173, 0.07970651239156723, -0.10087274014949799, -0.05255889892578125, 0.10857539623975754, -0.00980750098824501, 0.05762595683336258, 0.1475103199481964, -0.15032166242599487, 0.05019364133477211, 0.029110874980688095, 0.05302874743938446, 0.07660406827926636, -0.0058960807509720325, -0.0718892514705658, -0.12284614890813828, 0.009924890473484993, -0.023837493732571602, 0.18707431852817535, 0.03846200555562973, 0.10890067368745804, 0.022055475041270256, -0.01864127814769745, -0.049196887761354446, -0.05112621933221817, 0.01721019670367241, 0.19101276993751526, 0.19590891897678375, 0.012863892130553722, 0.1763136386871338, -0.0017852568998932838, -0.16590148210525513, -0.022493766620755196, -0.08801422268152237, 0.09999503940343857, 0.13539694249629974, -0.11794485151767731, 0.13694453239440918, 0.12678679823875427, -0.0538988821208477, -0.04121618717908859, -0.24240529537200928, -0.19968685507774353, -0.09718788415193558, -0.020840568467974663, 0.018911084160208702, 0.16475720703601837, 0.2533552050590515, 0.22864586114883423, 0.012316666543483734, -0.05173967406153679, -0.15549863874912262, -0.040898486971855164, -0.12791915237903595, -0.012226402759552002, 0.07153591513633728, 0.009865844622254372, 0.1560477614402771, -0.09603247791528702, -0.108004130423069, -0.05080930143594742, -0.12368354946374893, -0.009030875749886036, 0.125698059797287, -0.07466528564691544, 0.0377843901515007, -0.14586307108402252, -0.23913413286209106, -0.14560721814632416, -0.23602592945098877, -0.2879146933555603, -0.04767816141247749, 0.12592820823192596, 0.20627616345882416, 0.14024026691913605, 0.15168844163417816, 0.13647198677062988, 0.08401533216238022, 0.11230524629354477, -0.06347285956144333, -0.07699577510356903, -0.050159383565187454, 0.034520041197538376, 0.0491221658885479, 0.1555156409740448, 0.061098527163267136, -0.08334092795848846, -0.004629654344171286, -0.1198207437992096, -0.04962411895394325, 0.022462835535407066, 0.04245294630527496, 0.01242759171873331, -0.08289068192243576, -0.09426914900541306, -0.21586014330387115, -0.21635779738426208, -0.311330646276474, 0.0018352000042796135, 0.04629480093717575, 0.15642979741096497, 0.12373203784227371, 0.179123654961586, 0.16911980509757996, 0.12913081049919128, 0.026694055646657944, 0.034481070935726166, -0.022254040464758873, -0.032735321670770645, -0.03688248619437218, -0.11660207062959671, -0.02588903158903122, -0.007599185220897198, 0.10763897746801376, -0.04200454428792, -0.06708879768848419, -0.06494343280792236, -0.11405069380998611, -0.13765326142311096, -0.07394428551197052, -0.12030071765184402, -0.10727490484714508, -0.17425654828548431, -0.25206196308135986, -0.16231100261211395, -0.18349939584732056, 0.10275974124670029, 0.17830497026443481, 0.21215565502643585, 0.18523484468460083, 0.1365617960691452, 0.07329156994819641, 0.11244867742061615, 0.060834720730781555, 0.057212814688682556, 0.01117639895528555, -0.1316446214914322, -0.1438264399766922, -0.09542155265808105, -0.002897645579650998, 0.050130825489759445, 0.05398576334118843, -0.0396948903799057, -0.11153469234704971, 0.004591998644173145, 0.012197881937026978, -0.0226905457675457, -0.16839298605918884, -0.19888168573379517, -0.21906927227973938, -0.1920885443687439, -0.20302855968475342, -0.2355819195508957, -0.12046203762292862, 0.16959726810455322, 0.264852911233902, 0.16652114689350128, 0.08568248897790909, 0.12329427152872086, 0.016250908374786377, -0.04760599881410599, 0.041149985045194626, 0.046182990074157715, 0.020445959642529488, -0.05832947418093681, 0.002441559685394168, -0.17655211687088013, -0.10139559954404831, 0.05281343311071396, 0.04294053465127945, -0.005830427166074514, -0.03540727496147156, 0.008499194867908955, -0.0305239986628294, -0.12642864882946014, -0.18867263197898865, -0.2961929142475128, -0.27925318479537964, -0.23015736043453217, -0.2516999840736389, -0.01168975792825222, 0.002621661638841033, 0.21868650615215302, 0.20011158287525177, -0.00024533417308703065, 0.13650256395339966, 0.15967817604541779, 0.12578757107257843, 0.06547433137893677, 0.004232640843838453, 0.08557331562042236, 0.07172876596450806, -0.08227642625570297, -0.12677057087421417, -0.06622745841741562, -0.16439886391162872, -0.1300327032804489, 0.10102999210357666, 0.04734048619866371, -0.0007569822482764721, -0.08007684350013733, -0.053799036890268326, -0.0669519379734993, -0.10250470787286758, -0.314487099647522, -0.35983696579933167, -0.2609427571296692, -0.2781272232532501, -0.08670209348201752, 0.0716882199048996, 0.10397969186306, -0.03047301061451435, -0.008675063960254192, 0.15641646087169647, 0.055227555334568024, 0.009522553533315659, -0.009390088729560375, 0.10180388391017914, -0.028720691800117493, 0.08233073353767395, -0.1175433024764061, 0.019842728972434998, -0.007728490047156811, -0.3001547157764435, -0.22626249492168427, -0.008556518703699112, -0.023637359961867332, -0.022951437160372734, -0.05717172473669052, -0.13645631074905396, -0.03089386411011219, -0.25342974066734314, -0.0861448124051094, -0.182616725564003, -0.1716485172510147, -0.19070854783058167, -0.014888363890349865, 0.14231207966804504, -0.07324574142694473, -0.016605408862233162, -0.005548086483031511, 0.019826987758278847, -0.04525453969836235, -0.051261208951473236, 0.03822266682982445, 0.036271192133426666, 0.01548566110432148, 8.309163968078792e-05, -0.09006477147340775, -0.07832275331020355, 0.06122269108891487, -0.07917095720767975, -0.3499245047569275, 0.0008848300203680992, -0.11618781089782715, 0.03455701842904091, 0.02478843741118908, 0.07451322674751282, 0.022064100950956345, -0.20572464168071747, -0.026170900091528893, -0.36311885714530945, -0.19333216547966003, -0.23383960127830505, -0.20537622272968292, -0.10684842616319656, -0.019504141062498093, -0.007719724904745817, 0.04089703410863876, 0.09913627803325653, 0.007492095697671175, 0.0822446420788765, 0.017691001296043396, -0.0753699317574501, 0.03564136475324631, 0.060189880430698395, 0.08004502207040787, 0.0859578400850296, 0.07197749614715576, -0.050205763429403305, -0.20955529808998108, -0.12909828126430511, -0.05866698548197746, -0.015529348514974117, -0.09826604276895523, -0.013266640715301037, -0.08312103897333145, -0.040946997702121735, -0.017374571412801743, -0.19114983081817627, -0.11385136097669601, 0.005322485696524382, -0.20504505932331085, -0.06922371685504913, -0.05190093815326691, 0.07633443176746368, 0.007309536915272474, 0.019742289558053017, 0.12245713174343109, 0.17689988017082214, 0.04860953614115715, 0.18243390321731567, 0.08853283524513245, -0.00815763883292675, -0.031057201325893402, 0.035631537437438965, -0.04750615358352661, -0.14427450299263, -0.15710899233818054, -0.17184172570705414, 0.026494139805436134, 0.003075308632105589, 0.0749705359339714, -0.13817185163497925, 0.059545066207647324, 0.040920745581388474, 0.052910104393959045, -0.03647346794605255, -0.043562110513448715, -0.16424904763698578, -0.15114790201187134, -0.03991378843784332, -0.23941725492477417, -0.03197627514600754, -0.02263270691037178, 0.05360289663076401, -0.08322828263044357, -0.16497179865837097, -0.11737781763076782, -0.08235139399766922, -0.05252477154135704, -0.01289781928062439, -0.09056936204433441, -0.08576580137014389, -0.05453295633196831, -0.0845029279589653, 0.07366381585597992, -0.06338169425725937, 0.05423733964562416, -0.05110424757003784, -0.014301685616374016, 0.020152930170297623, -0.0062764715403318405, 0.12382421642541885, 0.05060851573944092, 0.19247595965862274, 0.13932356238365173, 0.08295215666294098, 0.07150063663721085, -0.05033140629529953, -0.004537160042673349, -0.03363705798983574, -0.13974228501319885, 0.10702626407146454, -0.10279253125190735, -0.039296213537454605, -0.01644056849181652, -0.035979241132736206, -0.10015968978404999, -0.001734233577735722, 0.04327689856290817, -0.022963503375649452, 0.07562800496816635, -0.04878079146146774, -0.013971921056509018, 0.016787545755505562, -0.03640410676598549, -0.025841696187853813], [-0.021698052063584328, -0.017452020198106766, -0.08766060322523117, 0.020041700452566147, -0.0003950214886572212, 0.01068264152854681, -0.024605507031083107, 0.06039872765541077, -0.023479599505662918, -0.00035002463846467435, -0.09368438273668289, 0.06107422709465027, 0.02463231422007084, 0.05063097923994064, -0.048016782850027084, 0.009112277999520302, 0.05498293787240982, -0.03710559383034706, -0.010297408327460289, -0.06999945640563965, 0.08023581653833389, 0.0019508505938574672, -0.02942431904375553, 0.019683511927723885, -0.05795472860336304, 0.08003291487693787, -0.03164654225111008, -0.06588947027921677, -0.05185278505086899, 0.01697482541203499, 0.03513234108686447, 0.043103884905576706, 0.02348560281097889, 0.016630902886390686, 0.10050712525844574, 0.049310892820358276, 0.046974461525678635, 0.06698474287986755, 0.009874003939330578, 0.08031003177165985, -0.01889127865433693, 0.022116675972938538, -0.02876090444624424, 0.11782608926296234, -0.056276991963386536, 0.007062477990984917, 0.18899250030517578, 0.10859505087137222, 0.17632898688316345, 0.09564346820116043, 0.04267187416553497, 0.04978257417678833, -0.0748170018196106, 0.01059663388878107, 0.018037598580121994, -0.08963655680418015, 0.01364218257367611, 0.05021363124251366, 0.08160823583602905, -0.14306817948818207, -0.07373885810375214, 0.14398866891860962, 0.09868983179330826, 0.1233062744140625, 0.16261813044548035, 0.09893042594194412, 0.1487606018781662, 0.25112035870552063, 0.09121570736169815, 0.1741262823343277, 0.25098302960395813, 0.14967000484466553, 0.11437345296144485, 0.05326370522379875, 0.178690105676651, 0.0015893828822299838, 0.06613291800022125, 0.09843174368143082, 0.154585599899292, 0.08227070420980453, -0.04993780702352524, 0.020130259916186333, 0.056561656296253204, -0.0881023108959198, -0.0057981680147349834, -0.06330046057701111, -0.08839487284421921, -0.10758593678474426, 0.05198713019490242, -0.005008232314139605, 0.09165426343679428, 0.03959314897656441, 0.06868632137775421, -0.013222353532910347, 0.004086455795913935, 0.09282548725605011, -0.03101912885904312, 0.02808915264904499, -0.02876049280166626, 0.08688075840473175, -0.006257255561649799, -0.10144199430942535, -0.05682375282049179, -0.10930569469928741, -0.14557074010372162, -0.08437830209732056, 0.0017960210097953677, 0.15045951306819916, -0.04101749137043953, -0.022854764014482498, -0.007084854878485203, -0.01944555714726448, -0.05619945749640465, -0.006501487921923399, -0.10695505887269974, -0.22080107033252716, 0.062341973185539246, 0.2334185391664505, 0.03494582697749138, 0.05068209394812584, 0.14056706428527832, 0.028592292219400406, 0.10379605740308762, 0.029445862397551537, 0.07429632544517517, 0.08912847936153412, -0.005083157680928707, -0.10227185487747192, -0.04589620977640152, -0.09281248599290848, -0.06856676191091537, -0.14283080399036407, 0.049696747213602066, -0.07337129861116409, -0.01985125057399273, -0.009853323921561241, -0.11643259227275848, -0.05610640347003937, -0.00641251914203167, 0.1159808412194252, 0.06952527165412903, -0.04640103876590729, 0.16680829226970673, -0.00034151432919315994, 0.1496790498495102, 0.085765540599823, 0.08465699851512909, -0.023144932463765144, -0.050594545900821686, 0.008663415908813477, 0.12498463690280914, 0.006059820298105478, 0.15645654499530792, 0.030743487179279327, -0.16018669307231903, -0.06234714388847351, -0.10074557363986969, -0.17864090204238892, -0.1269042044878006, -0.11906163394451141, -0.049291398376226425, -0.07063284516334534, -0.06578379124403, -0.06212066113948822, -0.02106836810708046, -0.11065663397312164, -0.01574060134589672, -0.01638283208012581, 0.008722716942429543, -0.04707677662372589, -0.07802353799343109, -0.003864030819386244, 0.05928691476583481, -0.14754462242126465, -0.054243914783000946, 0.01915384642779827, -0.07291191816329956, 0.02233848161995411, 0.03759606182575226, 0.005484158638864756, 0.05031321570277214, -0.06552036106586456, 0.08194543421268463, 0.0019616696517914534, -0.0541067011654377, -0.0650831013917923, -0.032204169780015945, -0.07015375047922134, -0.0761677697300911, -0.13494616746902466, -0.078098364174366, -0.005325456615537405, 0.04848034679889679, 0.008028983138501644, -0.04033028706908226, 0.15742595493793488, 0.08322533965110779, -0.06795461475849152, 0.14280858635902405, -0.035047631710767746, 0.011289087124168873, -0.15473248064517975, -0.15127748250961304, -0.10772867500782013, -0.12541234493255615, -0.0016537291230633855, 0.026669776067137718, 0.047168150544166565, -0.0061429338529706, 0.011627099476754665, 0.12339071929454803, 0.050424929708242416, 0.003775186138227582, -0.10694319009780884, -0.04602470248937607, -0.048809438943862915, -0.004559536464512348, 0.09665267914533615, 0.01876571774482727, -0.07848824560642242, -0.0011352981673553586, -0.05926407128572464, -0.0974462702870369, 0.07893210649490356, -0.11364514380693436, -0.03481144458055496, 0.06331924349069595, -0.017742518335580826, 0.1269783228635788, 0.003565014572814107, -0.07026826590299606, 0.07842616736888885, 0.021954860538244247, 0.04720911756157875, -0.09254922717809677, -0.013243789784610271, -0.09367618709802628, 0.021191006526350975, -0.006233311723917723, -0.021880948916077614, 0.003873390145599842, -0.05952715501189232, -0.17875240743160248, -0.05383650213479996, -0.05143950507044792, 0.011097759939730167, -0.01864909753203392, -0.1403084546327591, 0.02955620177090168, 0.053218014538288116, 0.11393176019191742, -0.06905047595500946, 0.07150856405496597, 0.06578719615936279, 0.0766642689704895, 0.00637821527197957, 0.07539568841457367, 0.07329978793859482, 0.006731271278113127, 0.07762174308300018, 0.03048907220363617, 0.0031825772020965815, 0.01811104826629162, -0.06076695770025253, -0.13009311258792877, -0.024735821411013603, -0.10056149214506149, -0.0342317670583725, -0.10805351287126541, 0.0003149520489387214, 0.07161232829093933, 0.05235319212079048, 0.02514931559562683, 0.01787508837878704, -0.03809673339128494, -0.026610087603330612, -0.022047212347388268, -0.07676360011100769, -0.11355125159025192, 0.024972116574645042, -0.012991391122341156, -0.028505561873316765, -0.06268323957920074, 0.01076449640095234, -0.05207259953022003, 0.07676203548908234, 0.0023408785928040743, 0.02434747852385044, -0.048182908445596695, -0.10429351776838303, 0.006416969001293182, 0.02069997228682041, -0.07312759011983871, -0.007472950499504805, -0.08986049890518188, -0.09505735337734222, -0.1675996482372284, -0.0735420435667038, -0.02541385032236576, 0.07177263498306274, -0.004801521077752113, 0.03689635545015335, -0.023995984345674515, 0.08575497567653656, -0.013793924823403358, -0.11678610742092133, -0.21339040994644165, 0.03787663206458092, 0.03885364532470703, -0.1053357720375061, 0.08501803129911423, 0.057861100882291794, 0.1270647495985031, 0.17819015681743622, 0.10111552476882935, 0.024588003754615784, 0.1392063945531845, 0.1208023726940155, -0.06001948192715645, -0.07768329977989197, -0.05078114569187164, -0.015194946900010109, 0.015555774793028831, -0.1421467810869217, -0.0938306525349617, 0.04515376314520836, 0.09163211286067963, 0.09877487272024155, 0.0475408174097538, 0.0026616796385496855, 0.06846398860216141, 0.003741807071492076, -0.06518828868865967, -0.017309876158833504, -0.20233410596847534, -0.036968957632780075, 0.012779663316905499, -0.03616112843155861, 0.11849621683359146, 0.06693211197853088, 0.20525263249874115, 0.10178034007549286, 0.0007762937457300723, 0.02392091043293476, 0.09284370392560959, 0.03520529344677925, -0.09864562004804611, -0.048446547240018845, -0.06789837032556534, -0.14085033535957336, -0.054433103650808334, -0.056074339896440506, -0.01356367114931345, 0.12288179248571396, 0.012106040492653847, -0.003433475736528635, -0.05077676475048065, 0.21848344802856445, 0.1984013319015503, 0.013831207528710365, 0.04154752567410469, -0.0167927835136652, -0.26671314239501953, 0.0067679486237466335, 0.10968779772520065, 0.025179250165820122, 0.00025050289696082473, -0.029841404408216476, 0.025508297607302666, 0.10628820955753326, 0.034765731543302536, 0.08641538769006729, 0.11597567796707153, 0.10111402720212936, 0.04397266358137131, -0.00011701809853548184, -0.2445901334285736, 0.0033170573879033327, 0.012196172028779984, -0.010597423650324345, 0.12859560549259186, 0.006799367722123861, 0.010602224618196487, 0.03498784080147743, 0.05264352634549141, 0.10449881851673126, 0.14886781573295593, 0.180106058716774, 0.08170796930789948, 0.0008140539866872132, -0.1425708383321762, 0.05253319442272186, -0.11419400572776794, -0.06907820701599121, -0.1669664978981018, 0.1543746292591095, 0.061374444514513016, 0.061487533152103424, 0.0885699912905693, 0.12693145871162415, 0.11509952694177628, 0.05465233698487282, -0.02089625783264637, 0.029950115829706192, 0.021486878395080566, -0.03600357845425606, 0.09871862083673477, 0.034514278173446655, 0.1119057759642601, 0.01661146990954876, 0.06508354842662811, 0.16828948259353638, -0.04611634463071823, 0.11343882232904434, 0.20616085827350616, -0.006987397093325853, -0.10629132390022278, 0.06770667433738708, -0.09880027920007706, 0.04154888540506363, -0.006076398305594921, -0.02589726448059082, -0.012052571401000023, 0.1584635078907013, -0.10019853711128235, 0.011994010768830776, 0.031102798879146576, -0.005087194964289665, 0.12722568213939667, -0.04820340871810913, 0.01901736855506897, 0.034986257553100586, 0.004321211948990822, 0.09636222571134567, 0.13290709257125854, 0.04598671570420265, 0.13939626514911652, 0.08817736059427261, -0.021559445187449455, 0.16222691535949707, 0.12466518580913544, 0.03084477409720421, 0.056717243045568466, 0.03267344832420349, -0.08653188496828079, 0.11564944684505463, 0.0018241893267259002, -0.003275878494605422, 0.041395388543605804, 0.03490019217133522, 0.005487525835633278, 0.0321873277425766, -0.006505552679300308, -0.014025874435901642, 0.1158372238278389, 0.09355544298887253, 0.06129169836640358, -0.09641839563846588, -0.12152712047100067, -0.0031080408953130245, 0.021075574681162834, 0.09147834032773972, 0.08640961349010468, 0.08722296357154846, 0.15969742834568024, 0.027898242697119713, 0.07115762680768967, -0.07479681819677353, 0.012322360649704933, 0.0788540244102478, 0.02493968978524208, -0.04316824674606323, -0.055170536041259766, 0.23074758052825928, -0.029390590265393257, -0.014927217736840248, -0.05721399188041687, 0.014867909252643585, 0.1258660852909088, -0.10795510560274124, -0.0023634214885532856, -0.024125421419739723, 0.021180160343647003, -0.02802930772304535, 0.027195779606699944, -0.02201383002102375, -0.06084587797522545, -0.12331775575876236, -0.04172305762767792, -0.014309730380773544, 0.1354302167892456, 0.0528738871216774, 0.06628718227148056, 0.030385324731469154, 0.10030564665794373, -0.07055382430553436, 0.021890265867114067, 0.10179180651903152, 0.07515394687652588, -0.000312546209897846, 0.06830386072397232, 0.2688903212547302, 0.07022783905267715, -0.060975100845098495, -0.019487731158733368, -0.003804990090429783, 0.012958399020135403, 0.057846542447805405, -0.05940580740571022, -0.15610022842884064, 0.005348946899175644, 0.0069780549965798855, -0.08270374685525894, 0.002450973028317094, -0.04575188830494881, -0.04173177480697632, -0.0007080660434439778, -0.02355804666876793, 0.15173684060573578, 0.18790823221206665, 0.01682729460299015, 0.062480129301548004, 0.046943917870521545, 0.0940445065498352, -0.019616613164544106, -0.06722871959209442, 0.00015417614486068487, 0.004768984392285347, 0.0931670218706131, 0.30542483925819397, -0.02773846499621868, 0.08222212642431259, -0.035360388457775116, -0.22023384273052216, -0.05676824599504471, -0.1638433039188385, -0.039498623460531235, -0.02814078889787197, -0.05381617695093155, -0.04432385414838791, 0.00756168644875288, -0.004590008407831192, -0.10789323598146439, 0.08445921540260315, -0.02187386527657509, 0.016736244782805443, 0.19409455358982086, 0.1282919943332672, 0.01299244537949562, 0.027568481862545013, 0.00260861380957067, 0.005842534825205803, -0.008803497068583965, -0.04785691201686859, -0.012084790505468845, 0.021730056032538414, 0.05997601896524429, 0.041690245270729065, 0.05931788682937622, 0.02521347999572754, 0.014322115108370781, -0.09075208753347397, -0.1053239032626152, -0.14920146763324738, 0.012792523950338364, -0.09683440625667572, -0.033585697412490845, 0.0777115747332573, -0.026082750409841537, -0.031243471428751945, -0.01266120932996273, -0.0967351645231247, -0.03818269073963165, -0.08525420725345612, 0.18278707563877106, 0.13175182044506073, 0.029524438083171844, 0.06736461073160172, 0.08860953897237778, -0.05686553940176964, 0.0811476856470108, 0.004164745565503836, -0.027430253103375435, 0.01502199936658144, 0.09180913865566254, 0.024058133363723755, 0.03415881097316742, -0.020479559898376465, 0.0939912423491478, 0.04687133803963661, -0.10085956007242203, -0.06786329299211502, -0.011781889945268631, 0.07836579531431198, -0.12433519214391708, 0.051065463572740555, 0.025110598653554916, -0.014575319364666939, -0.06612931191921234, 0.021598711609840393, -0.09021847695112228, 0.0530424527823925, 0.13118749856948853, 0.040964074432849884, 0.04682150483131409, 0.02419080026447773, -0.06996416300535202, -0.010290599428117275, 0.03064233995974064, 0.0799402967095375, 0.0144358454272151, 0.11221404373645782, 0.14565998315811157, -0.06914044171571732, -0.16840599477291107, 0.04858533665537834, -0.046309664845466614, 0.012304488569498062, -0.020452721044421196, -0.11569364368915558, -0.05893494933843613, 0.029409708455204964, 0.002675170311704278, -0.06231391057372093, 0.1486266404390335, 0.12063004821538925, -0.008638993836939335, -0.0025896921288222075, -0.03454325348138809, -0.12123286724090576, -0.05302799493074417, -0.048800986260175705, -0.05832917243242264, -0.03097344934940338, -0.062420450150966644, 0.02420012094080448, 0.09245327115058899, 0.0033595049753785133, -0.10782277584075928, 0.007762007415294647, 0.03427477180957794, 0.03840869292616844, -0.10394438356161118, -0.041523706167936325, -0.0077909547835588455, 0.04684191569685936, -0.09164756536483765, -0.06901898980140686, -0.0718676745891571, -0.11062075942754745, -0.03576584532856941, -0.058412112295627594, 0.025499094277620316, -0.03453294560313225, 0.061684709042310715, 0.019856048747897148, 0.038093049079179764, -0.04045303910970688, -0.09307462722063065, -0.021323760971426964, -0.10358617454767227, -0.05807066708803177, 0.03245483338832855, 0.08832783252000809, 0.07896344363689423, 0.05413932353258133, 0.12050198763608932, -0.019280044361948967, 0.0433981753885746, -0.12085606157779694, -0.14547590911388397, -0.07751142978668213, -0.01800711080431938, -0.07298891246318817, 0.016121553257107735, -0.20375390350818634, -0.14599229395389557, -0.11495348066091537, -0.11855520308017731, -0.09635844826698303, -0.030464326962828636, -0.030137483030557632, -0.003579073352739215, 0.13470397889614105, -0.03744986280798912, -0.038226716220378876, -0.10743196308612823, 0.021805379539728165, -0.061383508145809174, -0.08159355074167252, 0.025858432054519653, 0.03401770070195198, 0.11956099420785904, -0.08521091192960739, -0.038132235407829285, 0.08792870491743088, 0.019488975405693054, 0.057295892387628555, -0.033683035522699356, 0.0999608114361763, 0.022091269493103027, 0.030164213851094246, 0.049077410250902176, -0.09397494792938232, 0.03907136619091034, -0.03868842124938965, -0.06919082254171371, -0.02618994005024433, -0.014106272719800472, 0.08625490963459015, 0.15144340693950653, 0.05418812111020088, -0.12631475925445557, -0.09514932334423065, 0.07570035755634308, -0.05852780118584633, 0.00699653523042798, -0.024234699085354805, -0.010281783528625965, -0.022795982658863068, 0.05496455729007721, -0.0661042109131813, -0.04020357504487038, -0.0296622384339571, -0.16302810609340668, 0.02323915623128414, -0.015008916147053242, -0.03791164234280586, -0.009048795327544212, 0.0015281379455700517, -0.04390260577201843, 0.04706214368343353, 0.21460078656673431, 0.25331857800483704, 0.15716829895973206, 0.11056337505578995, 0.17681483924388885, 0.1492471843957901, 0.18280929327011108, 0.025864988565444946, -0.07879459112882614, 0.0806916356086731, 0.21476376056671143, 0.08230594545602798, 0.0797688290476799, 0.1432851105928421, 0.02686745673418045, 0.010842767544090748, 0.10216261446475983, 0.12605205178260803, 0.0936572402715683, 0.2175741195678711, 0.14408893883228302, 0.017509594559669495, 0.10775889456272125, 0.00873251911252737, 0.04624255746603012, 0.02526889368891716, 0.018361985683441162, 0.0438433513045311, -0.047159843146800995, -0.14833523333072662, 0.1465865522623062, 0.16655220091342926, 0.15252073109149933, 0.15551085770130157, -0.03248445317149162, 0.1531885862350464, 0.09226739406585693, 0.07225211709737778, 0.1971977800130844, 0.20464126765727997, 0.23137477040290833, 0.1015322282910347, 0.21729078888893127, 0.1781701147556305, 0.10793592780828476, 0.16392317414283752, 0.14920902252197266, -0.0034417943097651005, -0.051192037761211395, 0.045323703438043594, 0.014347857795655727, -0.035943664610385895], [0.13469398021697998, -0.126565620303154, -0.0003175427846144885, 0.006484808400273323, 0.013872206211090088, -0.06897912919521332, -0.049396395683288574, 0.010791935957968235, -0.07635547965765, -0.029669003561139107, 0.03947553411126137, -0.04764815792441368, 0.002617408987134695, 0.10355627536773682, 0.13712655007839203, 0.07139819115400314, -0.060146212577819824, 0.03325670585036278, 0.012305056676268578, -0.008624870330095291, -0.0369250625371933, -0.11625753343105316, 0.044621288776397705, 0.005374453496187925, 0.07787026464939117, 0.0843200832605362, 0.05738934129476547, -0.12913307547569275, -0.026706023141741753, 0.04020606726408005, 0.11916963756084442, 0.045812658965587616, 0.005467334762215614, -0.14177919924259186, 0.012972812168300152, -0.08538200706243515, -0.2078094482421875, -0.20019249618053436, -0.12255355715751648, -0.21202577650547028, -0.09183739125728607, -0.02593572996556759, -0.12100870162248611, -0.15102539956569672, -0.10353835672140121, -0.19543354213237762, -0.14935874938964844, -0.24982218444347382, -0.1141212061047554, -0.2346089631319046, -0.13989409804344177, -0.17338815331459045, -0.0859488844871521, 0.008290092460811138, 0.04489057883620262, 0.033845581114292145, -0.1255606859922409, -0.08228576183319092, -0.019596662372350693, 0.10157168656587601, -0.0869584009051323, -0.2617376446723938, -0.10752073675394058, -0.07860764116048813, -0.10735024511814117, -0.13021014630794525, -0.11155073344707489, 0.015902552753686905, 0.16396375000476837, 0.07128521054983139, 0.02405901439487934, 0.030357003211975098, 0.09427925199270248, 0.09621326625347137, 0.04250810667872429, -0.09103426337242126, -0.14062556624412537, -0.01365590188652277, 0.05489225313067436, 0.04935450106859207, 0.06796988099813461, 0.1350545436143875, 0.050978370010852814, 0.0505533441901207, 0.02519410289824009, -0.05552390217781067, -0.05897512286901474, -0.008414015173912048, -0.239665687084198, 0.14086294174194336, -0.05327974259853363, -0.12271622568368912, 0.07033980637788773, 0.0640224739909172, -0.10491906851530075, -0.10685931891202927, -0.12838861346244812, 0.09178455919027328, 0.20070239901542664, 0.33470210433006287, 0.32625049352645874, 0.10614809393882751, -0.06281237304210663, -0.10315517336130142, 0.02891574800014496, -0.010997630655765533, 0.06097804009914398, 0.19159871339797974, 0.06923080235719681, -0.025103874504566193, -0.009463082998991013, -0.03319111466407776, -0.03186209872364998, -0.02063925191760063, -0.11368360370397568, -0.13695795834064484, -0.05791689082980156, -0.00804675742983818, -0.15743321180343628, -0.12696148455142975, -0.12343847751617432, -0.06394761800765991, -0.2061973363161087, -0.08843059837818146, -0.09578832238912582, 0.1175268217921257, 0.06911138445138931, 0.09563753753900528, 0.1641348898410797, 0.2930276393890381, 0.1950896978378296, 0.22126580774784088, 0.09250528365373611, 0.0319465696811676, 0.03433658555150032, 0.003156530437991023, -0.22266170382499695, -0.09311313927173615, 0.02262309193611145, 0.1277240514755249, 0.033246010541915894, -0.04068075120449066, -0.021503722295165062, -0.16704273223876953, -0.14510121941566467, -0.07681656628847122, -0.08960146456956863, -0.12176200747489929, -0.156448096036911, -0.21163779497146606, -0.20640771090984344, -0.11845707148313522, -0.23768338561058044, -0.06916389614343643, -0.08164453506469727, 0.04952616989612579, 0.05656322464346886, 0.11680725961923599, 0.2828811705112457, 0.21957412362098694, 0.07701872289180756, 0.10075699537992477, 0.018070204183459282, -0.25490835309028625, -0.24437031149864197, -0.01652604155242443, 0.05381597578525543, 0.17707765102386475, -0.06507210433483124, 0.058083102107048035, 0.03715897724032402, -0.09073249995708466, -0.1654137372970581, -0.08883337676525116, -0.1857372671365738, -0.18411898612976074, -0.06677108258008957, -0.17420713603496552, -0.07461506873369217, -0.22319252789020538, -0.04132365062832832, -0.04635912552475929, -0.2501339912414551, -0.01654106192290783, 0.0017015356570482254, 0.06213971972465515, 0.19820912182331085, 0.1515500396490097, 0.0411340706050396, 0.06325365602970123, -0.08112461864948273, -0.02550405263900757, -0.21710246801376343, 0.05275740474462509, -0.048840973526239395, 0.10219623893499374, 0.027906522154808044, 0.1858055144548416, 0.14025981724262238, -0.18106506764888763, 0.10858764499425888, -0.029248837381601334, -0.05125361308455467, -0.16027159988880157, -0.09221325069665909, -0.026542706415057182, -0.01325785368680954, 0.02577926591038704, 0.04523675516247749, -0.0848541408777237, -0.10236404836177826, 0.08340489119291306, -0.05088328197598457, -0.10143675655126572, -0.0048355115577578545, 0.10979104787111282, 0.09633725881576538, 0.12716270983219147, 0.0770396739244461, -0.038603320717811584, 0.19240742921829224, 0.2158898562192917, -0.05354848876595497, -0.013384860940277576, 0.24010533094406128, 0.05334657058119774, 0.014347914606332779, 0.001905151759274304, 0.013760983012616634, -0.07989202439785004, -0.06342914700508118, -0.04420005902647972, -0.12040899693965912, 0.025391485542058945, 0.1959366500377655, 0.10727040469646454, 0.10820575058460236, 0.00014885191922076046, 0.0743236243724823, 0.020493116229772568, 0.05074319988489151, -0.06382816284894943, -0.13213342428207397, 0.0027879460249096155, -0.011086754500865936, -0.042248502373695374, 0.07883577048778534, 0.21815897524356842, 0.2007707953453064, 0.08640258759260178, 0.25322169065475464, -0.01720251888036728, -0.12268926948308945, -0.03307388350367546, 0.08366995304822922, 0.12564721703529358, -0.16594187915325165, -0.39977654814720154, -0.10824345797300339, -0.08928250521421432, 0.05195681378245354, 0.0005821284139528871, 0.006794673856347799, 0.013665393926203251, 0.048724085092544556, 0.11432424932718277, -0.02548268623650074, -0.06817077100276947, -0.14277254045009613, -0.31734418869018555, -0.3118448853492737, -0.01826772652566433, 0.13807055354118347, 0.17494288086891174, 0.20029732584953308, 0.3392895460128784, 0.18701115250587463, 0.17188239097595215, 0.12824401259422302, -0.1431976705789566, -0.026574505493044853, -0.048551954329013824, -0.03240847960114479, 0.029576187953352928, -0.16707085072994232, -0.10696298629045486, 0.03717382624745369, 0.04993203654885292, -0.019134800881147385, 0.009857898578047752, -0.06515372544527054, 0.013683241792023182, 0.08139106631278992, 0.0835435688495636, 0.05514673516154289, -0.117845818400383, -0.15894941985607147, -0.3406622111797333, -0.3052160441875458, -0.0883498340845108, -0.018673865124583244, 0.204216867685318, 0.14766795933246613, 0.2689493000507355, 0.0734291672706604, -0.08339518308639526, -0.020870769396424294, -0.07231646031141281, -0.07029889523983002, 0.22232075035572052, 0.10566435754299164, 0.04377178102731705, -0.05531436949968338, -0.038618721067905426, 0.08506128937005997, 0.12073896080255508, 0.0006270129233598709, -0.017029793933033943, 0.008780892938375473, 0.09810677170753479, -0.021411970257759094, -0.08659794181585312, 0.048853516578674316, -0.0446501299738884, -0.26965847611427307, -0.31294411420822144, -0.2116403728723526, 0.010814858600497246, 0.029165858402848244, 0.1489805430173874, 0.18451206386089325, 0.15280930697917938, 0.3012780547142029, 0.19765496253967285, 0.031924035400152206, -0.006320633925497532, 0.05220937728881836, 0.027618691325187683, -0.14563411474227905, -0.08645037561655045, -0.13081589341163635, 0.053209930658340454, 0.1389174461364746, 0.03769993409514427, -0.035635143518447876, 0.05180973559617996, 0.06461057811975479, 0.07445728033781052, 0.0062441835179924965, -0.18204401433467865, -0.07794317603111267, -0.16868947446346283, -0.0704515129327774, -0.028886517509818077, -0.005830465815961361, 0.030401404947042465, 0.18863226473331451, 0.21496832370758057, 0.15393158793449402, 0.17643728852272034, 0.26067686080932617, -0.05403941497206688, 0.016799692064523697, -0.06095721572637558, -0.05128015577793121, 0.1299504041671753, -0.17434574663639069, -0.04527910426259041, -0.09101618826389313, -0.09534268826246262, -0.03544778376817703, -0.05785178020596504, 0.02851809933781624, 0.08410122990608215, 0.06883519887924194, 0.05171751603484154, 0.00568428123369813, -0.15746167302131653, -0.08069613575935364, -0.009932253509759903, 0.010386145673692226, -0.03281417116522789, 0.13158778846263885, -0.010723523795604706, 0.17674443125724792, 0.18336349725723267, 0.22744767367839813, 0.0708627924323082, 0.0752505287528038, 0.12456759810447693, 0.25800976157188416, 0.19445878267288208, 0.09284936636686325, -0.02018016017973423, -0.024039210751652718, -0.10098719596862793, -0.10523268580436707, 0.09943785518407822, 0.0585884153842926, -0.03724128380417824, -0.050118450075387955, 0.049708377569913864, 0.10995886474847794, 0.15804241597652435, 0.0316627137362957, 0.00779511546716094, -0.013804066926240921, 0.023369023576378822, 0.023917628452181816, 0.19399501383304596, 0.0693395584821701, 0.1510046422481537, 0.037937313318252563, 0.29033854603767395, 0.1391264647245407, 0.012919033877551556, -0.035839296877384186, 0.1894053816795349, 0.31153684854507446, 0.10131726413965225, -0.06897684931755066, -0.020604033023118973, -0.022874316200613976, 0.15211737155914307, -0.032585509121418, 0.09664741158485413, 0.17989926040172577, 0.11581088602542877, 0.07458246499300003, 0.02883414924144745, 0.042991362512111664, 0.11368174105882645, 0.07637959718704224, 0.05109584331512451, 0.06000137701630592, 0.03638005629181862, 0.1534414291381836, -0.03707713261246681, 0.0407966673374176, 0.10681329667568207, 0.015668852254748344, 0.017000379040837288, 0.3534683883190155, 0.08795329928398132, -0.04377787187695503, -0.05172533914446831, 0.0819682702422142, 0.25520944595336914, -0.02144913747906685, -0.10007753223180771, -0.05971460044384003, 0.19080358743667603, 0.0779588520526886, 0.09330280125141144, 0.14426855742931366, 0.09938994795084, 0.05468554049730301, 0.1767696589231491, 0.1630530208349228, 0.17062754929065704, 0.038029398769140244, 0.03823193535208702, 0.1873299479484558, 0.22097906470298767, 0.049083929508924484, 0.04379871115088463, 0.029371008276939392, 0.0027377463411539793, -0.08875565975904465, 0.028829608112573624, 0.14933456480503082, 0.16455166041851044, -0.13809983432292938, -0.05062497779726982, 0.13527677953243256, 0.17709724605083466, -0.039056286215782166, -0.05700578913092613, 0.05042751878499985, 0.0767446905374527, 0.07237257808446884, 0.11330261826515198, 0.08894629776477814, 0.0977560356259346, 0.12534284591674805, 0.25132912397384644, 0.08520164340734482, -0.0012668551644310355, 0.0021988211665302515, 0.14258727431297302, 0.2513565421104431, 0.21328537166118622, -0.019505556672811508, -0.1016528457403183, -0.19056718051433563, -0.09208627790212631, -0.04258958250284195, -0.021315863355994225, 0.007655957248061895, 0.08782406151294708, -0.046158868819475174, -0.2717309892177582, 0.16410905122756958, 0.23839011788368225, -0.005703259259462357, 0.054987337440252304, 0.025016555562615395, -0.038066159933805466, 0.17874775826931, 0.05968942120671272, 0.180793896317482, 0.19603262841701508, 0.1337904930114746, 0.2158167064189911, 0.03168429061770439, -0.21346122026443481, -0.12693509459495544, 0.06312805414199829, 0.04290591925382614, 0.03512486442923546, -0.04646618291735649, -0.25977662205696106, -0.08489837497472763, -0.12483201920986176, -0.13846728205680847, -0.07908843457698822, 0.0023553925566375256, 0.12047727406024933, 0.06093835458159447, -0.20669296383857727, -0.04209870100021362, 0.15900175273418427, -0.04185236990451813, -0.018103009089827538, -0.1672227382659912, -0.07352428138256073, 0.17857174575328827, 0.0540626160800457, 0.07608114928007126, 0.17219264805316925, 0.22293725609779358, 0.08364608138799667, -0.08923112601041794, -0.2130099982023239, -0.16551563143730164, 0.002167468424886465, 0.17615534365177155, -0.024936383590102196, -0.05728143826127052, -0.15375101566314697, -0.0772661566734314, -0.1954229325056076, -0.25108441710472107, 0.004505549557507038, 0.20223067700862885, 0.06816794723272324, -0.09958015382289886, -0.28312915563583374, -0.13557566702365875, -0.10465192049741745, 0.0673627182841301, 0.024450937286019325, 0.029304711148142815, 0.08954843878746033, 0.06958112865686417, -0.020537711679935455, 0.026266051456332207, 0.1941917985677719, 0.25847235321998596, 0.03763015940785408, -0.09716413170099258, -0.0320209264755249, 0.03257565572857857, 0.021166646853089333, 0.05871489271521568, 0.10639052838087082, -0.27248600125312805, -0.13777302205562592, -0.12810440361499786, -0.12279058992862701, -0.16621966660022736, 0.10123291611671448, 0.08606477826833725, 0.08294776827096939, -0.15541990101337433, -0.28448083996772766, -0.17222030460834503, 0.08220431953668594, 0.014450838789343834, 0.07370129227638245, 0.11852306127548218, 0.19210892915725708, 0.2191772758960724, -0.03320058807730675, 0.11877138167619705, 0.19391459226608276, 0.1787870228290558, 0.02685452811419964, 0.0005928812897764146, 0.13292673230171204, 0.07390368729829788, -0.06022723764181137, -0.12734922766685486, -0.21915945410728455, -0.39646270871162415, -0.1714087873697281, -0.08362341672182083, -0.0743769183754921, -0.12431208044290543, -0.01947936601936817, 0.12348946183919907, 0.05525964871048927, -0.22403575479984283, -0.18596696853637695, 0.09296021610498428, 0.05924724042415619, -0.03396571800112724, -0.0037649613805115223, 0.0863928496837616, 0.08092619478702545, 0.12792818248271942, 0.08278080075979233, 0.16457471251487732, 0.13567624986171722, 0.20028002560138702, 0.02369445189833641, 0.03863810747861862, 0.10022232681512833, -0.032650090754032135, -0.15217922627925873, -0.1923595517873764, -0.12642425298690796, -0.23526667058467865, -0.11508536338806152, 0.05093039199709892, -0.02219671569764614, -0.10040362179279327, -0.10340803116559982, -0.1314207762479782, -0.061623599380254745, -0.07791495323181152, -0.09231924265623093, -0.22775986790657043, -0.0008452652837149799, 0.008282975293695927, 0.002003741916269064, 0.035987891256809235, -0.11689102649688721, 0.05574142187833786, -0.002479775808751583, 0.008576275780797005, 0.14238107204437256, 0.19730302691459656, 0.0680304765701294, 0.0004705130704678595, -0.07560640573501587, -0.10862162709236145, -0.12057171761989594, -0.2836793065071106, -0.20879344642162323, -0.0818699523806572, -0.026700804010033607, -0.0019835534039884806, -0.05756157636642456, -0.2338131219148636, -0.13989360630512238, -0.04693106934428215, -0.07381024956703186, -0.13667432963848114, -0.16766434907913208, -0.104339100420475, -0.04149393364787102, 0.020237663760781288, 0.05456925928592682, 0.06306246668100357, -0.15261217951774597, -0.16205380856990814, -0.1092689037322998, 0.04755094647407532, 0.1951626092195511, 0.027055248618125916, -0.10605460405349731, -0.008579660207033157, 0.06563647836446762, 0.041745539754629135, 0.06129666417837143, -0.10848060995340347, -0.02039526216685772, -0.05337017402052879, -0.008352359756827354, -0.035724617540836334, -0.3910268247127533, -0.2571007311344147, -0.2285841405391693, -0.09050372242927551, -0.2974955439567566, -0.11945486813783646, -0.15493248403072357, 0.08757900446653366, 0.09057101607322693, -0.022608494386076927, 0.08707992732524872, 0.014199254103004932, -0.12477417290210724, -0.28123652935028076, -0.31951212882995605, 0.230208158493042, 0.15112437307834625, 0.22700528800487518, 0.152285635471344, 0.286509245634079, 0.2171163111925125, 0.25074705481529236, 0.017263514921069145, 0.07148197293281555, 0.057167038321495056, -0.06858938932418823, -0.30113473534584045, -0.26210105419158936, -0.2500152885913849, -0.26089397072792053, -0.35943397879600525, -0.25034022331237793, -0.15937893092632294, -0.20291583240032196, -0.037703145295381546, -0.1825779378414154, 0.05886298790574074, 0.015413080342113972, -0.03098093904554844, -0.08953167498111725, -0.01638645865023136, 0.06528661400079727, -0.05325904116034508, -0.13395096361637115, -0.11402163654565811, 0.0573703907430172, 0.12498915940523148, -0.045865196734666824, -0.13061785697937012, -0.09851129353046417, -0.05340801551938057, 0.019806502386927605, -0.08564797788858414, -0.16163985431194305, -0.38411247730255127, -0.3062534034252167, -0.10525538772344589, 0.006412785965949297, 0.093578040599823, -0.09913617372512817, 0.09245170652866364, -0.029596397653222084, -0.06100719794631004, -0.016766797751188278, -0.06501208245754242, 0.04159732162952423, 0.07057654112577438, 0.001451325137168169, -0.02084134891629219, -0.07934623956680298, -0.18022291362285614, -0.013247836381196976, -0.033251307904720306, 0.16956990957260132, 0.0954926609992981, 0.05726946145296097, 0.0052498201839625835, 0.023450776934623718, -0.03295974060893059, 0.05338416248559952, -0.04132385924458504, 0.13912446796894073, 0.006597754545509815, 0.045562729239463806, -0.017483148723840714, 0.10372155904769897, 0.12439405173063278, -0.09979494661092758, -0.06307133287191391, 0.04862036928534508, 0.00225972943007946, -0.05671030655503273, -0.020287148654460907], [0.04670007899403572, 0.005689375568181276, 0.07550674676895142, -0.010585281066596508, 0.0060384939424693584, -0.014054710045456886, 0.02739611640572548, -0.0954957976937294, 0.048900678753852844, -0.02072000317275524, -0.10926025360822678, -0.006883820053189993, -0.07473190128803253, 0.11726085841655731, 0.0873732641339302, 0.09588713943958282, -0.047929391264915466, -0.02432490512728691, 0.03196807950735092, 0.008089435286819935, -0.029382936656475067, 0.026436805725097656, 0.017138002440333366, 0.04041041433811188, 0.018600553274154663, -0.007698367349803448, 0.005316935013979673, -0.03937205672264099, 0.02953489124774933, -0.07679014652967453, -0.0029220047872513533, -0.05352630466222763, -0.04375911504030228, 0.04139821231365204, 0.04553350806236267, 0.1623024195432663, 0.04164017364382744, 0.06913791596889496, 0.002512081293389201, -0.05067801848053932, -0.06963466107845306, -0.04307299479842186, -0.12407144904136658, -0.02169705182313919, 0.09772486984729767, 0.0340922474861145, -0.028643202036619186, 0.08938080072402954, 0.12292055785655975, 0.018381193280220032, 0.05218552425503731, 0.09335294365882874, -0.08882591873407364, -0.02189452387392521, -0.08303692191839218, -0.1255272775888443, -0.05787882208824158, 0.07847780734300613, 0.0036068810150027275, -0.0876859650015831, -0.06516498327255249, 0.08267957717180252, 0.07923943549394608, 0.21082726120948792, 0.21804247796535492, 0.15456640720367432, 0.05022649094462395, 0.10862898081541061, 0.1868535578250885, -0.06542601436376572, -0.04478626698255539, 0.04590502381324768, 0.16498033702373505, 0.12561365962028503, 0.011253481730818748, -0.07524426281452179, 1.5111859283933882e-05, -0.08727770298719406, 0.12333345413208008, 0.15188878774642944, 0.1439262330532074, 0.09325186908245087, -0.007124016527086496, 0.1232534721493721, 0.08884114027023315, 0.07352782785892487, 0.015295463614165783, -0.017978720366954803, -0.12312383949756622, -0.22620393335819244, 0.05964360386133194, 0.2767736613750458, 0.29299306869506836, -0.0002737123577389866, 0.024945341050624847, 0.173847496509552, 0.0849885568022728, 0.03090851753950119, 0.0049278875812888145, 0.00045334442984312773, 0.12533992528915405, -0.06682292371988297, -0.09062996506690979, -0.1101059690117836, -0.011342702433466911, 0.07562369853258133, 0.028498809784650803, -0.07262790203094482, 0.08472247421741486, 0.14688803255558014, 0.013631599023938179, 0.04502752050757408, -0.08103947341442108, 0.007444141898304224, 0.015087359584867954, -0.02117149531841278, -0.051241062581539154, 0.018081525340676308, 0.11596866697072983, 0.021972820162773132, 0.03793507441878319, -0.2772916257381439, -0.28387197852134705, -0.23615579307079315, -0.3676343560218811, -0.29031381011009216, -0.19669495522975922, -0.24992451071739197, -0.11560123413801193, -0.20298919081687927, -0.07667242735624313, -0.07975152134895325, -0.27545177936553955, 0.0327887199819088, -0.03296380490064621, -0.2118559032678604, -0.24157673120498657, 0.03544612228870392, -0.08903705328702927, 0.01723759062588215, 0.04593924805521965, 0.014097929932177067, -0.08140570670366287, -0.05187293514609337, -0.10861769318580627, -0.045847076922655106, 0.0169125497341156, 0.053928911685943604, -0.3608981966972351, -0.3467995822429657, -0.3969461917877197, -0.514784574508667, -0.3092540502548218, -0.18964242935180664, -0.20820076763629913, -0.12048151344060898, -0.05263334885239601, -0.16347377002239227, -0.13354294002056122, -0.017129765823483467, -0.1518116295337677, -0.05561639368534088, -0.08114467561244965, 0.1228959858417511, -0.0343366339802742, -0.11737266927957535, 0.07863418012857437, -0.07047580182552338, 0.03558644279837608, 0.08072339743375778, 0.06483542174100876, -0.02141106128692627, -0.19721730053424835, -0.2453034222126007, -0.16230088472366333, -0.19496186077594757, -0.11584470421075821, -0.05280875787138939, -0.026860205456614494, -0.1810217648744583, -0.07504963129758835, -0.10235227644443512, -0.07238475978374481, 0.08254200965166092, 0.05227779224514961, -0.023676881566643715, -0.08997567743062973, 0.01183158066123724, -0.0685703456401825, 0.03672584891319275, -0.1038956344127655, -0.14818064868450165, -0.343512624502182, -0.17332400381565094, -0.0476834662258625, -0.1050192192196846, -0.00730497483164072, 0.17421232163906097, 0.04047064483165741, -0.03321516886353493, -0.19950748980045319, -0.17461062967777252, 0.06376799941062927, -0.03213662654161453, 0.0029672475066035986, -0.03966708853840828, 0.10211751610040665, 0.11429550498723984, 0.1935851126909256, 0.11114321649074554, 0.06729517132043839, 0.07974721491336823, 0.08807658404111862, 0.09307707101106644, 0.08830004930496216, -0.0918588861823082, 0.03352479636669159, -0.03431906923651695, -0.10803829878568649, -0.07639569789171219, -0.1288098692893982, -0.3682304918766022, -0.16295772790908813, -0.10362637788057327, -0.06733334064483643, 0.01842246763408184, 0.07936682552099228, -0.10930019617080688, -0.05385196581482887, 0.02392890490591526, -0.05032169073820114, 0.04455952346324921, 0.18588672578334808, 0.10505816340446472, 0.2694731652736664, 0.36805275082588196, 0.29899275302886963, 0.2655891180038452, 0.2215263992547989, 0.07538672536611557, 0.003479108214378357, 0.057446084916591644, -0.006917768158018589, 0.09117574989795685, -0.01661388762295246, 0.05152614787220955, 0.20800583064556122, 0.07136008143424988, -0.1579175889492035, -0.32176199555397034, -0.12881503999233246, 0.07346165925264359, -0.02841515839099884, 0.04166320338845253, 0.21007148921489716, 0.05846228823065758, 0.10262790322303772, 0.18076632916927338, 0.1914353221654892, 0.1389065384864807, 0.24341502785682678, 0.4390393793582916, 0.3194311261177063, 0.4141973555088043, 0.38842999935150146, 0.22484509646892548, 0.1490185260772705, 0.03129402548074722, -0.09325763583183289, 0.02429167926311493, -0.022351836785674095, 0.022460343316197395, 0.1388779729604721, 0.04492879658937454, 0.3875301480293274, 0.1512320339679718, -0.15366452932357788, -0.25567951798439026, 0.08455825597047806, 0.20924395322799683, 0.05882752686738968, 0.05580323189496994, -0.019107788801193237, 0.1319332718849182, 0.11013202369213104, 0.13845916092395782, 0.09540822356939316, 0.24487121403217316, 0.32048261165618896, 0.40763968229293823, 0.27088791131973267, 0.1495174616575241, 0.06483742594718933, -0.037439797073602676, -0.21131958067417145, -0.08314652740955353, -0.04046716168522835, 0.02504531666636467, -0.11637970060110092, 0.07074744254350662, 0.0016468818066641688, 0.06392059475183487, 0.16525821387767792, 0.2950591444969177, -0.05849066376686096, 0.18316245079040527, 0.014327095821499825, 0.035297539085149765, 0.0506383441388607, -0.13137920200824738, 0.014631493017077446, 0.034175001084804535, 0.09058023989200592, 0.12188710272312164, 0.1471502184867859, 0.08962259441614151, 0.08573105931282043, 0.08268770575523376, -0.2219182699918747, -0.24898014962673187, -0.39948585629463196, -0.4745038151741028, -0.3425047695636749, -0.17400957643985748, -0.05333329737186432, 0.0006334054633043706, 0.03496069088578224, 0.04818549379706383, 0.044199489057064056, -0.007803505286574364, 0.07419634610414505, 0.06872983276844025, 0.06422073394060135, 0.17167028784751892, -0.190668523311615, -0.03167325630784035, 0.0014614525716751814, 0.01880805753171444, -0.08823171257972717, -0.20748189091682434, 0.03534569963812828, -0.13840334117412567, -0.12572701275348663, -0.20089660584926605, -0.24654029309749603, -0.39593732357025146, -0.35849127173423767, -0.5367035865783691, -0.4855344891548157, -0.40623459219932556, -0.028411300852894783, -0.08304478973150253, 0.020198626443743706, 0.03670511022210121, 0.049002740532159805, 0.025936905294656754, 0.08914324641227722, 0.05754402279853821, 0.007993471808731556, -0.1637011468410492, -0.10980743914842606, 0.10883607715368271, -0.01148276124149561, 0.01764044538140297, -0.12941186130046844, -0.010040306486189365, 0.046267155557870865, -0.16483822464942932, -0.25371378660202026, -0.28883808851242065, -0.3323260545730591, -0.24517421424388885, -0.35113805532455444, -0.43328893184661865, -0.4287945330142975, -0.3514854907989502, -0.36405929923057556, -0.00806333776563406, 0.09096121042966843, 0.0224919356405735, 0.11690409481525421, 0.14887607097625732, -0.015389390289783478, -0.017430612817406654, 0.12710103392601013, -0.04260672628879547, -0.08753177523612976, -0.335191011428833, 0.028208663687109947, -0.056056004017591476, -0.06246472895145416, 0.04060586914420128, -0.05929018184542656, 0.06663656234741211, 0.1092202290892601, -0.02964794635772705, -0.3221855163574219, -0.3898251950740814, -0.23211924731731415, -0.2259940803050995, -0.17778420448303223, -0.12582887709140778, 0.019009046256542206, -0.024585973471403122, -0.005905013531446457, 0.21400150656700134, -0.015025191940367222, 0.13393040001392365, 0.03357747942209244, 0.009237244725227356, 0.038234904408454895, 0.11780928820371628, -0.0001485278335167095, -0.03301848843693733, -0.19151587784290314, -0.21941111981868744, -0.06299517303705215, -0.08038978278636932, 0.1355232298374176, 0.02849194034934044, -0.02520648017525673, 0.14147184789180756, -0.004930415190756321, -0.08569865673780441, -0.12282439321279526, -0.16523370146751404, -0.06198795512318611, -0.10151113569736481, -0.04740183427929878, -0.12126612663269043, 0.0007744209724478424, 0.21626430749893188, 0.03482188656926155, 0.17695078253746033, 0.12251519411802292, 0.11416105180978775, -0.08915608376264572, 0.026336275041103363, 0.09338776022195816, 0.0737452283501625, 0.1051100417971611, 0.07764884829521179, -0.039962057024240494, -0.07936618477106094, -0.054002851247787476, -0.22903242707252502, 0.026517653837800026, 0.05345674231648445, 0.051936306059360504, 0.15321673452854156, 0.15526704490184784, -0.044095803052186966, 0.004990565124899149, -0.022140566259622574, 0.03947213664650917, 0.05218375846743584, -0.015917528420686722, 0.025349462404847145, 0.06282786279916763, 0.10646983236074448, 0.1057295948266983, 0.08592793345451355, 0.019821258261799812, 0.035733141005039215, 0.06494106352329254, 0.1390267163515091, 0.17191272974014282, 0.18748019635677338, 0.01248133834451437, -0.0035923246759921312, -0.05290206894278526, -0.09578748792409897, -0.07140178233385086, -0.11691494286060333, 0.07774659246206284, -0.2001556158065796, 0.005562400911003351, 0.1004846841096878, 0.061491597443819046, 0.1602027416229248, 0.13941866159439087, -0.006812949199229479, 0.028159163892269135, 0.2234424650669098, 0.08530404418706894, 0.09150782972574234, 0.04469257593154907, 0.14360076189041138, 0.09458852559328079, 0.1345110833644867, 0.05442237854003906, 0.05378831550478935, -0.022097446024417877, 0.055433228611946106, 0.12938298285007477, 0.14976225793361664, -0.01711500622332096, -0.10788530856370926, -0.20224803686141968, -0.1728762984275818, -0.25276264548301697, -0.0920332595705986, -0.06995130330324173, -0.1133025512099266, -0.013039146549999714, -0.017824282869696617, 0.10801241546869278, 0.13363929092884064, 0.2139119952917099, -0.01058496069163084, -0.03159431740641594, 0.1040525808930397, 0.022018909454345703, -0.03793342784047127, 0.014224899932742119, 0.1210310161113739, 0.17235177755355835, -0.0019831929821521044, 0.052069906145334244, -0.054339952766895294, -0.00705899391323328, 0.16446822881698608, 0.17530079185962677, 0.16785167157649994, -0.15388093888759613, -0.158670112490654, -0.15388475358486176, -0.18277110159397125, -0.30844971537590027, -0.13696275651454926, 0.0762326642870903, -0.19000807404518127, -0.0168288666754961, -0.04748727008700371, 0.13152045011520386, -0.0668167844414711, 0.11091572046279907, 0.030954452231526375, -0.08191564679145813, -0.10999888181686401, 0.10156378895044327, 0.014162587933242321, -0.03686271235346794, -0.045188650488853455, -0.05371158570051193, -0.012122832238674164, -0.044794753193855286, 0.049319010227918625, 0.05264480039477348, -0.04648261517286301, 0.11657766997814178, 0.13597525656223297, -0.09875228255987167, -0.06876007467508316, -0.12137988209724426, -0.19332852959632874, -0.3816395699977875, -0.20403416454792023, 0.04567529633641243, -0.17470243573188782, 0.01534313429147005, -0.15130716562271118, -0.01862565241754055, 0.15704384446144104, 0.022834720090031624, 0.04894108325242996, -0.07479992508888245, 0.028137028217315674, 0.0012075896374881268, -0.12346107512712479, -0.13987202942371368, -0.1173962876200676, -0.15177272260189056, -0.052327174693346024, 0.004970660898834467, -0.004823686555027962, -0.024596363306045532, -0.14986269176006317, -0.10404621809720993, -0.030839044600725174, -0.019330142065882683, -0.13651646673679352, -0.08552411198616028, -0.2096114605665207, -0.12187562137842178, -0.08593524247407913, 0.030752521008253098, 0.04468405619263649, 0.04463067650794983, -0.11207983642816544, -0.07404117286205292, 0.050509773194789886, 0.04532081261277199, -0.08062651008367538, -0.05595661327242851, 0.02662522718310356, -0.032006848603487015, -0.10469037294387817, -0.11893025785684586, -0.04632564261555672, -0.013784999027848244, -0.06066280975937843, 0.04465050622820854, -0.033927686512470245, -0.07102340459823608, -0.06979168951511383, -0.09643462300300598, -0.009431849233806133, -0.03705170378088951, -0.017207589000463486, -0.07820592075586319, -0.19878023862838745, -0.07784759998321533, -0.16500835120677948, -0.2056024819612503, 0.038726869970560074, -0.026102542877197266, 0.05697784945368767, 0.11054854094982147, -0.2154599279165268, 0.05547232925891876, 0.06447190791368484, -0.06315586715936661, 0.003783503780141473, 0.031594168394804, -0.11366841942071915, -0.04129736125469208, 0.0012033472303301096, -0.05365423485636711, -0.07499177008867264, -0.08057671040296555, -0.04101872444152832, 0.10774271190166473, 0.0735761895775795, 0.06657712161540985, -0.019216487184166908, -0.040172070264816284, 0.03062945231795311, 0.06547628343105316, 0.010864595882594585, -0.030436554923653603, -0.1543896496295929, -0.21671028435230255, 0.0682806447148323, 0.07935366779565811, -0.07505495846271515, 0.24434904754161835, -0.03218860924243927, -0.054185882210731506, 0.07994217425584793, 0.09624585509300232, -0.0014886901481077075, -0.17520132660865784, -0.1122826561331749, -0.028706420212984085, -0.03998163715004921, -0.1285216361284256, -0.06821081042289734, -0.0010837398003786802, 0.06143336370587349, -0.04637610539793968, 0.0399291105568409, 0.12140271067619324, 0.08421572297811508, -0.02587324194610119, 0.01744776964187622, 0.031079065054655075, 0.042157646268606186, 0.006898189429193735, -0.10295543074607849, -0.15125733613967896, -0.012625335715711117, 0.014324911870062351, -0.06287338584661484, 0.07135095447301865, 0.1693304479122162, 0.34253132343292236, 0.16489599645137787, 0.00812054704874754, -0.11220838129520416, -0.08537774533033371, -0.09777099639177322, -0.05516944080591202, 0.02519255131483078, -0.18552282452583313, -0.10867578536272049, -0.028195040300488472, 0.08445039391517639, 0.08323602378368378, 0.05627197027206421, -0.08888314664363861, 0.00992120336741209, -0.015087343752384186, 0.0539814829826355, -0.016202250495553017, 0.002888326533138752, -0.04391663521528244, -0.047359321266412735, 0.06571043282747269, -0.017999596893787384, 0.018346291035413742, -0.002483089454472065, -0.04951592534780502, -0.08064550161361694, 0.12342330813407898, 0.18871887028217316, 0.04366778954863548, 0.060721512883901596, 0.03189357370138168, 0.09160058200359344, 0.0356605164706707, -0.07158832252025604, 0.12999819219112396, -0.012480667792260647, 0.001424483023583889, 0.13424371182918549, 0.149561807513237, 0.05255633592605591, 0.11369264870882034, 0.216622993350029, -0.060315195471048355, -0.06417953222990036, -0.18166935443878174, -0.09836743772029877, -0.06569525599479675, -0.021590881049633026, -0.1079636812210083, -0.05432341620326042, 0.0449678972363472, -0.05428716912865639, 0.029276197776198387, -0.03980548679828644, -0.206813782453537, -0.23400293290615082, -0.158829003572464, 0.04708416014909744, -0.01928650587797165, 0.08108760416507721, 0.15620365738868713, 0.11608387529850006, -0.053228192031383514, -0.020806657150387764, 0.12875814735889435, 0.06138385459780693, 0.1182766705751419, 0.14550282061100006, 0.07432243973016739, 0.12545108795166016, 0.10743002593517303, 0.018685173243284225, 0.036462318152189255, 0.07026698440313339, -0.04570552334189415, 0.03241700306534767, 0.13316988945007324, 0.012803452089428902, 0.01366322673857212, 0.020830830559134483, -0.06059040129184723, -0.03312806412577629, 0.07937344908714294, 0.11256817728281021, -0.021807687357068062, -0.0012757069198414683, 0.010669619776308537, 0.06500697135925293, 0.22088198363780975, -0.03826051577925682, 0.011939343996345997, 0.18963231146335602, 0.11775711178779602, 0.1398613452911377, 0.02949349395930767, 0.21184946596622467, 0.08595331013202667, -0.07036881893873215, 0.03972278907895088, 0.05785372853279114, -0.00950134452432394, 0.16210541129112244, 0.024683615192770958, -0.030753446742892265, 0.0829484835267067, -0.05481286346912384], [-0.01668676547706127, 0.05205783620476723, 0.06568355858325958, 0.06440810114145279, 0.08307074010372162, -0.012407302856445312, -0.021236034110188484, 0.007013076916337013, 0.026072431355714798, 0.14201734960079193, 0.006708525121212006, 0.01599770039319992, -0.020420903339982033, 0.08195619285106659, -0.0847988948225975, -0.06716252118349075, -0.004220606759190559, -0.05261514335870743, 0.06324063241481781, -0.061112456023693085, 0.008329961448907852, -0.07145072519779205, -0.014308840036392212, -0.14336943626403809, 0.01506221666932106, -0.015093560330569744, 0.027961531654000282, -0.014369075186550617, 0.05774115398526192, -0.014369233511388302, -0.00390873895958066, 0.04498697817325592, -0.009747142903506756, 0.07781750708818436, 0.06527861952781677, 0.04745645076036453, -0.022113481536507607, 0.09446150064468384, 0.05760454759001732, 0.03782157972455025, -0.006871037185192108, 0.03246268257498741, 0.09424882382154465, 0.018198970705270767, -0.07512079924345016, -0.015451311133801937, 0.07696209847927094, 0.1613570898771286, 0.09779273718595505, 0.10472752153873444, 0.08429403603076935, 0.03503572568297386, 0.007186573464423418, -0.062929168343544, -0.10698351263999939, 0.08835044503211975, -0.05342186987400055, -0.07342462986707687, 0.047573816031217575, -0.11750447750091553, 0.043956536799669266, 0.09158303588628769, 0.026530198752880096, 0.051628097891807556, 0.08826163411140442, -0.00921901036053896, 0.07655788958072662, 0.12430229038000107, 0.22248545289039612, 0.07947568595409393, 0.1922864019870758, 0.08408205211162567, -0.006326786242425442, -0.01294550858438015, -0.06393464654684067, 0.019972100853919983, -0.02683272212743759, 0.1210382953286171, 0.10417274385690689, 0.0762556940317154, 0.01564505137503147, -0.09475153684616089, -0.021955600008368492, -0.016072068363428116, 0.034320417791604996, -0.010587266646325588, 0.11113110184669495, -0.14522835612297058, 0.12768299877643585, 0.18405087292194366, 0.04709472134709358, 0.07363301515579224, -0.09773775190114975, -0.10571710020303726, -0.13773874938488007, -0.0978030264377594, -0.12647366523742676, -0.008693665266036987, 0.12509797513484955, -0.01049676351249218, -0.13408616185188293, -0.023510737344622612, 0.019312389194965363, 0.1313108503818512, 0.029202835634350777, 0.006427379325032234, 0.10269409418106079, -0.027225032448768616, -0.07474636286497116, -0.07900228351354599, 0.04481619969010353, 0.0038384324871003628, -0.011101295240223408, -0.09432699531316757, -0.05929429829120636, 0.04199424386024475, 0.0027034853119403124, 0.12923593819141388, -0.014399937354028225, -0.07110454887151718, -0.05375394597649574, -0.004636628553271294, -0.04223323240876198, -0.08940687775611877, -0.12104741483926773, -0.12191194295883179, -0.04925749823451042, -0.11884578317403793, -0.09623581916093826, -0.012279930524528027, -0.0484653040766716, 0.0002128009800799191, 0.13336579501628876, 0.13879701495170593, -0.0017480200622230768, -0.08883459866046906, -0.12315178662538528, 0.03869812563061714, 0.11465789377689362, -0.038671351969242096, 0.042688772082328796, -0.0057799178175628185, 0.12234654277563095, -0.016956044360995293, 0.16311760246753693, -0.05418703332543373, -0.05861532315611839, -0.14926299452781677, -0.08310776948928833, 0.06047810986638069, -0.06733862310647964, -0.06645222008228302, -0.23044449090957642, 0.09747569262981415, 0.1162412241101265, 0.010945545509457588, -0.07213929295539856, 0.02990175224840641, 0.1175079271197319, 0.12176429480314255, -0.03118421882390976, 0.0025719364639371634, 0.0034824556205421686, -0.0024419890251010656, 0.03691461309790611, 0.013882976025342941, -0.037230588495731354, -0.05243386700749397, -0.029577473178505898, -0.019100284203886986, -0.05160240828990936, -0.05708523839712143, 0.11161568760871887, -0.1089053526520729, -0.13407635688781738, -0.10447333008050919, -0.0971875861287117, -0.16273748874664307, -0.10465926676988602, -0.04402201995253563, -0.02342034876346588, 0.03053116984665394, -0.051958117634058, 0.014101818203926086, 0.07751379907131195, 0.037999290972948074, 0.03613150864839554, 0.03343686833977699, 0.024185629561543465, -0.0176243856549263, -0.03354741632938385, -0.15446984767913818, 0.015333485789597034, 0.039099182933568954, 0.06440683454275131, -0.0859244093298912, -0.019325319677591324, -0.05933556333184242, -0.11591219156980515, -0.1263735145330429, 0.06998955458402634, -0.059840258210897446, 0.10479728132486343, -0.012724921107292175, -0.148790180683136, -0.10642670840024948, -0.1125219538807869, -0.09356756508350372, -0.09291639924049377, -0.11690565943717957, 0.05269305780529976, 0.03132445737719536, 0.030703585594892502, 0.1468503624200821, 0.11820410192012787, -0.07615870982408524, 0.11133646219968796, -0.005839512217789888, -0.017210643738508224, -0.22025848925113678, 0.04626603424549103, -0.08757531642913818, -0.18702976405620575, -0.007344376761466265, -0.18801668286323547, -0.043427493423223495, 0.10778985917568207, -0.15580856800079346, 0.01974213682115078, -0.021723955869674683, 0.02297157794237137, -0.2392822653055191, -0.0446011982858181, -0.15675091743469238, -0.17881238460540771, -0.17590653896331787, 0.00782343465834856, 0.07124897837638855, 0.018297705799341202, -0.09556175768375397, -0.0715644359588623, -0.07342251390218735, 0.04134770855307579, -0.07476871460676193, -0.12518222630023956, 0.03744453191757202, -0.023223401978611946, -0.13857445120811462, -0.09379293024539948, -0.04390401765704155, -0.03872375562787056, 0.006627962924540043, 0.02496763877570629, 0.029267361387610435, -0.06205635145306587, -0.10265753418207169, -0.01631476730108261, -0.004789851140230894, -0.09732022136449814, -0.014895563945174217, -0.19648432731628418, -0.2034345418214798, -0.15317681431770325, -0.0864032432436943, -0.09763940423727036, 0.05959933251142502, -0.00820146780461073, -0.10979021340608597, -0.05369427427649498, -0.17208848893642426, -0.11767922341823578, -0.12068456411361694, -0.11529892683029175, -0.18673095107078552, -0.3152099549770355, -0.20721103250980377, -0.14290259778499603, -0.06354837864637375, 0.1241520568728447, 0.08963161706924438, -0.013793036341667175, 0.0009168675169348717, 0.019914861768484116, 0.051870256662368774, -0.04983256757259369, -0.11131918430328369, -0.0918382778763771, -0.12081385403871536, -0.2223511040210724, -0.10844717174768448, -0.10459917038679123, -0.07429705560207367, 0.01492498628795147, 0.08057568967342377, -0.14790502190589905, -0.22512470185756683, -0.1298566460609436, -0.06262876838445663, -0.1327926069498062, -0.06979010999202728, -0.09958092123270035, -0.16264013946056366, -0.26263463497161865, -0.24103446304798126, -0.06545271724462509, 0.016012607142329216, -0.04061836749315262, -0.0418534129858017, -0.058250874280929565, -0.14880627393722534, -0.13273122906684875, -0.08938692510128021, -0.09474298357963562, -0.03210185840725899, 0.047067753970623016, -0.1611914485692978, -0.03139963373541832, -0.06221713125705719, 0.00881920475512743, -0.05989560857415199, -0.024059906601905823, -0.0806199386715889, -0.22359715402126312, -0.16248293220996857, -0.0038038683123886585, -0.10079126060009003, -0.07128628343343735, 0.0753127709031105, -0.10512454807758331, -0.12937553226947784, -0.15817444026470184, -0.14428240060806274, -0.28764235973358154, -0.20981022715568542, -0.20506976544857025, -0.008985930122435093, 0.04133978858590126, -0.004602005705237389, -0.0324992798268795, -0.15226076543331146, -0.14121733605861664, -0.015617595985531807, -0.04300161078572273, -0.15596707165241241, -0.01691235415637493, 0.05863209441304207, -0.15100432932376862, 0.020319579169154167, 0.02336193434894085, -0.015400390140712261, -0.03654995560646057, -0.22782418131828308, 0.0011390479048714042, -0.02237892709672451, 0.004485212732106447, -0.009843636304140091, 0.032249920070171356, 0.025175021961331367, -0.10752987861633301, -0.010841364040970802, -0.20691969990730286, -0.18227654695510864, -0.18867000937461853, -0.16329458355903625, -0.026516608893871307, 0.07561405748128891, 0.042686451226472855, -0.15187793970108032, -0.04756231606006622, -0.08539652824401855, -0.0653364509344101, -0.04691627621650696, -0.002079419791698456, 0.09784872829914093, 0.015600841492414474, 0.015151123516261578, 0.01684366911649704, 0.057745687663555145, -0.060763534158468246, -0.056251030415296555, 0.06920648366212845, 0.1092284619808197, 0.14878879487514496, 0.027160853147506714, 0.02173813059926033, 0.0304787065833807, -0.06050216406583786, -0.040550388395786285, -0.09770805388689041, -0.23851077258586884, -0.2064068466424942, 0.02363407053053379, 0.0931742861866951, -0.06600899249315262, -0.2029370814561844, -0.031242409721016884, 0.029404377564787865, -0.06200636923313141, -0.02315346896648407, 0.10084763914346695, -0.058281995356082916, 0.06892973184585571, 0.03323212265968323, 0.04854101315140724, -0.029013944789767265, -0.03244008496403694, -0.050282835960388184, -0.03083506040275097, 0.10885873436927795, 0.15005338191986084, 0.10489191859960556, 0.10452723503112793, 0.19301703572273254, 0.20923936367034912, 0.11336584389209747, 0.05020197480916977, 0.006604599300771952, -0.01054470892995596, -0.1417304277420044, -0.05273488909006119, 0.09495078027248383, 0.013926083222031593, -0.05498672276735306, 0.11876700818538666, 0.11850850284099579, 0.06265201419591904, 0.09846792370080948, 0.18994367122650146, 0.1071886420249939, 0.12079212814569473, 0.15269148349761963, 0.071626678109169, 0.034494634717702866, -0.012831642292439938, -0.05879434198141098, -0.008579363115131855, 0.1706113964319229, 0.12955938279628754, 0.11841855198144913, 0.12210824340581894, 0.09080002456903458, 0.09646651893854141, 0.09664233028888702, 0.008942002430558205, -0.052497439086437225, 0.22366298735141754, 0.08706305176019669, -0.004794329404830933, 0.014248899184167385, -0.10381066799163818, -0.050731632858514786, 0.08693798631429672, 0.11054623126983643, 0.14399413764476776, 0.1753125637769699, 0.17409469187259674, 0.07368304580450058, 0.12230983376502991, 0.1784435361623764, 0.2220248281955719, 0.19922520220279694, -0.0998900905251503, 0.055513717234134674, 0.21089626848697662, 0.22546091675758362, 0.23098693788051605, 0.17423701286315918, 0.1326141208410263, 0.1168660819530487, 0.06351733207702637, 0.032781895250082016, -0.010902343317866325, 0.004457979463040829, 0.14567048847675323, -0.11418987065553665, -0.08038780093193054, 0.09432175010442734, -0.0436895377933979, -0.02688392624258995, 0.044155653566122055, -0.11107159405946732, 0.15237115323543549, 0.2182249277830124, 0.18064700067043304, 0.1981942355632782, 0.05699674040079117, 0.13242238759994507, 0.12421786040067673, -0.07324937731027603, -0.01753319799900055, -0.023441189900040627, 0.2148938626050949, 0.16304488480091095, 0.11021297425031662, 0.18002143502235413, 0.1096208319067955, 0.03198229894042015, 0.1591179072856903, 0.07763064652681351, 0.08847159892320633, -0.08396982401609421, 0.22060036659240723, -0.019720667973160744, -0.12324554473161697, -0.04875723645091057, 0.03378399834036827, 0.015932895243167877, 0.08748353272676468, 0.10374214500188828, 0.12589353322982788, 0.18365877866744995, 0.17898795008659363, 0.18961873650550842, 0.11756782978773117, 0.057682715356349945, 0.04767996817827225, 0.12913742661476135, 0.06458226591348648, 0.04889955371618271, 0.168680340051651, 0.12453942000865936, 0.08669620752334595, 0.10963625460863113, 0.12800641357898712, 0.06844692677259445, -0.08879593014717102, -0.08668570965528488, -0.03619524464011192, -0.059705257415771484, 0.01844439096748829, 0.20604991912841797, 0.08473134785890579, 0.01886485330760479, -0.21598342061042786, 0.13629506528377533, 0.18957483768463135, 0.12370192259550095, 0.13127590715885162, 0.15339046716690063, -0.0008238512091338634, -0.00580854807049036, 0.10896536707878113, 0.008242093957960606, 0.020144933834671974, -0.02313423343002796, -0.08756936341524124, 0.038393620401620865, 0.0718613937497139, 0.12407359480857849, 0.051861684769392014, 0.09201614558696747, 0.07205148041248322, -0.021319963037967682, 0.011315452866256237, -0.05651102215051651, -0.015234732069075108, -0.05981196463108063, 0.018773596733808517, 0.05398702621459961, 0.10108163952827454, 0.02883743681013584, -0.03610120341181755, 0.2476215958595276, 0.1693761795759201, 0.13764266669750214, 0.10250315070152283, 0.09339167177677155, 0.08702686429023743, -0.06281905621290207, 0.05991875007748604, -0.03112735040485859, -0.08432478457689285, -0.04906100407242775, -0.10049799829721451, 0.02030930481851101, 0.030112462118268013, 0.04819875583052635, 0.02223513275384903, 0.04412125051021576, 0.046766310930252075, 0.02119334414601326, 0.002873130375519395, 0.030773567035794258, 0.10506722331047058, 0.060010962188243866, 0.30680960416793823, 0.03498900681734085, 0.08092781156301498, 0.0007429357501678169, 0.10500583052635193, 0.13334502279758453, 0.07335518300533295, 0.04781540110707283, 0.048080842941999435, -0.11080761253833771, 0.010752716101706028, 0.004878738895058632, -0.06799844652414322, -0.1724078208208084, -0.16422496736049652, -0.0032838403712958097, 0.11087419092655182, -0.06083493307232857, -0.06822630017995834, 0.1214984729886055, -0.02049795538187027, 0.0718715712428093, 0.012347547337412834, 0.025347962975502014, 0.02700643055140972, 0.1405477374792099, -0.0240203607827425, 0.18443483114242554, 0.015527330338954926, -0.1852937489748001, 0.050192128866910934, -0.06316730380058289, 0.057507045567035675, 0.08576937764883041, 0.02910684421658516, -0.16323329508304596, -0.09888500720262527, -0.1822504997253418, -0.21334408223628998, -0.11936008185148239, -0.1634889841079712, -0.12052497267723083, 0.04330739006400108, -0.10133468359708786, -0.10281230509281158, -0.10395330935716629, 0.03005833923816681, 0.05875769257545471, -0.06107631325721741, -0.03608117625117302, -0.0598713681101799, 0.07713586091995239, 0.11546093225479126, 0.06224733591079712, -0.037699390202760696, 0.17272990942001343, 0.20749472081661224, -0.056669700890779495, 0.007140527945011854, -0.004709301982074976, 0.018411997705698013, 0.11396385729312897, -0.05599086359143257, -0.05827160179615021, -0.23092886805534363, -0.24773617088794708, -0.2743098735809326, -0.17671562731266022, -0.12149205058813095, -0.07042266428470612, 0.06142979487776756, -0.09113454073667526, -0.0530925914645195, -0.03605009987950325, 0.007674416061490774, 0.0003258993965573609, -0.12584179639816284, 0.03216294199228287, 0.0718916729092598, 0.08390547335147858, 0.09892886877059937, -0.052297499030828476, 0.003617257345467806, 0.10709957778453827, -0.047518420964479446, 0.108230821788311, -0.019159335643053055, 0.04927147924900055, -0.03440982103347778, -0.046824924647808075, -0.007789475843310356, 0.05116511508822441, -0.04210760071873665, -0.133415088057518, -0.2631116509437561, 0.016343291848897934, 0.02706347033381462, -0.09356984496116638, -0.045220281928777695, -0.11642926186323166, -0.07293063402175903, -0.00042947809561155736, -0.0002646048378665, 0.1263618916273117, -0.007309774402529001, 0.05921129137277603, 0.010189882479608059, 0.07761038094758987, 0.059799179434776306, 0.13718563318252563, 